{"learner":{"attributes":{"best_iteration":"54","best_ntree_limit":"55","best_score":"0.641437762188276","scikit_learn":"{\"n_estimators\": 55, \"objective\": \"reg:squarederror\", \"max_depth\": 3, \"max_leaves\": null, \"max_bin\": null, \"grow_policy\": null, \"learning_rate\": 0.0711915493738539, \"verbosity\": null, \"booster\": null, \"tree_method\": null, \"gamma\": 0.23329259563793403, \"min_child_weight\": null, \"max_delta_step\": null, \"subsample\": 0.546878100047157, \"sampling_method\": null, \"colsample_bytree\": 0.9242285913508805, \"colsample_bylevel\": null, \"colsample_bynode\": null, \"reg_alpha\": null, \"reg_lambda\": null, \"scale_pos_weight\": null, \"base_score\": null, \"missing\": NaN, \"num_parallel_tree\": null, \"random_state\": null, \"n_jobs\": null, \"monotone_constraints\": null, \"interaction_constraints\": null, \"importance_type\": null, \"gpu_id\": null, \"validate_parameters\": null, \"predictor\": null, \"enable_categorical\": false, \"max_cat_to_onehot\": null, \"eval_metric\": [\"rmse\"], \"early_stopping_rounds\": null, \"callbacks\": null, \"evals_result_\": {\"validation_0\": {\"rmse\": [1.9015061268664442, 1.797372099113371, 1.7013907615484305, 1.6056116998786472, 1.524388737039102, 1.4506399800788925, 1.3874142624095076, 1.3209309497853952, 1.2625366031959384, 1.216417570294992, 1.1690965405816494, 1.1250730594126992, 1.0816785009346572, 1.041300958344115, 1.007602894561885, 0.9813692999662387, 0.955311144330847, 0.9327210996615902, 0.9134930387000166, 0.8898057252074467, 0.8702470216879258, 0.8535851359340745, 0.8373727785903687, 0.8261932575650133, 0.8125949265874155, 0.8000811661101482, 0.7908120367428986, 0.7780129638970242, 0.7696617606660725, 0.7617855833962239, 0.7543786399245901, 0.7450330188009827, 0.7363455070997663, 0.7304221986155813, 0.724420762805862, 0.7175779013785558, 0.7102171542107352, 0.7061466655905358, 0.7006812657171162, 0.6963799045548066, 0.6910514306667013, 0.6849832947239629, 0.6816637222750496, 0.6761197593734272, 0.6728437409448086, 0.6712904386126983, 0.6670011259450332, 0.6621845515554836, 0.6598067759283109, 0.6572152821122522, 0.6525567388325748, 0.6486954168676702, 0.6467987434468301, 0.6439195144174021, 0.641437762188276]}}, \"_estimator_type\": \"regressor\"}"},"feature_names":["r2020B04","r2020B07","r2020B09","r2020B10"],"feature_types":["float","float","float","float"],"gradient_booster":{"model":{"gbtree_model_param":{"num_parallel_tree":"1","num_trees":"55","size_leaf_vector":"0"},"tree_info":[0,0,0,0,0,0,0,0,0,0,0,0,0,0,0,0,0,0,0,0,0,0,0,0,0,0,0,0,0,0,0,0,0,0,0,0,0,0,0,0,0,0,0,0,0,0,0,0,0,0,0,0,0,0,0],"trees":[{"base_weights":[1.8864413E0,1.9377319E0,5.141166E-1,1.3330868E0,2.0586245E0,1.4941312E-1,9.864652E-1,1.5487914E0,4.1935596E-1,2.2267973E0,1.6062994E0,4.2301023E-1,-8.2789324E-2],"categories":[],"categories_nodes":[],"categories_segments":[],"categories_sizes":[],"default_left":[1,1,1,1,1,1,0,0,0,0,0,0,0],"id":0,"left_children":[1,3,5,7,9,11,-1,-1,-1,-1,-1,-1,-1],"loss_changes":[6.112915E0,4.3461E0,7.1394503E-1,3.0953255E0,2.4325256E0,2.891404E-1,0E0,0E0,0E0,0E0,0E0,0E0,0E0],"parents":[2147483647,0,0,1,1,2,2,3,3,4,4,5,5],"right_children":[2,4,6,8,10,12,-1,-1,-1,-1,-1,-1,-1],"split_conditions":[8.70914E-1,-1.7193916E1,3.2756E-1,7.8892624E-1,-1.5151849E1,2.537676E-1,7.022799E-2,1.1026086E-1,2.9854601E-2,1.5852915E-1,1.14354946E-1,3.0114753E-2,-5.8939E-3],"split_indices":[1,3,0,1,3,0,0,0,0,0,0,0,0],"split_type":[0,0,0,0,0,0,0,0,0,0,0,0,0],"sum_hessian":[1E2,9.6E1,4E0,1.8E1,7.8E1,3E0,1E0,1.4E1,4E0,5.4E1,2.4E1,1E0,2E0],"tree_param":{"num_deleted":"0","num_feature":"4","num_nodes":"13","size_leaf_vector":"0"}},{"base_weights":[1.6398151E0,1.9409853E0,1.113163E0,2.2044144E0,1.5947906E0,1.2009996E0,-2.1534808E-2,4.7685736E-1,2.2401485E0,1.237562E0,1.8582081E0,3.9481366E-1,1.3650148E0,-3.0068165E-1,4.0795285E-1],"categories":[],"categories_nodes":[],"categories_segments":[],"categories_sizes":[],"default_left":[1,1,1,1,1,1,1,0,0,0,0,0,0,0,0],"id":1,"left_children":[1,3,5,7,9,11,13,-1,-1,-1,-1,-1,-1,-1,-1],"loss_changes":[1.5128082E1,2.6858826E0,4.211918E0,1.1541595E0,8.0566406E-1,4.61792E0,6.0222435E-1,0E0,0E0,0E0,0E0,0E0,0E0,0E0,0E0],"parents":[2147483647,0,0,1,1,2,2,3,3,4,4,5,5,6,6],"right_children":[2,4,6,8,10,12,14,-1,-1,-1,-1,-1,-1,-1,-1],"split_conditions":[7.963816E-1,5.5440676E-1,8.791136E-1,5.353223E-1,7.7638733E-1,8.0241597E-1,8.8362586E-1,3.3948213E-2,1.5947965E-1,8.810395E-2,1.3228871E-1,2.8107395E-2,9.717752E-2,-2.1405993E-2,2.9042795E-2],"split_indices":[1,2,1,1,1,1,1,0,0,0,0,0,0,0,0],"split_type":[0,0,0,0,0,0,0,0,0,0,0,0,0,0,0],"sum_hessian":[1.08E2,6.7E1,4.1E1,3.5E1,3.2E1,3.8E1,3E0,1E0,3.4E1,1.6E1,1.6E1,7E0,3.1E1,2E0,1E0],"tree_param":{"num_deleted":"0","num_feature":"4","num_nodes":"15","size_leaf_vector":"0"}},{"base_weights":[1.4998416E0,1.7800016E0,1.0685531E0,9.7172457E-1,1.8581052E0,7.231504E-2,1.1595446E0,1.1174527E0,-2.4186432E-2,1.2759672E0,1.9490135E0,4.582315E-1,-7.3567545E-1,1.3268805E0,4.7464803E-1],"categories":[],"categories_nodes":[],"categories_segments":[],"categories_sizes":[],"default_left":[1,1,1,1,1,1,1,0,0,0,0,0,0,0,0],"id":2,"left_children":[1,3,5,7,9,11,13,-1,-1,-1,-1,-1,-1,-1,-1],"loss_changes":[1.1751755E1,2.4240875E0,4.1766586E0,1.188086E0,6.88385E-1,1.896194E0,4.298332E0,0E0,0E0,0E0,0E0,0E0,0E0,0E0,0E0],"parents":[2147483647,0,0,1,1,2,2,3,3,4,4,5,5,6,6],"right_children":[2,4,6,8,10,12,14,-1,-1,-1,-1,-1,-1,-1,-1],"split_conditions":[7.9424715E-1,1.5600267E-1,1.9723293E-1,1.5513504E-1,-1.7864923E1,1.951631E-1,2.6794937E-1,7.9553194E-2,-1.7218696E-3,9.083808E-2,1.387533E-1,3.262221E-2,-5.2373875E-2,9.446268E-2,3.3790927E-2],"split_indices":[1,0,0,0,3,0,0,0,0,0,0,0,0,0,0],"split_type":[0,0,0,0,0,0,0,0,0,0,0,0,0,0,0],"sum_hessian":[1.12E2,6.6E1,4.6E1,7E0,5.9E1,4E0,4.2E1,6E0,1E0,1E1,4.9E1,3E0,1E0,3.3E1,9E0],"tree_param":{"num_deleted":"0","num_feature":"4","num_nodes":"15","size_leaf_vector":"0"}},{"base_weights":[1.4889152E0,1.604936E0,9.155796E-1,5.372778E-1,1.6782944E0,1.0545479E0,9.606921E-2,1.0103793E0,-7.014308E-2,1.7837304E0,7.618693E-1,6.971119E-1,1.593662E0,-5.4127824E-2,2.7333015E-1],"categories":[],"categories_nodes":[],"categories_segments":[],"categories_sizes":[],"default_left":[1,1,1,1,1,1,1,0,0,0,0,0,0,1,1],"id":3,"left_children":[1,3,5,7,9,11,-1,-1,-1,-1,-1,-1,-1,-1,-1],"loss_changes":[5.51503E0,5.833954E0,2.1764088E0,2.0824728E0,6.3709717E0,2.1649208E0,1.21291034E-1,0E0,0E0,0E0,0E0,0E0,0E0,0E0,0E0],"parents":[2147483647,0,0,1,1,2,2,3,3,4,4,5,5,6,6],"right_children":[2,4,6,8,10,12,-1,-1,-1,-1,-1,-1,-1,-1,-1],"split_conditions":[6.438168E-1,-1.815572E1,-1.4571247E1,2.7894843E-1,2.577139E-1,2.3984551E-1,6.839316E-3,7.193047E-2,-4.9935947E-3,1.2698653E-1,5.423866E-2,4.9628478E-2,1.13455266E-1,-3.8534435E-3,1.9458797E-2],"split_indices":[2,3,3,2,0,0,3,0,0,0,0,0,0,2147483647,2147483647],"split_type":[0,0,0,0,0,0,0,0,0,0,0,0,0,0,0],"sum_hessian":[1.04E2,8.5E1,1.9E1,6E0,7.9E1,1.6E1,3E0,3E0,3E0,7E1,9E0,1.1E1,5E0,2E0,1E0],"tree_param":{"num_deleted":"2","num_feature":"4","num_nodes":"15","size_leaf_vector":"0"}},{"base_weights":[1.3665648E0,2.2942293E0,1.2749087E0,1.6062821E-1,1.3170311E0,-5.8404576E-2,3.2611826E-1,1.3498895E0,1.7452948E-1],"categories":[],"categories_nodes":[],"categories_segments":[],"categories_sizes":[],"default_left":[1,0,1,1,1,1,1,0,0],"id":4,"left_children":[1,-1,3,-1,7,-1,-1,-1,-1],"loss_changes":[6.768036E0,0E0,4.7637024E0,2.0028554E-1,3.5935516E0,0E0,0E0,0E0,0E0],"parents":[2147483647,0,0,2,2,3,3,4,4],"right_children":[2,-1,4,-1,8,-1,-1,-1,-1],"split_conditions":[6.0569686E-1,1.6332974E-1,-1.8212166E1,1.1435372E-2,6.936482E-1,-4.1579125E-3,2.3216864E-2,9.6100725E-2,1.2425024E-2],"split_indices":[1,0,3,2,2,2147483647,2147483647,0,0],"split_type":[0,0,0,0,0,0,0,0,0],"sum_hessian":[1.13E2,8E0,1.05E2,4E0,1.01E2,2E0,2E0,9.8E1,3E0],"tree_param":{"num_deleted":"2","num_feature":"4","num_nodes":"9","size_leaf_vector":"0"}},{"base_weights":[1.1515179E0,1.3223672E0,6.169365E-1,8.782499E-1,1.4754238E0,7.072393E-1,-1.24265656E-1,2.1418874E0,5.1842797E-1,2.1423502E0,1.2683735E0,8.276215E-1,3.61094E-2,1.18514836E-1,-4.2630357E-1],"categories":[],"categories_nodes":[],"categories_segments":[],"categories_sizes":[],"default_left":[1,1,1,1,1,1,1,0,0,0,0,0,0,0,0],"id":5,"left_children":[1,3,5,7,9,11,13,-1,-1,-1,-1,-1,-1,-1,-1],"loss_changes":[9.413452E0,4.4141235E0,2.0289307E0,9.802013E0,5.706024E0,2.0707102E0,3.4383893E-1,0E0,0E0,0E0,0E0,0E0,0E0,0E0,0E0],"parents":[2147483647,0,0,1,1,2,2,3,3,4,4,5,5,6,6],"right_children":[2,4,6,8,10,12,14,-1,-1,-1,-1,-1,-1,-1,-1],"split_conditions":[6.34618E-1,-1.6975191E1,-1.4496117E1,5.864011E-1,4.8653215E-1,6.936482E-1,8.7286544E-1,1.5248428E-1,3.690769E-2,1.5251723E-1,9.0297475E-2,5.8919657E-2,2.570684E-3,8.4372545E-3,-3.0349212E-2],"split_indices":[2,3,3,1,2,2,1,0,0,0,0,0,0,0,0],"split_type":[0,0,0,0,0,0,0,0,0,0,0,0,0,0,0],"sum_hessian":[1.11E2,8.3E1,2.8E1,2.3E1,6E1,2.5E1,3E0,4E0,1.9E1,1.2E1,4.8E1,2.1E1,4E0,2E0,1E0],"tree_param":{"num_deleted":"0","num_feature":"4","num_nodes":"15","size_leaf_vector":"0"}},{"base_weights":[1.0814601E0,1.8433999E0,1.0132151E0,2.2059202E-1,2.0771027E0,5.686799E-2,1.0663034E0,3.2184035E-1,-3.1538448E-1,1.1528263E0,7.504008E-1],"categories":[],"categories_nodes":[],"categories_segments":[],"categories_sizes":[],"default_left":[1,1,1,0,0,1,1,0,0,0,0],"id":6,"left_children":[1,3,5,-1,-1,7,9,-1,-1,-1,-1],"loss_changes":[3.3321075E0,2.1965904E0,4.71183E0,0E0,0E0,6.9332314E-1,1.5675354E0,0E0,0E0,0E0,0E0],"parents":[2147483647,0,0,1,1,2,2,5,5,6,6],"right_children":[2,4,6,-1,-1,8,10,-1,-1,-1,-1],"split_conditions":[5.620395E-1,-2.1637127E1,-1.8335077E1,1.5704287E-2,1.4787215E-1,-1.8714731E1,-1.5083515E1,2.2912312E-2,-2.245271E-2,8.207149E-2,5.3422194E-2],"split_indices":[1,3,3,0,0,3,3,0,0,0,0],"split_type":[0,0,0,0,0,0,0,0,0,0,0],"sum_hessian":[9.9E1,6E0,9.3E1,1E0,5E0,5E0,8.8E1,3E0,2E0,6.7E1,2.1E1],"tree_param":{"num_deleted":"0","num_feature":"4","num_nodes":"11","size_leaf_vector":"0"}},{"base_weights":[1.1160594E0,1.2104228E0,2.131031E-1,4.1515145E-1,1.2730229E0,3.9692062E-1,-4.706563E-1,1.1507801E0,4.057472E-2,1.5921468E0,1.0856562E0,-3.313012E-1,6.2038875E-1],"categories":[],"categories_nodes":[],"categories_segments":[],"categories_sizes":[],"default_left":[1,1,1,1,1,1,0,0,0,0,0,0,0],"id":7,"left_children":[1,3,5,7,9,11,-1,-1,-1,-1,-1,-1,-1],"loss_changes":[9.455521E0,4.5992737E0,1.6950564E0,2.4332519E0,3.951828E0,1.8328791E0,0E0,0E0,0E0,0E0,0E0,0E0,0E0],"parents":[2147483647,0,0,1,1,2,2,3,3,4,4,5,5],"right_children":[2,4,6,8,10,12,-1,-1,-1,-1,-1,-1,-1],"split_conditions":[2.693013E-1,-1.8120167E1,8.791136E-1,1.8890317E-1,7.5522286E-1,8.236617E-1,-3.350675E-2,8.192582E-2,2.888577E-3,1.13347396E-1,7.7289544E-2,-2.3585847E-2,4.4166435E-2],"split_indices":[0,3,1,0,1,1,0,0,0,0,0,0,0],"split_type":[0,0,0,0,0,0,0,0,0,0,0,0,0],"sum_hessian":[1.13E2,1.02E2,1.1E1,8E0,9.4E1,9E0,2E0,2E0,6E0,3.2E1,6.2E1,2E0,7E0],"tree_param":{"num_deleted":"0","num_feature":"4","num_nodes":"13","size_leaf_vector":"0"}},{"base_weights":[1.0246361E0,1.1500971E0,5.16692E-1,1.3035021E0,7.693399E-1,1.0748267E-2,6.4926934E-1,1.032967E0,1.5248485E0,-3.011928E-1,8.6327296E-1,-3.2679087E-1,2.6121557E-1,7.132722E-1,-2.5139102E-1],"categories":[],"categories_nodes":[],"categories_segments":[],"categories_sizes":[],"default_left":[1,1,1,1,1,1,1,0,0,0,0,0,0,0,0],"id":8,"left_children":[1,3,5,7,9,11,13,-1,-1,-1,-1,-1,-1,-1,-1],"loss_changes":[6.5431976E0,4.195648E0,1.6028624E0,2.1375656E0,3.0756454E0,5.926179E-1,1.2745619E0,0E0,0E0,0E0,0E0,0E0,0E0,0E0,0E0],"parents":[2147483647,0,0,1,1,2,2,3,3,4,4,5,5,6,6],"right_children":[2,4,6,8,10,12,14,-1,-1,-1,-1,-1,-1,-1,-1],"split_conditions":[6.3472795E-1,2.2174583E-1,1.9502273E-1,1.8954334E-1,2.2596173E-1,6.639029E-1,6.875096E-1,7.353852E-2,1.0855632E-1,-2.1442382E-2,6.145774E-2,-2.3264749E-2,1.8596342E-2,5.0778955E-2,-1.7896917E-2],"split_indices":[2,0,0,0,0,2,2,0,0,0,0,0,0,0,0],"split_type":[0,0,0,0,0,0,0,0,0,0,0,0,0,0,0],"sum_hessian":[1.11E2,8.8E1,2.3E1,6.1E1,2.7E1,5E0,1.8E1,3E1,3.1E1,2E0,2.5E1,2E0,3E0,1.7E1,1E0],"tree_param":{"num_deleted":"0","num_feature":"4","num_nodes":"15","size_leaf_vector":"0"}},{"base_weights":[7.8176683E-1,1.0992008E0,4.615079E-1,4.8886716E-1,1.2038152E0,1.4856988E-1,6.5245134E-1,1.0296941E0,4.6838015E-2,1.7755334E0,9.696678E-1,2.9780877E-1,-5.601476E-1,2.9228225E-1,7.603293E-1],"categories":[],"categories_nodes":[],"categories_segments":[],"categories_sizes":[],"default_left":[1,1,1,1,1,1,1,0,0,0,0,0,0,0,0],"id":9,"left_children":[1,3,5,7,9,11,13,-1,-1,-1,-1,-1,-1,-1,-1],"loss_changes":[9.760479E0,2.6039772E0,3.0102463E0,2.1033225E0,3.9007034E0,2.3879492E0,1.0211058E0,0E0,0E0,0E0,0E0,0E0,0E0,0E0,0E0],"parents":[2147483647,0,0,1,1,2,2,3,3,4,4,5,5,6,6],"right_children":[2,4,6,8,10,12,14,-1,-1,-1,-1,-1,-1,-1,-1],"split_conditions":[7.8045917E-1,-1.780863E1,-1.6350018E1,1.8246847E-1,7.1760094E-1,-1.6525045E1,7.959162E-1,7.330552E-2,3.3344708E-3,1.2640297E-1,6.9032155E-2,2.1201467E-2,-3.9877776E-2,2.0808026E-2,5.4129023E-2],"split_indices":[1,3,3,0,1,3,1,0,0,0,0,0,0,0,0],"split_type":[0,0,0,0,0,0,0,0,0,0,0,0,0,0,0],"sum_hessian":[1E2,4.9E1,5.1E1,8E0,4.1E1,2E1,3.1E1,3E0,5E0,1E1,3.1E1,1.7E1,3E0,8E0,2.3E1],"tree_param":{"num_deleted":"0","num_feature":"4","num_nodes":"15","size_leaf_vector":"0"}},{"base_weights":[8.7616205E-1,9.310778E-1,4.5872826E-2,-5.42022E-2,9.410728E-1,-4.9105382E-1,1.9272718E-1,1.3897648E0,8.8393605E-1,4.525333E-1,-3.0452543E-1],"categories":[],"categories_nodes":[],"categories_segments":[],"categories_sizes":[],"default_left":[1,1,1,0,1,0,1,0,0,0,0],"id":10,"left_children":[1,3,5,-1,7,-1,9,-1,-1,-1,-1],"loss_changes":[5.0640335E0,1.0850372E0,7.254395E-1,0E0,1.437767E0,0E0,1.0421329E0,0E0,0E0,0E0,0E0],"parents":[2147483647,0,0,1,1,2,2,4,4,6,6],"right_children":[2,4,6,-1,8,-1,10,-1,-1,-1,-1],"split_conditions":[2.8526524E-1,1.338191E-1,2.9808792E-1,-3.8587386E-3,2.7412987E-1,-3.495888E-2,8.797377E-1,9.893951E-2,6.292877E-2,3.221655E-2,-2.1679638E-2],"split_indices":[0,0,0,0,2,0,1,0,0,0,0],"split_type":[0,0,0,0,0,0,0,0,0,0,0],"sum_hessian":[1.11E2,1.04E2,7E0,1E0,1.03E2,1E0,6E0,9E0,9.4E1,4E0,2E0],"tree_param":{"num_deleted":"0","num_feature":"4","num_nodes":"11","size_leaf_vector":"0"}},{"base_weights":[7.786629E-1,8.8119316E-1,2.897856E-1,1.905944E-1,9.626093E-1,4.5852512E-1,-6.498578E-2,9.148799E-1,8.464919E-3,1.0706894E0,5.933935E-1,-2.1839304E-1,6.0145503E-1,8.306332E-2,-2.9007235E-1],"categories":[],"categories_nodes":[],"categories_segments":[],"categories_sizes":[],"default_left":[1,1,1,1,1,1,1,0,0,0,0,0,0,0,0],"id":11,"left_children":[1,3,5,7,9,11,13,-1,-1,-1,-1,-1,-1,-1,-1],"loss_changes":[4.8072357E0,4.483284E0,1.1672126E0,1.3113931E0,2.3176193E0,1.3891282E0,2.573614E-1,0E0,0E0,0E0,0E0,0E0,0E0,0E0,0E0],"parents":[2147483647,0,0,1,1,2,2,3,3,4,4,5,5,6,6],"right_children":[2,4,6,8,10,12,14,-1,-1,-1,-1,-1,-1,-1,-1],"split_conditions":[8.158803E-1,-1.815287E1,-1.5333609E1,4.5716748E-1,-1.5083429E1,5.5672336E-1,8.768102E-1,6.513172E-2,6.026307E-4,7.622404E-2,4.2244602E-2,-1.5547739E-2,4.2818516E-2,5.9134066E-3,-2.06507E-2],"split_indices":[1,3,3,1,3,2,1,0,0,0,0,0,0,0,0],"split_type":[0,0,0,0,0,0,0,0,0,0,0,0,0,0,0],"sum_hessian":[1E2,8.2E1,1.8E1,9E0,7.3E1,1.2E1,6E0,1E0,8E0,5.5E1,1.8E1,2E0,1E1,4E0,2E0],"tree_param":{"num_deleted":"0","num_feature":"4","num_nodes":"15","size_leaf_vector":"0"}},{"base_weights":[7.559295E-1,8.9739364E-1,3.5820985E-1,1.6313565E-1,9.6651405E-1,4.0176022E-1,-4.5237553E-1,8.369543E-1,-5.268905E-2,1.057923E0,5.1225406E-1,1.8175927E-1,6.5854913E-1],"categories":[],"categories_nodes":[],"categories_segments":[],"categories_sizes":[],"default_left":[1,1,1,1,1,1,0,0,0,0,0,0,0],"id":12,"left_children":[1,3,5,7,9,11,-1,-1,-1,-1,-1,-1,-1],"loss_changes":[5.7549515E0,3.8517532E0,1.2407856E0,1.2075119E0,2.4477615E0,1.5186229E0,0E0,0E0,0E0,0E0,0E0,0E0,0E0],"parents":[2147483647,0,0,1,1,2,2,3,3,4,4,5,5],"right_children":[2,4,6,8,10,12,-1,-1,-1,-1,-1,-1,-1],"split_conditions":[6.34321E-1,-1.802695E1,3.5442588E-1,1.7365354E-1,2.4578649E-1,2.1029158E-1,-3.2205313E-2,5.9584074E-2,-3.751015E-3,7.531518E-2,3.646816E-2,1.2939724E-2,4.6883132E-2],"split_indices":[2,3,0,0,0,0,0,0,0,0,0,0,0],"split_type":[0,0,0,0,0,0,0,0,0,0,0,0,0],"sum_hessian":[1.07E2,7.8E1,2.9E1,7E0,7.1E1,2.8E1,1E0,1E0,6E0,5.8E1,1.3E1,1.6E1,1.2E1],"tree_param":{"num_deleted":"0","num_feature":"4","num_nodes":"13","size_leaf_vector":"0"}},{"base_weights":[7.3998636E-1,8.06365E-1,1.3622884E-1,3.7368983E-1,9.195142E-1,-5.299205E-1,2.4496247E-1,1.0905681E0,2.474736E-1,1.3438777E0,7.470379E-1,3.238154E-1,-2.7178347E-1],"categories":[],"categories_nodes":[],"categories_segments":[],"categories_sizes":[],"default_left":[1,1,1,1,1,0,1,0,0,0,0,0,0],"id":13,"left_children":[1,3,5,7,9,-1,11,-1,-1,-1,-1,-1,-1],"loss_changes":[4.2584953E0,4.454155E0,9.9900466E-1,1.72071E0,4.631912E0,0E0,5.3622395E-1,0E0,0E0,0E0,0E0,0E0,0E0],"parents":[2147483647,0,0,1,1,2,2,3,3,4,4,6,6],"right_children":[2,4,6,8,10,-1,12,-1,-1,-1,-1,-1,-1],"split_conditions":[2.816556E-1,-1.7182117E1,5.405738E-1,1.0062155E-1,5.4144824E-1,-3.7725862E-2,6.958171E-1,7.763923E-2,1.7618028E-2,9.5672734E-2,5.3182784E-2,2.305292E-2,-1.9348687E-2],"split_indices":[0,3,2,2,2,0,2,0,0,0,0,0,0],"split_type":[0,0,0,0,0,0,0,0,0,0,0,0,0],"sum_hessian":[1.08E2,9.7E1,1.1E1,2.1E1,7.6E1,1E0,1E1,2E0,1.9E1,2E1,5.6E1,9E0,1E0],"tree_param":{"num_deleted":"0","num_feature":"4","num_nodes":"13","size_leaf_vector":"0"}},{"base_weights":[6.5988946E-1,9.078572E-1,2.3253101E-1,9.760317E-1,2.7454412E-1,2.9950967E-1,-3.0961725E-1,7.4349296E-1,1.1508073E0,-2.229341E-2,3.7720552E-1,-2.4802992E-2,4.3767282E-1,4.3080628E-2,-4.085619E-1],"categories":[],"categories_nodes":[],"categories_segments":[],"categories_sizes":[],"default_left":[1,1,1,1,1,1,1,0,0,0,0,0,0,1,1],"id":14,"left_children":[1,3,5,7,9,11,-1,-1,-1,-1,-1,-1,-1,-1,-1],"loss_changes":[1.1233772E1,2.6679916E0,1.5815401E0,1.6235466E0,2.5219923E-1,1.6687539E0,1.920889E-1,0E0,0E0,0E0,0E0,0E0,0E0,0E0,0E0],"parents":[2147483647,0,0,1,1,2,2,3,3,4,4,5,5,6,6],"right_children":[2,4,6,8,10,12,-1,-1,-1,-1,-1,-1,-1,-1,-1],"split_conditions":[7.944933E-1,2.3498738E-1,8.725598E-1,1.8959898E-1,-1.6783916E1,-1.6468685E1,-2.2042131E-2,5.2930415E-2,8.1927754E-2,-1.5871023E-3,2.6853845E-2,-1.7657634E-3,3.1158606E-2,3.0669766E-3,-2.9086154E-2],"split_indices":[1,0,1,0,3,3,0,0,0,0,0,0,0,2147483647,2147483647],"split_type":[0,0,0,0,0,0,0,0,0,0,0,0,0,0,0],"sum_hessian":[1.07E2,6.7E1,4E1,6E1,7E0,3.6E1,4E0,2.8E1,3.2E1,2E0,5E0,1.1E1,2.5E1,1E0,3E0],"tree_param":{"num_deleted":"2","num_feature":"4","num_nodes":"15","size_leaf_vector":"0"}},{"base_weights":[5.5850583E-1,6.086637E-1,-3.0947492E-1,6.533695E-1,3.436825E-2,-4.3788838E-1,2.305029E-1,6.862586E-1,2.821639E-1,-5.4618204E-1,4.156737E-1,-4.111441E-2,-6.2599677E-1],"categories":[],"categories_nodes":[],"categories_segments":[],"categories_sizes":[],"default_left":[1,1,1,1,1,1,0,0,0,0,0,0,0],"id":15,"left_children":[1,3,5,7,9,11,-1,-1,-1,-1,-1,-1,-1],"loss_changes":[5.2385406E0,2.8017273E0,5.863175E-1,1.0516396E0,2.2193363E0,4.2208147E-1,0E0,0E0,0E0,0E0,0E0,0E0,0E0],"parents":[2147483647,0,0,1,1,2,2,3,3,4,4,5,5],"right_children":[2,4,6,8,10,12,-1,-1,-1,-1,-1,-1,-1],"split_conditions":[6.807265E-1,2.6794937E-1,7.05105E-1,6.460314E-1,2.945307E-1,2.0527351E-1,1.6409859E-2,4.8855815E-2,2.0087684E-2,-3.8883545E-2,2.9592454E-2,-2.9269985E-3,-4.456568E-2],"split_indices":[2,0,2,2,0,0,0,0,0,0,0,0,0],"split_type":[0,0,0,0,0,0,0,0,0,0,0,0,0],"sum_hessian":[1.15E2,1.09E2,6E0,1.01E2,8E0,5E0,1E0,9.2E1,9E0,3E0,5E0,2E0,3E0],"tree_param":{"num_deleted":"0","num_feature":"4","num_nodes":"13","size_leaf_vector":"0"}},{"base_weights":[6.4594984E-1,1.294471E0,5.817653E-1,-3.466252E-1,6.236229E-1,4.6259444E-2,-6.239681E-1,6.8729043E-1,1.9707313E-1],"categories":[],"categories_nodes":[],"categories_segments":[],"categories_sizes":[],"default_left":[1,0,1,1,1,0,0,0,0],"id":16,"left_children":[1,-1,3,5,7,-1,-1,-1,-1],"loss_changes":[3.78405E0,0E0,4.1410446E0,5.7368326E-1,2.4988174E0,0E0,0E0,0E0,0E0],"parents":[2147483647,0,0,2,2,3,3,4,4],"right_children":[2,-1,4,6,8,-1,-1,-1,-1],"split_conditions":[6.347646E-1,9.21554E-2,7.0282316E-1,1.6263011E-1,8.2522076E-1,3.2932814E-3,-4.442126E-2,4.892927E-2,1.40299415E-2],"split_indices":[1,0,1,0,1,0,0,0,0],"split_type":[0,0,0,0,0,0,0,0,0],"sum_hessian":[1.08E2,8E0,1E2,4E0,9.6E1,2E0,2E0,8.3E1,1.3E1],"tree_param":{"num_deleted":"0","num_feature":"4","num_nodes":"9","size_leaf_vector":"0"}},{"base_weights":[5.153152E-1,1.1715965E0,4.4911054E-1,1.3947922E0,5.439038E-1,-1.3867088E-1,4.9636766E-1,-1.8939131E-1,8.51466E-1,1.8949431E-1,-2.1262224E-1,5.329772E-1,-2.3258972E-1],"categories":[],"categories_nodes":[],"categories_segments":[],"categories_sizes":[],"default_left":[1,1,1,0,1,1,1,0,0,0,0,0,0],"id":17,"left_children":[1,3,5,-1,7,9,11,-1,-1,-1,-1,-1,-1],"loss_changes":[4.0359535E0,5.022516E-1,2.7631874E0,0E0,1.0633959E0,2.3443682E-1,2.525776E0,0E0,0E0,0E0,0E0,0E0,0E0],"parents":[2147483647,0,0,1,1,2,2,4,4,5,5,6,6],"right_children":[2,4,6,-1,8,10,12,-1,-1,-1,-1,-1,-1],"split_conditions":[2.4394077E-1,6.158477E-1,-1.7902729E1,9.929742E-2,6.623124E-1,-1.9105843E1,6.936482E-1,-1.3483061E-2,6.0617182E-2,1.3490394E-2,-1.5136907E-2,3.7943475E-2,-1.6558422E-2],"split_indices":[2,1,3,0,1,3,2,0,0,0,0,0,0],"split_type":[0,0,0,0,0,0,0,0,0,0,0,0,0],"sum_hessian":[1.04E2,8E0,9.6E1,5E0,3E0,7E0,8.9E1,1E0,2E0,1E0,6E0,8.5E1,4E0],"tree_param":{"num_deleted":"0","num_feature":"4","num_nodes":"13","size_leaf_vector":"0"}},{"base_weights":[3.9535E-1,5.028687E-1,1.0411866E-1,5.885952E-1,-5.339596E-2,1.5940519E-1,-4.834529E-1,-1.4251275E-1,6.3369733E-1,-4.7878936E-1,2.1914941E-1,-1.9994281E-1,2.392725E-1],"categories":[],"categories_nodes":[],"categories_segments":[],"categories_sizes":[],"default_left":[1,1,1,1,1,1,0,0,0,0,0,0,0],"id":18,"left_children":[1,3,5,7,9,11,-1,-1,-1,-1,-1,-1,-1],"loss_changes":[3.5173035E0,3.98942E0,1.1165782E0,2.4644737E0,1.4961944E0,9.088456E-1,0E0,0E0,0E0,0E0,0E0,0E0,0E0],"parents":[2147483647,0,0,1,1,2,2,3,3,4,4,5,5],"right_children":[2,4,6,8,10,12,-1,-1,-1,-1,-1,-1,-1],"split_conditions":[2.3432241E-1,6.4494425E-1,6.8643725E-1,1.5600267E-1,6.4986664E-1,4.8359495E-1,-3.441776E-2,-1.0145703E-2,4.5113895E-2,-3.4085758E-2,1.5601586E-2,-1.4234238E-2,1.703418E-2],"split_indices":[0,2,2,0,2,2,0,0,0,0,0,0,0],"split_type":[0,0,0,0,0,0,0,0,0,0,0,0,0],"sum_hessian":[1.13E2,8.2E1,3.1E1,7.1E1,1.1E1,2.9E1,2E0,4E0,6.7E1,4E0,7E0,5E0,2.4E1],"tree_param":{"num_deleted":"0","num_feature":"4","num_nodes":"13","size_leaf_vector":"0"}},{"base_weights":[4.8143005E-1,9.2340326E-1,3.8701752E-1,6.0878325E-1,1.3463061E0,3.5269254E-1,1.549345E0,1.0183419E0,-8.63554E-2,4.776683E-1,2.763561E-2],"categories":[],"categories_nodes":[],"categories_segments":[],"categories_sizes":[],"default_left":[1,1,1,1,0,1,0,0,0,0,0],"id":19,"left_children":[1,3,5,7,-1,9,-1,-1,-1,-1,-1],"loss_changes":[3.6067696E0,1.3092508E0,2.6453056E0,3.2196393E0,0E0,3.1961136E0,0E0,0E0,0E0,0E0,0E0],"parents":[2147483647,0,0,1,1,2,2,3,3,5,5],"right_children":[2,4,6,8,-1,10,-1,-1,-1,-1,-1],"split_conditions":[4.61485E-1,3.9115885E-1,6.9904774E-1,1.983138E-1,9.584562E-2,6.34618E-1,1.1030027E-1,7.249734E-2,-6.147775E-3,3.4005944E-2,1.967422E-3],"split_indices":[2,2,2,0,0,2,0,0,0,0,0],"split_type":[0,0,0,0,0,0,0,0,0,0,0],"sum_hessian":[9.4E1,1.5E1,7.9E1,1E1,5E0,7.8E1,1E0,6E0,4E0,5.6E1,2.2E1],"tree_param":{"num_deleted":"0","num_feature":"4","num_nodes":"11","size_leaf_vector":"0"}},{"base_weights":[4.896564E-1,4.6792826E-1,1.494195E0,5.4792947E-1,8.3735906E-2,6.10785E-1,-4.7421433E-2,-6.67958E-2,5.787965E-1],"categories":[],"categories_nodes":[],"categories_segments":[],"categories_sizes":[],"default_left":[1,1,0,1,1,0,0,0,0],"id":20,"left_children":[1,3,-1,5,7,-1,-1,-1,-1],"loss_changes":[1.8327255E0,3.488739E0,0E0,3.583969E0,1.60363E0,0E0,0E0,0E0,0E0],"parents":[2147483647,0,0,1,1,3,3,4,4],"right_children":[2,4,-1,6,8,-1,-1,-1,-1],"split_conditions":[6.9904774E-1,6.438168E-1,1.06374055E-1,2.5248027E-1,3.1959793E-1,4.3482732E-2,-3.3760052E-3,-4.7552967E-3,4.120542E-2],"split_indices":[2,2,0,0,0,0,0,0,0],"split_type":[0,0,0,0,0,0,0,0,0],"sum_hessian":[1.15E2,1.14E2,1E0,9.4E1,2E1,8.5E1,9E0,1.6E1,4E0],"tree_param":{"num_deleted":"0","num_feature":"4","num_nodes":"9","size_leaf_vector":"0"}},{"base_weights":[4.5011902E-1,7.249769E-1,3.541278E-1,-1.8551624E-1,7.6713115E-1,-1.8905872E-1,4.0734598E-1,8.808506E-1,4.01156E-1,3.6021933E-1,-4.3218794E-1,-5.577763E-1,4.2792568E-1],"categories":[],"categories_nodes":[],"categories_segments":[],"categories_sizes":[],"default_left":[1,1,1,0,1,1,1,0,0,0,0,0,0],"id":21,"left_children":[1,3,5,-1,7,9,11,-1,-1,-1,-1,-1,-1],"loss_changes":[2.5927334E0,1.1786051E0,2.4474192E0,0E0,7.287226E-1,1.224047E0,1.7283325E0,0E0,0E0,0E0,0E0,0E0,0E0],"parents":[2147483647,0,0,1,1,2,2,4,4,5,5,6,6],"right_children":[2,4,6,-1,8,10,12,-1,-1,-1,-1,-1,-1],"split_conditions":[4.9572587E-1,1.7344964E-1,1.7236683E-1,-1.3207189E-2,2.1859875E-1,7.44153E-1,5.0153744E-1,6.270912E-2,2.8558917E-2,2.5644572E-2,-3.076813E-2,-3.9708957E-2,3.0464692E-2],"split_indices":[2,2,0,0,0,1,2,0,0,0,0,0,0],"split_type":[0,0,0,0,0,0,0,0,0,0,0,0,0],"sum_hessian":[1.07E2,2.6E1,8.1E1,1E0,2.5E1,7E0,7.4E1,1.8E1,7E0,2E0,5E0,1E0,7.3E1],"tree_param":{"num_deleted":"0","num_feature":"4","num_nodes":"13","size_leaf_vector":"0"}},{"base_weights":[4.0311325E-1,-2.187686E-1,4.3309683E-1,4.777813E-1,-4.5363483E-1,8.9159846E-1,3.3476752E-1,-2.5774908E-1,-6.185889E-1,6.5779716E-2,1.0423282E0,6.429726E-2,4.1276166E-1],"categories":[],"categories_nodes":[],"categories_segments":[],"categories_sizes":[],"default_left":[1,1,1,0,1,1,1,1,1,0,0,0,0],"id":22,"left_children":[1,3,5,-1,-1,9,11,-1,-1,-1,-1,-1,-1],"loss_changes":[2.2577133E0,1.1983144E0,4.705862E0,0E0,2.120018E-3,2.2964687E0,1.9353046E0,0E0,0E0,0E0,0E0,0E0,0E0],"parents":[2147483647,0,0,1,1,2,2,4,4,5,5,6,6],"right_children":[2,4,6,-1,-1,10,12,-1,-1,-1,-1,-1,-1],"split_conditions":[-1.8971409E1,1.0062155E-1,4.4677156E-1,3.401399E-2,-3.2294966E-2,-1.7864923E1,-1.6638763E1,-1.8349556E-2,-4.4038303E-2,4.68296E-3,7.420496E-2,4.5774216E-3,2.9385142E-2],"split_indices":[3,2,2,0,1,3,3,2147483647,2147483647,0,0,0,0],"split_type":[0,0,0,0,0,0,0,0,0,0,0,0,0],"sum_hessian":[1.15E2,5E0,1.1E2,1E0,4E0,1.8E1,9.2E1,3E0,1E0,3E0,1.5E1,2.1E1,7.1E1],"tree_param":{"num_deleted":"2","num_feature":"4","num_nodes":"13","size_leaf_vector":"0"}},{"base_weights":[3.0182305E-1,2.790985E-1,1.423487E0,5.8070076E-1,1.9892128E-1,4.4042337E-1,8.384172E-1,2.3888144E-1,-3.090181E-1],"categories":[],"categories_nodes":[],"categories_segments":[],"categories_sizes":[],"default_left":[1,1,0,1,1,0,0,0,0],"id":23,"left_children":[1,3,-1,5,7,-1,-1,-1,-1],"loss_changes":[2.4829998E0,2.5928288E0,0E0,4.622321E-1,1.9005797E0,0E0,0E0,0E0,0E0],"parents":[2147483647,0,0,1,1,3,3,4,4],"right_children":[2,4,-1,6,8,-1,-1,-1,-1],"split_conditions":[7.001201E-1,4.8682773E-1,1.0134024E-1,7.664578E-1,6.8196553E-1,3.1354424E-2,5.9688218E-2,1.700634E-2,-2.1999478E-2],"split_indices":[2,2,0,1,2,0,0,0,0],"split_type":[0,0,0,0,0,0,0,0,0],"sum_hessian":[1.12E2,1.11E2,1E0,2.2E1,8.9E1,1.6E1,6E0,8.3E1,6E0],"tree_param":{"num_deleted":"0","num_feature":"4","num_nodes":"9","size_leaf_vector":"0"}},{"base_weights":[3.0785862E-1,3.9501664E-1,9.7354114E-2,3.1200895E-1,9.5317036E-1,1.9484887E-2,9.2146426E-1,3.446719E-1,-1.9460908E-1,1.2199212E0,4.4243526E-1,1.2020206E-1,-5.685717E-1,9.379566E-3,1.3728168E0],"categories":[],"categories_nodes":[],"categories_segments":[],"categories_sizes":[],"default_left":[1,1,1,1,1,1,1,0,0,0,0,0,0,0,0],"id":24,"left_children":[1,3,5,7,9,11,13,-1,-1,-1,-1,-1,-1,-1,-1],"loss_changes":[2.0714674E0,3.4554167E0,2.228094E0,1.2585073E0,8.226538E-1,2.0228474E0,1.2221386E0,0E0,0E0,0E0,0E0,0E0,0E0,0E0,0E0],"parents":[2147483647,0,0,1,1,2,2,3,3,4,4,5,5,6,6],"right_children":[2,4,6,8,10,12,14,-1,-1,-1,-1,-1,-1,-1,-1],"split_conditions":[6.34321E-1,6.2732375E-1,7.001201E-1,2.6617664E-1,2.0238616E-1,6.873002E-1,2.3014283E-1,2.4537727E-2,-1.3854521E-2,8.684808E-2,3.1497654E-2,8.557371E-3,-4.04775E-2,6.6774583E-4,9.7732954E-2],"split_indices":[2,2,2,0,0,2,0,0,0,0,0,0,0,0,0],"split_type":[0,0,0,0,0,0,0,0,0,0,0,0,0,0,0],"sum_hessian":[1.14E2,8E1,3.4E1,7.1E1,9E0,3.2E1,2E0,6.7E1,4E0,5E0,4E0,2.8E1,4E0,1E0,1E0],"tree_param":{"num_deleted":"0","num_feature":"4","num_nodes":"15","size_leaf_vector":"0"}},{"base_weights":[2.8795794E-1,-1.7352289E-1,3.5014406E-1,3.948098E-1,-4.359989E-1,-2.173385E-1,4.0999717E-1,-1.907112E-1,6.535539E-1,-7.6874244E-1,-8.260429E-2,1.4301522E-1,-6.13446E-1,4.8493123E-1,1.02910206E-1],"categories":[],"categories_nodes":[],"categories_segments":[],"categories_sizes":[],"default_left":[1,1,1,1,1,1,1,0,0,0,0,0,0,0,0],"id":25,"left_children":[1,3,5,7,9,11,13,-1,-1,-1,-1,-1,-1,-1,-1],"loss_changes":[2.557458E0,1.8130473E0,2.7044592E0,7.306404E-1,8.772167E-1,1.2296427E0,1.5608845E0,0E0,0E0,0E0,0E0,0E0,0E0,0E0,0E0],"parents":[2147483647,0,0,1,1,2,2,3,3,4,4,5,5,6,6],"right_children":[2,4,6,8,10,12,14,-1,-1,-1,-1,-1,-1,-1,-1],"split_conditions":[-1.7902729E1,5.870534E-1,1.7018312E-1,5.353223E-1,-1.8325684E1,1.629625E-1,2.4632895E-1,-1.3577025E-2,4.6527516E-2,-5.4727964E-2,-5.8807274E-3,1.0181475E-2,-4.367217E-2,3.4523007E-2,7.326337E-3],"split_indices":[3,1,0,1,3,0,0,0,0,0,0,0,0,0,0],"split_type":[0,0,0,0,0,0,0,0,0,0,0,0,0,0,0],"sum_hessian":[8.6E1,1E1,7.6E1,3E0,7E0,7E0,6.9E1,1E0,2E0,3E0,4E0,4E0,3E0,5.5E1,1.4E1],"tree_param":{"num_deleted":"0","num_feature":"4","num_nodes":"15","size_leaf_vector":"0"}},{"base_weights":[2.9098248E-1,-2.540144E-1,3.4309345E-1,5.242388E-1,-3.9873576E-1,3.892237E-1,-2.3029107E-1,-6.160777E-1,-1.8738514E-1,4.987112E-1,1.7836088E-1,-3.2515365E-1,2.1687353E-1],"categories":[],"categories_nodes":[],"categories_segments":[],"categories_sizes":[],"default_left":[1,1,1,0,1,1,1,0,0,0,0,0,0],"id":26,"left_children":[1,3,5,-1,7,9,11,-1,-1,-1,-1,-1,-1],"loss_changes":[3.1543846E0,1.3353312E0,2.7082214E0,0E0,2.9797447E-1,2.035039E0,4.098707E-1,0E0,0E0,0E0,0E0,0E0,0E0],"parents":[2147483647,0,0,1,1,2,2,4,4,5,5,6,6],"right_children":[2,4,6,-1,8,10,12,-1,-1,-1,-1,-1,-1],"split_conditions":[-1.8212166E1,1.7365354E-1,2.6794937E-1,3.7321374E-2,2.0193562E-1,-1.5400425E1,3.3592662E-1,-4.3859527E-2,-1.33402385E-2,3.5504024E-2,1.2697787E-2,-2.3148192E-2,1.54395625E-2],"split_indices":[3,0,0,0,0,3,0,0,0,0,0,0,0],"split_type":[0,0,0,0,0,0,0,0,0,0,0,0,0],"sum_hessian":[1.07E2,9E0,9.8E1,1E0,8E0,9.1E1,7E0,3E0,5E0,5.9E1,3.2E1,6E0,1E0],"tree_param":{"num_deleted":"0","num_feature":"4","num_nodes":"13","size_leaf_vector":"0"}},{"base_weights":[2.145991E-1,5.6331533E-1,6.95359E-2,-1.5408424E-1,6.456826E-1,-1.7919043E-1,1.9497412E-1,-4.931084E-1,4.3149412E-1,7.73219E-1,2.9052585E-1,-9.48297E-2,-7.9434615E-1,1.0662501E0,1.18305825E-1],"categories":[],"categories_nodes":[],"categories_segments":[],"categories_sizes":[],"default_left":[1,1,1,1,1,1,1,0,0,0,0,0,0,0,0],"id":27,"left_children":[1,3,5,7,9,11,13,-1,-1,-1,-1,-1,-1,-1,-1],"loss_changes":[5.322934E0,1.9312868E0,2.4061213E0,1.0068741E0,1.0436306E0,1.2739419E0,3.2806182E0,0E0,0E0,0E0,0E0,0E0,0E0,0E0,0E0],"parents":[2147483647,0,0,1,1,2,2,3,3,4,4,5,5,6,6],"right_children":[2,4,6,8,10,12,14,-1,-1,-1,-1,-1,-1,-1,-1],"split_conditions":[7.5601727E-1,-1.8971409E1,1.9840226E-1,1.9322656E-1,-1.544536E1,1.9684196E-1,2.0417419E-1,-3.510515E-2,3.0718734E-2,5.504666E-2,2.0682985E-2,-6.7510735E-3,-5.6550734E-2,7.5908E-2,8.422375E-3],"split_indices":[1,3,0,0,3,0,0,0,0,0,0,0,0,0,0],"split_type":[0,0,0,0,0,0,0,0,0,0,0,0,0,0,0],"sum_hessian":[1.05E2,3E1,7.5E1,3E0,2.7E1,2.5E1,5E1,2E0,1E0,1.9E1,8E0,2.3E1,2E0,3E0,4.7E1],"tree_param":{"num_deleted":"0","num_feature":"4","num_nodes":"15","size_leaf_vector":"0"}},{"base_weights":[2.0684238E-1,3.2534897E-1,6.3584005E-3,1.7465386E-1,5.6445754E-1,-6.833595E-1,7.517123E-2,4.2208123E-1,-2.2392355E-2,2.3940699E-1,6.887206E-1,-7.712063E-1,-2.0990956E-1,1.2363665E-1,-5.6378114E-1],"categories":[],"categories_nodes":[],"categories_segments":[],"categories_sizes":[],"default_left":[1,1,1,1,1,1,1,0,0,0,0,1,1,0,0],"id":28,"left_children":[1,3,5,7,9,-1,13,-1,-1,-1,-1,-1,-1,-1,-1],"loss_changes":[2.6826615E0,2.4597225E0,2.0922108E0,2.2034097E0,9.256935E-1,4.4806004E-3,1.3083878E0,0E0,0E0,0E0,0E0,0E0,0E0,0E0,0E0],"parents":[2147483647,0,0,1,1,2,2,3,3,4,4,5,5,6,6],"right_children":[2,4,6,8,10,-1,14,-1,-1,-1,-1,-1,-1,-1,-1],"split_conditions":[7.948358E-1,7.687051E-1,7.967064E-1,7.2536874E-1,1.988189E-1,-4.8649423E-2,3.466276E-1,3.0048616E-2,-1.5941465E-3,1.7043754E-2,4.9031086E-2,-5.4903373E-2,-1.4943787E-2,8.801885E-3,-4.0136453E-2],"split_indices":[1,1,1,1,0,0,0,0,0,0,0,2147483647,2147483647,0,0],"split_type":[0,0,0,0,0,0,0,0,0,0,0,0,0,0,0],"sum_hessian":[1.12E2,7E1,4.2E1,4.4E1,2.6E1,3E0,3.9E1,1.9E1,2.5E1,8E0,1.8E1,2E0,1E0,3.7E1,2E0],"tree_param":{"num_deleted":"2","num_feature":"4","num_nodes":"15","size_leaf_vector":"0"}},{"base_weights":[2.161215E-1,3.2497522E-1,-1.3981073E-2,-2.9334068E-1,4.0684816E-1,-1.1643764E-1,6.2404585E-1,4.7883034E-2,-3.4197903E-1,3.5784796E-1,1.0523891E0,-3.3314052E-1,5.857781E-2,9.390857E-1,-3.1805688E-1],"categories":[],"categories_nodes":[],"categories_segments":[],"categories_sizes":[],"default_left":[1,1,1,1,1,1,1,1,1,0,0,0,0,0,0],"id":29,"left_children":[1,3,5,-1,9,11,13,-1,-1,-1,-1,-1,-1,-1,-1],"loss_changes":[2.6595812E0,3.7642255E0,2.360614E0,1.65744E-1,1.64783E0,1.1952316E0,1.7826824E0,0E0,0E0,0E0,0E0,0E0,0E0,0E0,0E0],"parents":[2147483647,0,0,1,1,2,2,3,3,4,4,5,5,6,6],"right_children":[2,4,6,-1,10,12,14,-1,-1,-1,-1,-1,-1,-1,-1],"split_conditions":[2.1897209E-1,1.5600267E-1,6.712398E-1,-2.0883378E-2,2.1630415E-1,8.080764E-1,8.7093854E-1,3.4088674E-3,-2.4346016E-2,2.547575E-2,7.492121E-2,-2.371679E-2,4.170245E-3,6.685497E-2,-2.2642963E-2],"split_indices":[0,0,2,0,0,1,1,2147483647,2147483647,0,0,0,0,0,0],"split_type":[0,0,0,0,0,0,0,0,0,0,0,0,0,0,0],"sum_hessian":[1.05E2,7.1E1,3.4E1,8E0,6.3E1,3E1,4E0,1E0,7E0,6E1,3E0,1.3E1,1.7E1,3E0,1E0],"tree_param":{"num_deleted":"2","num_feature":"4","num_nodes":"15","size_leaf_vector":"0"}},{"base_weights":[1.7071237E-1,2.2249375E-1,-2.3675452E-1,1.0762941E-1,3.579392E-1,-3.6164722E-1,3.0010357E-1,2.0771617E-1,-1.7311636E-1,5.8999676E-1,1.3030568E-1,1.120092E-1,-5.5326957E-1],"categories":[],"categories_nodes":[],"categories_segments":[],"categories_sizes":[],"default_left":[1,1,1,1,1,1,0,0,0,0,0,0,0],"id":30,"left_children":[1,3,5,7,9,11,-1,-1,-1,-1,-1,-1,-1],"loss_changes":[2.394688E0,1.5017028E0,9.8017716E-1,1.5814005E0,2.3002028E0,1.0603659E0,0E0,0E0,0E0,0E0,0E0,0E0,0E0],"parents":[2147483647,0,0,1,1,2,2,3,3,4,4,5,5],"right_children":[2,4,6,8,10,12,-1,-1,-1,-1,-1,-1,-1],"split_conditions":[-1.4821163E1,-1.617775E1,-1.3955646E1,-1.6511183E1,-1.5612688E1,7.5455886E-1,2.1364838E-2,1.4787636E-2,-1.2324422E-2,4.2002782E-2,9.276663E-3,7.974109E-3,-3.9388116E-2],"split_indices":[3,3,3,3,3,1,0,0,0,0,0,0,0],"split_type":[0,0,0,0,0,0,0,0,0,0,0,0,0],"sum_hessian":[1.1E2,9.8E1,1.2E1,5.4E1,4.4E1,1E1,2E0,4E1,1.4E1,2.1E1,2.3E1,3E0,7E0],"tree_param":{"num_deleted":"0","num_feature":"4","num_nodes":"13","size_leaf_vector":"0"}},{"base_weights":[1.8904747E-1,3.42732E-1,2.1727046E-3,9.122664E-1,2.8772503E-1,-3.6358717E-1,1.902157E-1,-5.2822185E-1,3.4183526E-1,6.402061E-1,-4.6029302E-1,1.22898325E-1,1.2395034E0],"categories":[],"categories_nodes":[],"categories_segments":[],"categories_sizes":[],"default_left":[1,1,1,0,1,1,1,0,0,0,0,0,0],"id":31,"left_children":[1,3,5,-1,7,9,11,-1,-1,-1,-1,-1,-1],"loss_changes":[3.2445884E0,1.6798759E0,3.6456466E0,0E0,2.7413278E0,2.0419905E0,2.3199024E0,0E0,0E0,0E0,0E0,0E0,0E0],"parents":[2147483647,0,0,1,1,2,2,4,4,5,5,6,6],"right_children":[2,4,6,-1,8,10,12,-1,-1,-1,-1,-1,-1],"split_conditions":[7.917327E-1,6.0569686E-1,2.1020457E-1,6.494565E-2,2.9166603E-1,4.935863E-1,7.001201E-1,-3.760493E-2,2.4335781E-2,4.5577265E-2,-3.2768972E-2,8.749322E-3,8.8242166E-2],"split_indices":[1,1,0,0,2,2,2,0,0,0,0,0,0],"split_type":[0,0,0,0,0,0,0,0,0,0,0,0,0],"sum_hessian":[1.12E2,6.1E1,5.1E1,4E0,5.7E1,1.7E1,3.4E1,3E0,5.4E1,1E0,1.6E1,3.3E1,1E0],"tree_param":{"num_deleted":"0","num_feature":"4","num_nodes":"13","size_leaf_vector":"0"}},{"base_weights":[1.4629526E-1,-2.2447225E-1,1.8155645E-1,6.4594793E-1,-5.228208E-1,7.603372E-1,1.09598815E-1,-9.489795E-2,-6.496454E-1,2.9908404E-1,8.2960635E-1,1.2956883E-1,-5.1937777E-1],"categories":[],"categories_nodes":[],"categories_segments":[],"categories_sizes":[],"default_left":[1,1,1,0,1,1,1,0,0,1,1,0,0],"id":32,"left_children":[1,3,5,-1,7,-1,11,-1,-1,-1,-1,-1,-1],"loss_changes":[1.4788616E0,2.9346008E0,4.123085E0,0E0,3.7251925E-1,1.033349E-1,1.2103162E0,0E0,0E0,0E0,0E0,0E0,0E0],"parents":[2147483647,0,0,1,1,2,2,4,4,5,5,6,6],"right_children":[2,4,6,-1,8,-1,12,-1,-1,-1,-1,-1,-1],"split_conditions":[-1.8250526E1,1.17132224E-1,4.61485E-1,4.5986034E-2,-1.910831E1,5.4129582E-2,3.5442588E-1,-6.755932E-3,-4.6249263E-2,2.1292256E-2,5.906096E-2,9.224206E-3,-3.697531E-2],"split_indices":[3,2,2,0,3,0,0,0,0,2147483647,2147483647,0,0],"split_type":[0,0,0,0,0,0,0,0,0,0,0,0,0],"sum_hessian":[1.09E2,9E0,1E2,2E0,7E0,1E1,9E1,2E0,5E0,2E0,8E0,8.8E1,2E0],"tree_param":{"num_deleted":"2","num_feature":"4","num_nodes":"13","size_leaf_vector":"0"}},{"base_weights":[1.4726217E-1,1.9599962E-1,-1.907208E-1,1.4359456E-1,4.654268E-1,-7.7152616E-1,1.8774383E-2,5.625782E-1,9.340935E-2,-5.756166E-1,5.7320416E-1,-3.0298054E-2,-1.0085028E0,1.8813334E-1,-3.669769E-1],"categories":[],"categories_nodes":[],"categories_segments":[],"categories_sizes":[],"default_left":[1,1,1,1,1,1,1,0,0,0,0,0,0,0,0],"id":33,"left_children":[1,3,5,7,9,11,13,-1,-1,-1,-1,-1,-1,-1,-1],"loss_changes":[1.9317102E0,1.3592215E0,1.8396237E0,1.7557535E0,2.1251602E0,6.7205954E-1,8.530058E-1,0E0,0E0,0E0,0E0,0E0,0E0,0E0,0E0],"parents":[2147483647,0,0,1,1,2,2,3,3,4,4,5,5,6,6],"right_children":[2,4,6,8,10,12,14,-1,-1,-1,-1,-1,-1,-1,-1],"split_conditions":[6.439969E-1,6.2930775E-1,6.5006125E-1,2.4394077E-1,7.691296E-1,1.900897E-1,6.936482E-1,4.0050812E-2,6.6499566E-3,-4.097904E-2,4.0807292E-2,-2.1569654E-3,-7.179688E-2,1.3393505E-2,-2.6125653E-2],"split_indices":[2,2,2,2,1,0,2,0,0,0,0,0,0,0,0],"split_type":[0,0,0,0,0,0,0,0,0,0,0,0,0,0,0],"sum_hessian":[1.14E2,1E2,1.4E1,8.5E1,1.5E1,3E0,1.1E1,8E0,7.7E1,1E0,1.4E1,1E0,2E0,8E0,3E0],"tree_param":{"num_deleted":"0","num_feature":"4","num_nodes":"15","size_leaf_vector":"0"}},{"base_weights":[2.0035715E-1,2.3597026E-1,-4.087808E-1,-1.7456892E-1,2.851652E-1,-1.9908625E-1,-5.521133E-1,5.7585187E-2,-4.646709E-1,2.6048496E-1,1.203833E0,-3.6858675E-1,1.5470761E-1],"categories":[],"categories_nodes":[],"categories_segments":[],"categories_sizes":[],"default_left":[1,1,1,1,1,1,0,0,0,0,0,0,0],"id":34,"left_children":[1,3,5,7,9,11,-1,-1,-1,-1,-1,-1,-1],"loss_changes":[2.309176E0,2.0088372E0,7.041812E-2,7.675902E-1,1.6589651E0,2.968961E-1,0E0,0E0,0E0,0E0,0E0,0E0,0E0],"parents":[2147483647,0,0,1,1,2,2,3,3,4,4,5,5],"right_children":[2,4,6,8,10,12,-1,-1,-1,-1,-1,-1,-1],"split_conditions":[8.700415E-1,1.6566469E-1,8.7714046E-1,7.3966396E-1,6.9904774E-1,8.735141E-1,-3.9305802E-2,4.0995786E-3,-3.308064E-2,1.8544327E-2,8.570273E-2,-2.6240261E-2,1.1013875E-2],"split_indices":[1,0,1,1,2,1,0,0,0,0,0,0,0],"split_type":[0,0,0,0,0,0,0,0,0,0,0,0,0],"sum_hessian":[1.01E2,9.6E1,5E0,1E1,8.6E1,3E0,2E0,6E0,4E0,8.5E1,1E0,2E0,1E0],"tree_param":{"num_deleted":"0","num_feature":"4","num_nodes":"13","size_leaf_vector":"0"}},{"base_weights":[1.6921031E-1,-4.0190887E-1,2.2914268E-1,-5.1120895E-1,-1.6850695E-1,4.1085002E-1,1.00276254E-1,-2.6096383E-1,-7.578812E-1,-7.7193975E-3,-2.06774E-1,5.084899E-1,-6.768059E-2,-2.6361036E-1,1.7679541E-1],"categories":[],"categories_nodes":[],"categories_segments":[],"categories_sizes":[],"default_left":[1,1,1,1,1,1,1,0,0,1,1,0,0,0,0],"id":35,"left_children":[1,3,5,7,-1,11,13,-1,-1,-1,-1,-1,-1,-1,-1],"loss_changes":[3.9256892E0,1.944772E-1,2.347231E0,2.3432016E-1,2.9168144E-2,1.996808E0,1.7451069E0,0E0,0E0,0E0,0E0,0E0,0E0,0E0,0E0],"parents":[2147483647,0,0,1,1,2,2,3,3,4,4,5,5,6,6],"right_children":[2,4,6,8,-1,12,14,-1,-1,-1,-1,-1,-1,-1,-1],"split_conditions":[1.6703184E-1,5.584483E-1,2.0426056E-1,5.3159505E-1,-1.1996271E-2,6.34618E-1,2.1020457E-1,-1.857842E-2,-5.395474E-2,-5.495559E-4,-1.4720561E-2,3.6200184E-2,-4.8182863E-3,-1.876683E-2,1.2586339E-2],"split_indices":[0,2,0,2,0,2,0,0,0,2147483647,2147483647,0,0,0,0],"split_type":[0,0,0,0,0,0,0,0,0,0,0,0,0,0,0],"sum_hessian":[1.11E2,1E1,1.01E2,6E0,4E0,4.1E1,6E1,4E0,2E0,1E0,3E0,3.4E1,7E0,1E1,5E1],"tree_param":{"num_deleted":"2","num_feature":"4","num_nodes":"15","size_leaf_vector":"0"}},{"base_weights":[1.24442324E-1,-8.1106625E-2,2.7823046E-1,3.1957227E-1,-2.5944203E-1,4.6117362E-1,1.7727934E-1,6.579372E-1,-2.4123724E-1,-1.647255E-1,-8.5759735E-1,1.4683582E-1,7.6082784E-1,2.3753915E-2,3.3763483E-1],"categories":[],"categories_nodes":[],"categories_segments":[],"categories_sizes":[],"default_left":[1,1,1,1,1,1,1,0,0,0,0,0,0,0,0],"id":36,"left_children":[1,3,5,7,9,11,13,-1,-1,-1,-1,-1,-1,-1,-1],"loss_changes":[3.2152762E0,3.2269409E0,9.8940563E-1,2.8153353E0,1.6150432E0,1.7721357E0,9.5210683E-1,0E0,0E0,0E0,0E0,0E0,0E0,0E0,0E0],"parents":[2147483647,0,0,1,1,2,2,3,3,4,4,5,5,6,6],"right_children":[2,4,6,8,10,12,14,-1,-1,-1,-1,-1,-1,-1,-1],"split_conditions":[-1.6435417E1,4.4535878E-1,-1.5599848E1,1.9838887E-1,-1.6506819E1,-1.5902442E1,-1.4979481E1,4.6839572E-2,-1.7174052E-2,-1.1727063E-2,-6.1053686E-2,1.0453469E-2,5.4164514E-2,1.691078E-3,2.4036746E-2],"split_indices":[3,2,3,0,3,3,3,0,0,0,0,0,0,0,0],"split_type":[0,0,0,0,0,0,0,0,0,0,0,0,0,0,0],"sum_hessian":[1E2,4.3E1,5.7E1,1.3E1,3E1,1.9E1,3.8E1,8E0,5E0,2.7E1,3E0,1E1,9E0,2E1,1.8E1],"tree_param":{"num_deleted":"0","num_feature":"4","num_nodes":"15","size_leaf_vector":"0"}},{"base_weights":[1.8775666E-1,-2.646851E-1,2.1560092E-1,4.044469E-2,-3.9482594E-1,2.936804E-1,1.470672E-2,3.3252907E-1,-2.2145058E-1,-7.107975E-1,1.17824934E-1],"categories":[],"categories_nodes":[],"categories_segments":[],"categories_sizes":[],"default_left":[1,1,1,0,0,1,1,0,0,0,0],"id":37,"left_children":[1,3,5,-1,-1,7,9,-1,-1,-1,-1],"loss_changes":[1.4806297E0,2.9393753E-1,1.6740522E0,0E0,0E0,1.6145754E0,2.4029434E0,0E0,0E0,0E0,0E0],"parents":[2147483647,0,0,1,1,2,2,5,5,6,6],"right_children":[2,4,6,-1,-1,8,10,-1,-1,-1,-1],"split_conditions":[1.5786353E-1,1.4526004E-1,2.2859822E-1,2.8793202E-3,-2.810827E-2,6.7308617E-1,4.8359495E-1,2.3673259E-2,-1.576541E-2,-5.0602775E-2,8.388139E-3],"split_indices":[0,0,0,0,0,2,2,0,0,0,0],"split_type":[0,0,0,0,0,0,0,0,0,0,0],"sum_hessian":[1.12E2,6E0,1.06E2,2E0,4E0,7.6E1,3E1,7.1E1,5E0,3E0,2.7E1],"tree_param":{"num_deleted":"0","num_feature":"4","num_nodes":"11","size_leaf_vector":"0"}},{"base_weights":[1.5960865E-1,-2.2330745E-1,1.8921798E-1,4.528488E-1,-3.6443308E-1,6.6807795E-1,1.2442608E-1,-5.07542E-1,4.326248E-2,7.5074196E-1,1.4228392E-1,9.8050395E-3,2.6175344E-1],"categories":[],"categories_nodes":[],"categories_segments":[],"categories_sizes":[],"default_left":[1,1,1,0,1,1,1,0,0,0,0,0,0],"id":38,"left_children":[1,3,5,-1,7,9,11,-1,-1,-1,-1,-1,-1],"loss_changes":[1.3914626E0,1.02384E0,3.3607874E0,0E0,4.8871648E-1,4.5821667E-1,1.5557535E0,0E0,0E0,0E0,0E0,0E0,0E0],"parents":[2147483647,0,0,1,1,2,2,4,4,5,5,6,6],"right_children":[2,4,6,-1,8,10,12,-1,-1,-1,-1,-1,-1],"split_conditions":[-1.8212166E1,4.5716748E-1,4.5887762E-1,3.223901E-2,7.1047616E-1,-1.5378874E1,6.155295E-1,-3.61327E-2,3.079923E-3,5.3446483E-2,1.0129413E-2,6.9803593E-4,1.8634632E-2],"split_indices":[3,1,2,0,1,3,2,0,0,0,0,0,0],"split_type":[0,0,0,0,0,0,0,0,0,0,0,0,0],"sum_hessian":[1.18E2,8E0,1.1E2,1E0,7E0,1.2E1,9.8E1,5E0,2E0,1E1,2E0,5.4E1,4.4E1],"tree_param":{"num_deleted":"0","num_feature":"4","num_nodes":"13","size_leaf_vector":"0"}},{"base_weights":[1.11473225E-1,-2.0709494E-1,1.8708768E-1,5.063831E-1,-3.0884963E-1,2.2094828E-1,-5.707567E-1,-5.0729406E-1,2.7423188E-2,7.719519E-1,1.8374869E-1],"categories":[],"categories_nodes":[],"categories_segments":[],"categories_sizes":[],"default_left":[1,1,1,0,1,1,0,0,0,0,0],"id":39,"left_children":[1,3,5,-1,7,9,-1,-1,-1,-1,-1],"loss_changes":[2.6161995E0,1.6809909E0,2.35862E0,0E0,1.2818093E0,1.5799117E0,0E0,0E0,0E0,0E0,0E0],"parents":[2147483647,0,0,1,1,2,2,4,4,5,5],"right_children":[2,4,6,-1,8,10,-1,-1,-1,-1,-1],"split_conditions":[-1.7184956E1,1.6831407E-1,6.836225E-1,3.60502E-2,2.2742894E-1,-1.7112383E1,-4.0633053E-2,-3.611505E-2,1.9522993E-3,5.495645E-2,1.3081354E-2],"split_indices":[3,2,2,0,0,3,0,0,0,0,0],"split_type":[0,0,0,0,0,0,0,0,0,0,0],"sum_hessian":[1.06E2,2E1,8.6E1,2E0,1.8E1,8.3E1,3E0,1.1E1,7E0,4E0,7.9E1],"tree_param":{"num_deleted":"0","num_feature":"4","num_nodes":"11","size_leaf_vector":"0"}},{"base_weights":[1.02784544E-1,1.6364384E-1,-1.853504E-1,6.328332E-2,2.8400344E-1,-3.2087293E-1,6.895683E-1,4.1865888E-1,-1.3008541E-3,3.1556165E-1,-2.3144042E-1,2.991776E-2,-4.9876142E-1,-1.3300478E-1,1.1673572E0],"categories":[],"categories_nodes":[],"categories_segments":[],"categories_sizes":[],"default_left":[1,1,1,1,1,1,1,0,0,0,0,0,0,0,0],"id":40,"left_children":[1,3,5,7,9,11,13,-1,-1,-1,-1,-1,-1,-1,-1],"loss_changes":[1.9943286E0,1.105407E0,2.5926878E0,1.1940298E0,7.562258E-1,1.138151E0,1.3343132E0,0E0,0E0,0E0,0E0,0E0,0E0,0E0,0E0],"parents":[2147483647,0,0,1,1,2,2,3,3,4,4,5,5,6,6],"right_children":[2,4,6,8,10,12,14,-1,-1,-1,-1,-1,-1,-1,-1],"split_conditions":[6.439969E-1,-1.5955708E1,7.001201E-1,6.06884E-1,8.653046E-1,7.9217404E-1,8.1097174E-1,2.9804975E-2,-9.260982E-5,2.2465322E-2,-1.6476603E-2,2.1298917E-3,-3.5507597E-2,-9.468816E-3,8.310597E-2],"split_indices":[2,3,2,1,1,1,1,0,0,0,0,0,0,0,0],"split_type":[0,0,0,0,0,0,0,0,0,0,0,0,0,0,0],"sum_hessian":[1.11E2,9.2E1,1.9E1,5.1E1,4.1E1,1.7E1,2E0,7E0,4.4E1,3.9E1,2E0,6E0,1.1E1,1E0,1E0],"tree_param":{"num_deleted":"0","num_feature":"4","num_nodes":"15","size_leaf_vector":"0"}},{"base_weights":[8.147741E-2,2.0394291E-1,-6.938227E-2,-1.9569303E-1,3.2931408E-1,5.514331E-1,-1.25519E-1,-3.252024E-1,3.118656E-2,4.6771678E-1,-1.158317E-1,-4.8000234E-1,-3.0779889E-2],"categories":[],"categories_nodes":[],"categories_segments":[],"categories_sizes":[],"default_left":[1,1,1,1,1,0,1,0,0,0,0,0,0],"id":41,"left_children":[1,3,5,7,9,-1,11,-1,-1,-1,-1,-1,-1],"loss_changes":[1.8801359E0,2.8702023E0,1.6723404E0,4.2150444E-1,2.70338E0,0E0,1.4293132E0,0E0,0E0,0E0,0E0,0E0,0E0],"parents":[2147483647,0,0,1,1,2,2,3,3,4,4,6,6],"right_children":[2,4,6,8,10,-1,12,-1,-1,-1,-1,-1,-1],"split_conditions":[7.944293E-1,-1.7190285E1,1.9075173E-1,6.9915193E-1,-1.511325E1,3.9257377E-2,8.0241597E-1,-2.3151662E-2,2.2202195E-3,3.3297483E-2,-8.246238E-3,-3.417211E-2,-2.191268E-3],"split_indices":[1,3,0,1,3,0,1,0,0,0,0,0,0],"split_type":[0,0,0,0,0,0,0,0,0,0,0,0,0],"sum_hessian":[1E2,5.5E1,4.5E1,1.3E1,4.2E1,3E0,4.2E1,8E0,5E0,3.2E1,1E1,8E0,3.4E1],"tree_param":{"num_deleted":"0","num_feature":"4","num_nodes":"13","size_leaf_vector":"0"}},{"base_weights":[5.0601877E-2,3.302552E-2,6.664834E-1,1.17673144E-1,-1.3953844E-1,-1.2717474E-1,1.1268998E0,2.0801334E-1,-2.7790433E-1,-3.3401927E-1,1.5282133E-2],"categories":[],"categories_nodes":[],"categories_segments":[],"categories_sizes":[],"default_left":[1,1,1,1,1,0,0,0,0,0,0],"id":42,"left_children":[1,3,5,7,9,-1,-1,-1,-1,-1,-1],"loss_changes":[1.1687338E0,1.5939898E0,1.239553E0,2.6665757E0,1.0890512E0,0E0,0E0,0E0,0E0,0E0,0E0],"parents":[2147483647,0,0,1,1,2,2,3,3,4,4],"right_children":[2,4,6,8,10,-1,-1,-1,-1,-1,-1],"split_conditions":[6.9904774E-1,2.232502E-1,2.3014283E-1,6.34618E-1,2.4697916E-1,-9.053767E-3,8.022574E-2,1.4808792E-2,-1.978444E-2,-2.377935E-2,1.0879587E-3],"split_indices":[2,0,0,2,0,0,0,0,0,0,0],"split_type":[0,0,0,0,0,0,0,0,0,0,0],"sum_hessian":[1.09E2,1.07E2,2E0,7.2E1,3.5E1,1E0,1E0,5.9E1,1.3E1,1.5E1,2E1],"tree_param":{"num_deleted":"0","num_feature":"4","num_nodes":"11","size_leaf_vector":"0"}},{"base_weights":[2.2365386E-2,1.362669E-1,-1.917591E-1,1.03024E-1,8.997553E-1,3.0967858E-1,-2.407859E-1,1.3369784E-1,-6.572648E-1,-2.275793E-1,5.646243E-1,-7.448583E-1,-7.604667E-2],"categories":[],"categories_nodes":[],"categories_segments":[],"categories_sizes":[],"default_left":[1,1,1,1,0,1,1,0,0,0,0,0,0],"id":43,"left_children":[1,3,5,7,-1,9,11,-1,-1,-1,-1,-1,-1],"loss_changes":[2.8064885E0,1.8108467E0,1.0579216E0,1.7903061E0,0E0,6.7638314E-1,3.015855E0,0E0,0E0,0E0,0E0,0E0,0E0],"parents":[2147483647,0,0,1,1,2,2,3,3,5,5,6,6],"right_children":[2,4,6,8,-1,10,12,-1,-1,-1,-1,-1,-1],"split_conditions":[7.942374E-1,7.9342824E-1,1.9075173E-1,7.919263E-1,6.405497E-2,1.8098208E-1,8.013859E-1,9.518156E-3,-4.6791703E-2,-1.6201723E-2,4.019648E-2,-5.302762E-2,-5.41388E-3],"split_indices":[1,1,0,1,0,0,1,0,0,0,0,0,0],"split_type":[0,0,0,0,0,0,0,0,0,0,0,0,0],"sum_hessian":[1.13E2,7.4E1,3.9E1,7.2E1,2E0,3E0,3.6E1,7E1,2E0,1E0,2E0,8E0,2.8E1],"tree_param":{"num_deleted":"0","num_feature":"4","num_nodes":"13","size_leaf_vector":"0"}},{"base_weights":[1.3813767E-1,1.5702479E-1,-5.500703E-1,1.4077424E-1,6.4636856E-1,1.9994904E-1,-6.602618E-2,-1.19940996E-1,1.0894939E0],"categories":[],"categories_nodes":[],"categories_segments":[],"categories_sizes":[],"default_left":[1,1,0,1,1,0,0,0,0],"id":44,"left_children":[1,3,-1,5,7,-1,-1,-1,-1],"loss_changes":[1.4381945E0,7.201233E-1,0E0,1.2369393E0,1.1493884E0,0E0,0E0,0E0,0E0],"parents":[2147483647,0,0,1,1,3,3,4,4],"right_children":[2,4,-1,6,8,-1,-1,-1,-1],"split_conditions":[8.791136E-1,6.9904774E-1,-3.9160356E-2,6.34321E-1,2.3014283E-1,1.4234682E-2,-4.700506E-3,-8.538785E-3,7.756276E-2],"split_indices":[1,2,0,2,0,0,0,0,0],"split_type":[0,0,0,0,0,0,0,0,0],"sum_hessian":[1.03E2,1.01E2,2E0,9.9E1,2E0,7.7E1,2.2E1,1E0,1E0],"tree_param":{"num_deleted":"0","num_feature":"4","num_nodes":"9","size_leaf_vector":"0"}},{"base_weights":[2.749591E-2,6.9171417E-1,4.3547982E-3,6.577376E-2,-1.457078E-1,-5.306489E-2,2.0790018E-1,-2.775518E-2,-3.1222904E-1],"categories":[],"categories_nodes":[],"categories_segments":[],"categories_sizes":[],"default_left":[1,0,1,1,1,0,0,0,0],"id":45,"left_children":[1,-1,3,5,7,-1,-1,-1,-1],"loss_changes":[1.8261068E0,0E0,1.0787197E0,1.4129115E0,6.59149E-1,0E0,0E0,0E0,0E0],"parents":[2147483647,0,0,2,2,3,3,4,4],"right_children":[2,-1,4,6,8,-1,-1,-1,-1],"split_conditions":[5.689602E-1,4.9244203E-2,8.0581844E-1,7.731895E-1,-1.5611556E1,-3.7777717E-3,1.4800736E-2,-1.9759343E-3,-2.222807E-2],"split_indices":[1,0,1,1,3,0,0,0,0],"split_type":[0,0,0,0,0,0,0,0,0],"sum_hessian":[1.18E2,3E0,1.15E2,8.2E1,3.3E1,4.5E1,3.7E1,2E1,1.3E1],"tree_param":{"num_deleted":"0","num_feature":"4","num_nodes":"9","size_leaf_vector":"0"}},{"base_weights":[8.884389E-2,-6.761965E-2,1.4640717E-1,5.522987E-1,-1.5695497E-1,7.972156E-1,1.0166442E-1,-2.8666973E-2,-4.5805562E-1,2.7768946E-1,1.0510032E0,1.2988466E-1,-4.3877107E-1],"categories":[],"categories_nodes":[],"categories_segments":[],"categories_sizes":[],"default_left":[1,1,1,0,1,1,1,0,0,0,0,0,0],"id":46,"left_children":[1,3,5,-1,7,9,11,-1,-1,-1,-1,-1,-1],"loss_changes":[9.916145E-1,1.7481043E0,2.2484689E0,0E0,1.0298141E0,3.6739373E-1,1.2160825E0,0E0,0E0,0E0,0E0,0E0,0E0],"parents":[2147483647,0,0,1,1,2,2,4,4,5,5,6,6],"right_children":[2,4,6,-1,8,10,12,-1,-1,-1,-1,-1,-1],"split_conditions":[-1.678432E1,2.4394077E-1,-1.6602425E1,3.9319E-2,6.027869E-1,5.5650294E-1,6.80987E-1,-2.0408463E-3,-3.260969E-2,1.9769143E-2,7.4822545E-2,9.24669E-3,-3.1236792E-2],"split_indices":[3,2,3,0,2,2,2,0,0,0,0,0,0],"split_type":[0,0,0,0,0,0,0,0,0,0,0,0,0],"sum_hessian":[1.08E2,2.9E1,7.9E1,3E0,2.6E1,4E0,7.5E1,1.9E1,7E0,2E0,2E0,7.2E1,3E0],"tree_param":{"num_deleted":"0","num_feature":"4","num_nodes":"13","size_leaf_vector":"0"}},{"base_weights":[3.508381E-2,1.8721674E-1,-4.5695845E-2,1.8339932E-2,3.230532E-1,-3.990655E-1,6.239308E-2,4.2690024E-1,-1.7163712E-1,8.698054E-1,2.1972112E-1,-8.309557E-2,-4.8989505E-1,2.8072596E-1,-1.1012925E-1],"categories":[],"categories_nodes":[],"categories_segments":[],"categories_sizes":[],"default_left":[1,1,1,1,1,1,1,0,0,0,0,0,0,0,0],"id":47,"left_children":[1,3,5,7,9,11,13,-1,-1,-1,-1,-1,-1,-1,-1],"loss_changes":[1.3480828E0,8.657813E-1,2.7749639E0,1.4703794E0,9.953234E-1,4.4718194E-1,2.1402845E0,0E0,0E0,0E0,0E0,0E0,0E0,0E0,0E0],"parents":[2147483647,0,0,1,1,2,2,3,3,4,4,5,5,6,6],"right_children":[2,4,6,8,10,12,14,-1,-1,-1,-1,-1,-1,-1,-1],"split_conditions":[7.5551856E-1,4.2574996E-1,1.9341743E-1,2.436218E-1,4.7110188E-1,5.568545E-1,2.1967784E-1,3.039169E-2,-1.2219112E-2,6.1922792E-2,1.5642287E-2,-5.915703E-3,-3.4876388E-2,1.9985316E-2,-7.840272E-3],"split_indices":[1,2,0,2,2,2,0,0,0,0,0,0,0,0,0],"split_type":[0,0,0,0,0,0,0,0,0,0,0,0,0,0,0],"sum_hessian":[1.08E2,3.7E1,7.1E1,1.7E1,2E1,1.6E1,5.5E1,5E0,1.2E1,2E0,1.8E1,4E0,1.2E1,2.4E1,3.1E1],"tree_param":{"num_deleted":"0","num_feature":"4","num_nodes":"15","size_leaf_vector":"0"}},{"base_weights":[6.118012E-2,1.2197426E-1,-4.2013896E-1,1.8198213E-1,-1.24476954E-1,-7.5544417E-3,2.7504036E-1,-1.9501947E-1,3.1675625E-1],"categories":[],"categories_nodes":[],"categories_segments":[],"categories_sizes":[],"default_left":[1,1,0,1,1,0,0,0,0],"id":48,"left_children":[1,3,-1,5,7,-1,-1,-1,-1],"loss_changes":[3.1236906E0,1.41282E0,0E0,1.342561E0,6.531619E-1,0E0,0E0,0E0,0E0],"parents":[2147483647,0,0,1,1,3,3,4,4],"right_children":[2,4,-1,6,8,-1,-1,-1,-1],"split_conditions":[2.6524395E-1,-1.5114063E1,-2.9910343E-2,-1.6858864E1,-1.3818087E1,-5.378124E-4,1.9580549E-2,-1.3883738E-2,2.2550369E-2],"split_indices":[0,3,0,3,3,0,0,0,0],"split_type":[0,0,0,0,0,0,0,0,0],"sum_hessian":[1.04E2,9.3E1,1.1E1,7.5E1,1.8E1,2.5E1,5E1,1.6E1,2E0],"tree_param":{"num_deleted":"0","num_feature":"4","num_nodes":"9","size_leaf_vector":"0"}},{"base_weights":[5.0706476E-2,-2.854688E-1,9.635106E-2,2.5779803E-3,-6.699608E-1,1.2434881E-1,-3.7233776E-1,-2.2165659E-1,2.2629695E-1,4.0956333E-2,3.092268E-1,-1.8939248E-1,-4.9215224E-1],"categories":[],"categories_nodes":[],"categories_segments":[],"categories_sizes":[],"default_left":[1,1,1,1,0,1,1,0,0,0,0,1,1],"id":49,"left_children":[1,3,5,7,-1,9,-1,-1,-1,-1,-1,-1,-1],"loss_changes":[1.7921319E0,1.5522507E0,1.3847675E0,5.016499E-1,0E0,1.4828264E0,3.830701E-2,0E0,0E0,0E0,0E0,0E0,0E0],"parents":[2147483647,0,0,1,1,2,2,3,3,5,5,6,6],"right_children":[2,4,6,8,-1,10,-1,-1,-1,-1,-1,-1,-1],"split_conditions":[1.7010272E-1,7.3966396E-1,6.807265E-1,1.5452835E-1,-4.7695547E-2,2.2718108E-1,-2.6507301E-2,-1.5780076E-2,1.611043E-2,2.915745E-3,2.2014337E-2,-1.3483144E-2,-3.503708E-2],"split_indices":[0,1,2,0,0,0,0,0,0,0,0,2147483647,2147483647],"split_type":[0,0,0,0,0,0,0,0,0,0,0,0,0],"sum_hessian":[1.14E2,1.3E1,1.01E2,8E0,5E0,9.6E1,5E0,4E0,4E0,6.7E1,2.9E1,3E0,2E0],"tree_param":{"num_deleted":"2","num_feature":"4","num_nodes":"13","size_leaf_vector":"0"}},{"base_weights":[6.918975E-2,-2.8094975E-2,2.1674955E-1,1.2307703E-3,-5.2694035E-1,6.4159465E-1,1.2636179E-1,-1.0857244E-1,1.9882731E-1,-6.4913535E-1,-8.0177665E-2,-3.0790514E-1,8.212239E-1,3.25279E-2,6.5266585E-1],"categories":[],"categories_nodes":[],"categories_segments":[],"categories_sizes":[],"default_left":[1,1,1,1,1,1,1,0,0,1,1,0,0,0,0],"id":50,"left_children":[1,3,5,7,-1,11,13,-1,-1,-1,-1,-1,-1,-1,-1],"loss_changes":[1.7000166E0,1.0539374E0,1.7237644E0,1.5186619E0,1.6632259E-1,1.6173224E0,1.9541767E0,0E0,0E0,0E0,0E0,0E0,0E0,0E0,0E0],"parents":[2147483647,0,0,1,1,2,2,3,3,4,4,5,5,6,6],"right_children":[2,4,6,8,-1,12,14,-1,-1,-1,-1,-1,-1,-1,-1],"split_conditions":[2.1024305E-1,2.0958303E-1,7.807609E-1,6.014056E-1,-3.75137E-2,3.724965E-1,6.719835E-1,-7.72944E-3,1.4154824E-2,-4.6212953E-2,-5.707972E-3,-2.1920243E-2,5.8464203E-2,2.3157117E-3,4.6464294E-2],"split_indices":[0,0,1,2,0,2,2,0,0,2147483647,2147483647,0,0,0,0],"split_type":[0,0,0,0,0,0,0,0,0,0,0,0,0,0,0],"sum_hessian":[1.17E2,7.1E1,4.6E1,6.8E1,3E0,7E0,3.9E1,4.4E1,2.4E1,2E0,1E0,1E0,6E0,3.4E1,5E0],"tree_param":{"num_deleted":"2","num_feature":"4","num_nodes":"15","size_leaf_vector":"0"}},{"base_weights":[8.19668E-2,-2.1748927E-1,1.6968259E-1,-5.3855705E-1,-5.3605065E-2,2.9583478E-1,-4.5698355E-3,-1.0126654E-1,-6.674428E-1,2.1803407E-1,-1.8495755E-1,3.7215373E-1,-1.2273933E-1,-1.00781694E-1,2.145089E-1],"categories":[],"categories_nodes":[],"categories_segments":[],"categories_sizes":[],"default_left":[1,1,1,1,1,1,1,0,0,0,0,0,0,0,0],"id":51,"left_children":[1,3,5,7,9,11,13,-1,-1,-1,-1,-1,-1,-1,-1],"loss_changes":[2.7686749E0,1.2339612E0,1.7819202E0,3.8329434E-1,6.4689505E-1,1.5470996E0,7.593476E-1,0E0,0E0,0E0,0E0,0E0,0E0,0E0,0E0],"parents":[2147483647,0,0,1,1,2,2,3,3,4,4,5,5,6,6],"right_children":[2,4,6,8,10,12,14,-1,-1,-1,-1,-1,-1,-1,-1],"split_conditions":[-1.7190285E1,1.8576896E-1,-1.5421679E1,5.9601706E-1,1.983138E-1,2.5248027E-1,-1.4519951E1,-7.209322E-3,-4.7516286E-2,1.5522184E-2,-1.3167415E-2,2.6494201E-2,-8.738003E-3,-7.174805E-3,1.5271221E-2],"split_indices":[3,0,3,1,0,0,3,0,0,0,0,0,0,0,0],"split_type":[0,0,0,0,0,0,0,0,0,0,0,0,0,0,0],"sum_hessian":[1.03E2,2.3E1,8E1,7E0,1.6E1,4.6E1,3.4E1,2E0,5E0,5E0,1.1E1,3.9E1,7E0,2.4E1,1E1],"tree_param":{"num_deleted":"0","num_feature":"4","num_nodes":"15","size_leaf_vector":"0"}},{"base_weights":[1.611228E-2,-1.8168439E-3,9.851934E-1,-9.050869E-2,1.04649715E-1,-2.185167E-2,-6.072188E-1,1.2732716E-1,-5.032725E-1],"categories":[],"categories_nodes":[],"categories_segments":[],"categories_sizes":[],"default_left":[1,1,0,1,1,0,0,0,0],"id":52,"left_children":[1,3,-1,5,7,-1,-1,-1,-1],"loss_changes":[1.9130151E0,1.0387278E0,0E0,2.1152778E0,7.5338626E-1,0E0,0E0,0E0,0E0],"parents":[2147483647,0,0,1,1,3,3,4,4],"right_children":[2,4,-1,6,8,-1,-1,-1,-1],"split_conditions":[6.9904774E-1,2.1024305E-1,7.013744E-2,6.480818E-1,6.947448E-1,-1.5556542E-3,-4.3228846E-2,9.064618E-3,-3.5828747E-2],"split_indices":[2,0,0,2,2,0,0,0,0],"split_type":[0,0,0,0,0,0,0,0,0],"sum_hessian":[1.09E2,1.08E2,1E0,5.9E1,4.9E1,5.3E1,6E0,4.8E1,1E0],"tree_param":{"num_deleted":"0","num_feature":"4","num_nodes":"9","size_leaf_vector":"0"}},{"base_weights":[-1.2617069E-2,4.2373996E-2,-2.2200945E-1,-1.0047372E-2,4.3129689E-1,5.798836E-1,-2.8780833E-1,9.610078E-2,-2.13792E-1,5.800675E-1,2.8467125E-1,-5.334963E-1,-5.908435E-2],"categories":[],"categories_nodes":[],"categories_segments":[],"categories_sizes":[],"default_left":[1,1,1,1,1,0,1,0,0,1,1,0,0],"id":53,"left_children":[1,3,5,7,-1,-1,11,-1,-1,-1,-1,-1,-1],"loss_changes":[1.218452E0,1.7169144E0,1.3276961E0,1.6425793E0,5.3007364E-2,0E0,1.1485682E0,0E0,0E0,0E0,0E0,0E0,0E0],"parents":[2147483647,0,0,1,1,2,2,3,3,4,4,6,6],"right_children":[2,4,6,8,-1,-1,12,-1,-1,-1,-1,-1,-1],"split_conditions":[6.3404775E-1,6.2500024E-1,1.7276885E-1,2.1897209E-1,3.0704694E-2,4.128281E-2,8.0865574E-1,6.841563E-3,-1.5220184E-2,4.1295905E-2,2.0266186E-2,-3.798043E-2,-4.2063063E-3],"split_indices":[2,2,0,0,1,0,1,0,0,2147483647,2147483647,0,0],"split_type":[0,0,0,0,0,0,0,0,0,0,0,0,0],"sum_hessian":[1.04E2,8.3E1,2.1E1,7.4E1,9E0,1E0,2E1,4.9E1,2.5E1,3E0,6E0,9E0,1.1E1],"tree_param":{"num_deleted":"2","num_feature":"4","num_nodes":"13","size_leaf_vector":"0"}},{"base_weights":[6.943808E-2,-4.3666574E-1,1.0528846E-1,2.1977532E-1,-5.618395E-1,4.0732267E-1,6.456388E-2,-1.9420438E-1,-6.700527E-1,4.967133E-1,8.2015455E-2,2.086427E-2,3.2839262E-1],"categories":[],"categories_nodes":[],"categories_segments":[],"categories_sizes":[],"default_left":[1,1,1,0,1,1,1,1,1,0,0,0,0],"id":54,"left_children":[1,3,5,-1,-1,9,11,-1,-1,-1,-1,-1,-1],"loss_changes":[2.1869698E0,7.808322E-1,1.3390256E0,0E0,1.4835358E-1,3.3729434E-1,1.1345403E0,0E0,0E0,0E0,0E0,0E0,0E0],"parents":[2147483647,0,0,1,1,2,2,4,4,5,5,6,6],"right_children":[2,4,6,-1,-1,10,12,-1,-1,-1,-1,-1,-1],"split_conditions":[-1.8335077E1,1.7365354E-1,-1.7539318E1,1.5646145E-2,-3.9998226E-2,2.2069074E-1,2.613873E-1,-1.382571E-2,-4.770209E-2,3.536179E-2,5.838807E-3,1.4853597E-3,2.337878E-2],"split_indices":[3,0,3,0,3,0,0,2147483647,2147483647,0,0,0,0],"split_type":[0,0,0,0,0,0,0,0,0,0,0,0,0],"sum_hessian":[1.17E2,7E0,1.1E2,1E0,6E0,1.2E1,9.8E1,2E0,4E0,9E0,3E0,8.5E1,1.3E1],"tree_param":{"num_deleted":"2","num_feature":"4","num_nodes":"13","size_leaf_vector":"0"}}]},"name":"gbtree"},"learner_model_param":{"base_score":"5E-1","num_class":"0","num_feature":"4","num_target":"1"},"objective":{"name":"reg:squarederror","reg_loss_param":{"scale_pos_weight":"1"}}},"version":[1,6,1]}