{"learner":{"attributes":{"best_iteration":"111","best_ntree_limit":"112","best_score":"1.1284977693745186","scikit_learn":"{\"n_estimators\": 112, \"objective\": \"reg:squarederror\", \"max_depth\": 2, \"max_leaves\": null, \"max_bin\": null, \"grow_policy\": null, \"learning_rate\": 0.012797644174607761, \"verbosity\": null, \"booster\": null, \"tree_method\": null, \"gamma\": 0.46044759309663835, \"min_child_weight\": null, \"max_delta_step\": null, \"subsample\": 0.43096929834660513, \"sampling_method\": null, \"colsample_bytree\": 0.4542911037377255, \"colsample_bylevel\": null, \"colsample_bynode\": null, \"reg_alpha\": null, \"reg_lambda\": null, \"scale_pos_weight\": null, \"base_score\": null, \"missing\": NaN, \"num_parallel_tree\": null, \"random_state\": null, \"n_jobs\": null, \"monotone_constraints\": null, \"interaction_constraints\": null, \"importance_type\": null, \"gpu_id\": null, \"validate_parameters\": null, \"predictor\": null, \"enable_categorical\": false, \"max_cat_to_onehot\": null, \"eval_metric\": [\"rmse\"], \"early_stopping_rounds\": null, \"callbacks\": null, \"evals_result_\": {\"validation_0\": {\"rmse\": [1.6319036572123073, 1.6229782896515095, 1.6129163698382496, 1.6040584502015651, 1.5952024604602164, 1.585845610064994, 1.5769384848727404, 1.5699197207975373, 1.562891607822386, 1.5537669949536292, 1.5455980594757879, 1.5374947212186174, 1.5295921394274457, 1.5211500919107817, 1.513156006368835, 1.5051352991262386, 1.4986089906882158, 1.4913961727123413, 1.4829892768672108, 1.4767723954006642, 1.471913022110408, 1.4662540287410104, 1.4599930783095312, 1.4528492683277392, 1.4467271434255773, 1.438564398636221, 1.4323741613844483, 1.4252688550647192, 1.4183822389866245, 1.4147683573784575, 1.4100997569923657, 1.4039264954692927, 1.3967649695734734, 1.3916994008072026, 1.3863770920201144, 1.3800802371117578, 1.3745078128318808, 1.3699425813255253, 1.3652165995375438, 1.3608118316609945, 1.3548238029041688, 1.3503148648456773, 1.3448495841768238, 1.3399989711431086, 1.3351610708647719, 1.3299316320222838, 1.3250485184506282, 1.320971706554272, 1.3161353290403237, 1.3111451692627796, 1.305455563281623, 1.2995665828914136, 1.2940441221223222, 1.2889807545136256, 1.2841441125805106, 1.279069393121558, 1.2749595812613925, 1.2709545225474583, 1.2673139466643752, 1.2634344177895664, 1.259862007449932, 1.2557172719866208, 1.2513756870303394, 1.24862383190049, 1.245223950512821, 1.2416476506085303, 1.238546441351433, 1.234697076294367, 1.2301158063014277, 1.2277276990221593, 1.2242264147345638, 1.2206428712476551, 1.2184254066251652, 1.2158436383446132, 1.2136366605222093, 1.2108103904342875, 1.209161556110808, 1.2051284136649707, 1.2020551890641078, 1.2005057871464546, 1.198116823478074, 1.1955586994238339, 1.1933133536799034, 1.190206729302004, 1.1878293893700378, 1.1846933758235612, 1.1824641662173703, 1.1799413890173343, 1.1777058781735943, 1.1751555459317715, 1.1713992446798231, 1.168519789260404, 1.1660408876640174, 1.1640157481141988, 1.1614705822771074, 1.1593556268621652, 1.1576686752585876, 1.1554891544832473, 1.1537029989049796, 1.1503940571585416, 1.148438110609718, 1.1461479151573393, 1.143267509431355, 1.142272591132296, 1.140792626115027, 1.1388651814435153, 1.1372598906564881, 1.1362001882283659, 1.134204899245752, 1.1318425501250817, 1.130044344043115, 1.1284977693745186]}}, \"_estimator_type\": \"regressor\"}"},"feature_names":["r2020B04","r2020B08","r2020B09","r2020B10","r2020B11"],"feature_types":["float","float","float","float","float"],"gradient_booster":{"model":{"gbtree_model_param":{"num_parallel_tree":"1","num_trees":"112","size_leaf_vector":"0"},"tree_info":[0,0,0,0,0,0,0,0,0,0,0,0,0,0,0,0,0,0,0,0,0,0,0,0,0,0,0,0,0,0,0,0,0,0,0,0,0,0,0,0,0,0,0,0,0,0,0,0,0,0,0,0,0,0,0,0,0,0,0,0,0,0,0,0,0,0,0,0,0,0,0,0,0,0,0,0,0,0,0,0,0,0,0,0,0,0,0,0,0,0,0,0,0,0,0,0,0,0,0,0,0,0,0,0,0,0,0,0,0,0,0,0],"trees":[{"base_weights":[-1.0292683E0,-5.875E-1,-1.6057143E0,-4.372093E-1,-1.5666667E0,-2.1833334E0,-9.388889E-1],"categories":[],"categories_nodes":[],"categories_segments":[],"categories_sizes":[],"default_left":[1,1,1,0,0,0,0],"id":0,"left_children":[1,3,5,-1,-1,-1,-1],"loss_changes":[1.9938393E1,6.378702E0,1.1431084E1,0E0,0E0,0E0,0E0],"parents":[2147483647,0,0,1,1,2,2],"right_children":[2,4,6,-1,-1,-1,-1],"split_conditions":[2.1964607E-1,6.4315844E-1,2.4478394E-1,-5.595249E-3,-2.0049643E-2,-2.7941525E-2,-1.2015566E-2],"split_indices":[0,2,0,0,0,0,0],"split_type":[0,0,0,0,0,0,0],"sum_hessian":[8.1E1,4.7E1,3.4E1,4.2E1,5E0,1.7E1,1.7E1],"tree_param":{"num_deleted":"0","num_feature":"5","num_nodes":"7","size_leaf_vector":"0"}},{"base_weights":[-9.1772795E-1,-1.0304251E0,1.6900092E-1,-5.2207583E-1,-1.1740385E0,-1.1552381E-1,4.8240662E-1],"categories":[],"categories_nodes":[],"categories_segments":[],"categories_sizes":[],"default_left":[1,1,1,0,0,0,0],"id":1,"left_children":[1,3,5,-1,-1,-1,-1],"loss_changes":[9.481964E0,4.4244614E0,7.691028E-1,0E0,0E0,0E0,0E0],"parents":[2147483647,0,0,1,1,2,2],"right_children":[2,4,6,-1,-1,-1,-1],"split_conditions":[-1.4483126E1,4.5887762E-1,5.7090586E-1,-6.6813407E-3,-1.5024927E-2,-1.4784326E-3,6.1736684E-3],"split_indices":[3,2,2,0,0,0,0],"split_type":[0,0,0,0,0,0,0],"sum_hessian":[7.5E1,6.8E1,7E0,1.6E1,5.2E1,4E0,3E0],"tree_param":{"num_deleted":"0","num_feature":"5","num_nodes":"7","size_leaf_vector":"0"}},{"base_weights":[-9.8260754E-1,-1.4460986E0,-6.0551816E-1,-7.5881965E-2,-1.6342986E0,-6.959349E-1,2.1873537E-1],"categories":[],"categories_nodes":[],"categories_segments":[],"categories_sizes":[],"default_left":[1,1,1,0,0,0,0],"id":2,"left_children":[1,3,5,-1,-1,-1,-1],"loss_changes":[1.5378677E1,1.0448845E1,4.1021194E0,0E0,0E0,0E0,0E0],"parents":[2147483647,0,0,1,1,2,2],"right_children":[2,4,6,-1,-1,-1,-1],"split_conditions":[-7.1042407E-1,-7.851628E-1,-1.4482233E1,-9.711104E-4,-2.0915171E-2,-8.906327E-3,2.7992975E-3],"split_indices":[1,1,3,0,0,0,0],"split_type":[0,0,0,0,0,0,0],"sum_hessian":[9.2E1,4E1,5.2E1,5E0,3.5E1,4.7E1,5E0],"tree_param":{"num_deleted":"0","num_feature":"5","num_nodes":"7","size_leaf_vector":"0"}},{"base_weights":[-9.3915504E-1,-1.7794298E0,-6.041432E-1,-2.363058E0,-5.441539E-1,-1.2091184E0,-3.15424E-1],"categories":[],"categories_nodes":[],"categories_segments":[],"categories_sizes":[],"default_left":[1,1,1,0,0,0,0],"id":3,"left_children":[1,3,5,-1,-1,-1,-1],"loss_changes":[2.3134148E1,1.6016739E1,1.0622698E1,0E0,0E0,0E0,0E0],"parents":[2147483647,0,0,1,1,2,2],"right_children":[2,4,6,-1,-1,-1,-1],"split_conditions":[-7.364377E-1,-1.5899645E1,-1.7026377E1,-3.0241577E-2,-6.9638886E-3,-1.5473867E-2,-4.036684E-3],"split_indices":[1,3,3,0,0,0,0],"split_type":[0,0,0,0,0,0,0],"sum_hessian":[8.5E1,2.3E1,6.2E1,1.5E1,8E0,1.9E1,4.3E1],"tree_param":{"num_deleted":"0","num_feature":"5","num_nodes":"7","size_leaf_vector":"0"}},{"base_weights":[-8.682569E-1,-1.0195676E0,-1.1417857E-1,-5.1789206E-1,-1.2805192E0,-6.3819987E-1,1.13678515E-1],"categories":[],"categories_nodes":[],"categories_segments":[],"categories_sizes":[],"default_left":[1,1,1,0,0,0,0],"id":4,"left_children":[1,3,5,-1,-1,-1,-1],"loss_changes":[1.0038498E1,9.024399E0,1.982981E0,0E0,0E0,0E0,0E0],"parents":[2147483647,0,0,1,1,2,2],"right_children":[2,4,6,-1,-1,-1,-1],"split_conditions":[-1.4802318E1,1.912907E-1,1.8014805E-1,-6.6277985E-3,-1.638763E-2,-8.167455E-3,1.4548172E-3],"split_indices":[3,0,0,0,0,0,0],"split_type":[0,0,0,0,0,0,0],"sum_hessian":[8.8E1,7.3E1,1.5E1,2.6E1,4.7E1,4E0,1.1E1],"tree_param":{"num_deleted":"0","num_feature":"5","num_nodes":"7","size_leaf_vector":"0"}},{"base_weights":[-1.0223438E0,-4.9134508E-1,-1.1897956E0,-1.1573218E0,-2.0505716E-1,-1.2682694E0,-1.413628E-1],"categories":[],"categories_nodes":[],"categories_segments":[],"categories_sizes":[],"default_left":[1,1,1,0,0,0,0],"id":5,"left_children":[1,3,5,-1,-1,-1,-1],"loss_changes":[7.684654E0,4.3385496E0,5.579933E0,0E0,0E0,0E0,0E0],"parents":[2147483647,0,0,1,1,2,2],"right_children":[2,4,6,-1,-1,-1,-1],"split_conditions":[5.0590765E-1,-1.802695E1,-1.4470085E1,-1.4810993E-2,-2.6242486E-3,-1.623086E-2,-1.8091109E-3],"split_indices":[2,3,3,0,0,0,0],"split_type":[0,0,0,0,0,0,0],"sum_hessian":[9.2E1,2.3E1,6.9E1,6E0,1.7E1,6.4E1,5E0],"tree_param":{"num_deleted":"0","num_feature":"5","num_nodes":"7","size_leaf_vector":"0"}},{"base_weights":[-1.0354662E0,-1.2848E0,-7.4366874E-1,-8.442527E-1,-1.8987182E0,1.9471096E-1,-8.2084435E-1],"categories":[],"categories_nodes":[],"categories_segments":[],"categories_sizes":[],"default_left":[1,1,1,0,0,0,0],"id":6,"left_children":[1,3,5,-1,-1,-1,-1],"loss_changes":[5.3014603E0,1.0567711E1,3.2014694E0,0E0,0E0,0E0,0E0],"parents":[2147483647,0,0,1,1,2,2],"right_children":[2,4,6,-1,-1,-1,-1],"split_conditions":[-1.617775E1,5.7724476E-1,-1.6007925E1,-1.08044455E-2,-2.429912E-2,2.4918416E-3,-1.0504874E-2],"split_indices":[3,2,3,0,0,0,0],"split_type":[0,0,0,0,0,0,0],"sum_hessian":[8.5E1,4.4E1,4.1E1,2.7E1,1.7E1,3E0,3.8E1],"tree_param":{"num_deleted":"0","num_feature":"5","num_nodes":"7","size_leaf_vector":"0"}},{"base_weights":[-7.516293E-1,-1.6540221E0,-6.198028E-1,-6.8820894E-1,-1.7921796E0,-7.387118E-1,-4.7355764E-2],"categories":[],"categories_nodes":[],"categories_segments":[],"categories_sizes":[],"default_left":[1,1,1,1,1,0,0],"id":7,"left_children":[1,-1,5,-1,-1,-1,-1],"loss_changes":[9.800133E0,2.3438263E-1,5.478615E0,0E0,0E0,0E0,0E0],"parents":[2147483647,0,0,1,1,2,2],"right_children":[2,-1,6,-1,-1,-1,-1],"split_conditions":[-1.74924E1,-2.1167587E-2,-1.4869011E1,-8.807453E-3,-2.2935677E-2,-9.453771E-3,-6.060422E-4],"split_indices":[3,4,3,2147483647,2147483647,0,0],"split_type":[0,0,0,0,0,0,0],"sum_hessian":[9E1,1E1,8E1,2E0,8E0,6.6E1,1.4E1],"tree_param":{"num_deleted":"2","num_feature":"5","num_nodes":"7","size_leaf_vector":"0"}},{"base_weights":[-8.573929E-1,-9.5446855E-1,-1.7911638E-1,-8.344782E-1,-1.477673E0,2.0231768E-1,-5.349624E-1],"categories":[],"categories_nodes":[],"categories_segments":[],"categories_sizes":[],"default_left":[1,1,1,0,0,0,0],"id":8,"left_children":[1,3,5,-1,-1,-1,-1],"loss_changes":[6.018387E0,3.9148254E0,1.8727459E0,0E0,0E0,0E0,0E0],"parents":[2147483647,0,0,1,1,2,2],"right_children":[2,4,6,-1,-1,-1,-1],"split_conditions":[-1.4731426E1,-9.775181E0,-1.4417421E1,-1.0679355E-2,-1.8910734E-2,2.5891897E-3,-6.846259E-3],"split_indices":[3,4,3,0,0,0,0],"split_type":[0,0,0,0,0,0,0],"sum_hessian":[9.3E1,8.1E1,1.2E1,6.8E1,1.3E1,6E0,6E0],"tree_param":{"num_deleted":"0","num_feature":"5","num_nodes":"7","size_leaf_vector":"0"}},{"base_weights":[-1.0370651E0,-1.2828997E0,-4.3048343E-1,-1.1237218E0,-1.6324593E0,-5.6008065E-1,1.7400205E-1],"categories":[],"categories_nodes":[],"categories_segments":[],"categories_sizes":[],"default_left":[1,1,1,0,0,0,0],"id":9,"left_children":[1,3,5,-1,-1,-1,-1],"loss_changes":[1.1078995E1,1.2258911E0,1.9776058E0,0E0,0E0,0E0,0E0],"parents":[2147483647,0,0,1,1,2,2],"right_children":[2,4,6,-1,-1,-1,-1],"split_conditions":[-1.5347265E1,-1.0512832E1,-9.669724E0,-1.4380992E-2,-2.0891633E-2,-7.167713E-3,2.2268163E-3],"split_indices":[3,4,4,0,0,0,0],"split_type":[0,0,0,0,0,0,0],"sum_hessian":[7.7E1,5.4E1,2.3E1,4E1,1.4E1,1.9E1,4E0],"tree_param":{"num_deleted":"0","num_feature":"5","num_nodes":"7","size_leaf_vector":"0"}},{"base_weights":[-9.629232E-1,-1.1441985E0,-1.5411383E-1,-1.0113271E0,-1.9067296E0,1.1717684E-1,-3.8286403E-1],"categories":[],"categories_nodes":[],"categories_segments":[],"categories_sizes":[],"default_left":[1,1,1,0,0,0,0],"id":10,"left_children":[1,3,5,-1,-1,-1,-1],"loss_changes":[1.3312439E1,5.6705627E0,1.161903E0,0E0,0E0,0E0,0E0],"parents":[2147483647,0,0,1,1,2,2],"right_children":[2,4,6,-1,-1,-1,-1],"split_conditions":[-1.4990168E1,-9.646491E0,-1.4658141E1,-1.2942605E-2,-2.4401648E-2,1.4995876E-3,-4.8997574E-3],"split_indices":[3,4,3,0,0,0,0],"split_type":[0,0,0,0,0,0,0],"sum_hessian":[9.1E1,7.4E1,1.7E1,6.5E1,9E0,8E0,9E0],"tree_param":{"num_deleted":"0","num_feature":"5","num_nodes":"7","size_leaf_vector":"0"}},{"base_weights":[-8.844712E-1,-4.4924474E-1,-1.4216915E0,-8.391351E-1,-1.9648112E-1,-1.7043912E0,-8.779406E-2],"categories":[],"categories_nodes":[],"categories_segments":[],"categories_sizes":[],"default_left":[1,1,1,0,0,0,0],"id":11,"left_children":[1,3,5,-1,-1,-1,-1],"loss_changes":[1.7364883E1,4.1713295E0,1.2671501E1,0E0,0E0,0E0,0E0],"parents":[2147483647,0,0,1,1,2,2],"right_children":[2,4,6,-1,-1,-1,-1],"split_conditions":[2.1617913E-1,-1.1416948E1,2.752993E-1,-1.0738953E-2,-2.5144955E-3,-2.1812193E-2,-1.1235571E-3],"split_indices":[0,4,0,0,0,0,0],"split_type":[0,0,0,0,0,0,0],"sum_hessian":[7.6E1,4.3E1,3.3E1,1.6E1,2.7E1,2.7E1,6E0],"tree_param":{"num_deleted":"0","num_feature":"5","num_nodes":"7","size_leaf_vector":"0"}},{"base_weights":[-8.2038605E-1,-6.072058E-1,-1.5919999E0,-7.367066E-1,3.3798888E-1,-1.9418323E0,1.17871985E-1],"categories":[],"categories_nodes":[],"categories_segments":[],"categories_sizes":[],"default_left":[1,1,1,0,0,0,0],"id":12,"left_children":[1,3,5,-1,-1,-1,-1],"loss_changes":[1.317971E1,8.694838E0,1.0995926E1,0E0,0E0,0E0,0E0],"parents":[2147483647,0,0,1,1,2,2],"right_children":[2,4,6,-1,-1,-1,-1],"split_conditions":[6.3891196E-1,6.271542E-1,-1.504378E1,-9.428109E-3,4.3254616E-3,-2.4850879E-2,1.5084838E-3],"split_indices":[2,2,3,0,0,0,0],"split_type":[0,0,0,0,0,0,0],"sum_hessian":[8.5E1,6.8E1,1.7E1,6E1,8E0,1.4E1,3E0],"tree_param":{"num_deleted":"0","num_feature":"5","num_nodes":"7","size_leaf_vector":"0"}},{"base_weights":[-8.842837E-1,-1.3095208E0,-4.490674E-1,2.9305905E-1,-1.4309684E0,-8.0436414E-1,-5.8798317E-2],"categories":[],"categories_nodes":[],"categories_segments":[],"categories_sizes":[],"default_left":[1,1,1,0,0,0,0],"id":13,"left_children":[1,3,5,-1,-1,-1,-1],"loss_changes":[1.6068245E1,9.177689E0,6.331126E0,0E0,0E0,0E0,0E0],"parents":[2147483647,0,0,1,1,2,2],"right_children":[2,4,6,-1,-1,-1,-1],"split_conditions":[-7.0993745E-1,-8.0628943E-1,-1.617775E1,3.7504656E-3,-1.8313024E-2,-1.0293966E-2,-7.5247994E-4],"split_indices":[1,1,3,0,0,0,0],"split_type":[0,0,0,0,0,0,0],"sum_hessian":[8.9E1,4.4E1,4.5E1,3E0,4.1E1,2.3E1,2.2E1],"tree_param":{"num_deleted":"0","num_feature":"5","num_nodes":"7","size_leaf_vector":"0"}},{"base_weights":[-9.233332E-1,-1.1622597E0,-4.0798813E-1,-7.04976E-1,-1.3437009E0,3.419853E-1,-5.005562E-1],"categories":[],"categories_nodes":[],"categories_segments":[],"categories_sizes":[],"default_left":[1,1,1,0,0,0,0],"id":14,"left_children":[1,3,5,-1,-1,-1,-1],"loss_changes":[1.097686E1,4.2798386E0,2.3233137E0,0E0,0E0,0E0,0E0],"parents":[2147483647,0,0,1,1,2,2],"right_children":[2,4,6,-1,-1,-1,-1],"split_conditions":[-6.841454E-1,2.0172834E-1,-6.79401E-1,-9.022033E-3,-1.7196206E-2,4.376606E-3,-6.40594E-3],"split_indices":[1,0,1,0,0,0,0],"split_type":[0,0,0,0,0,0,0],"sum_hessian":[9.2E1,6.2E1,3E1,1.9E1,4.3E1,3E0,2.7E1],"tree_param":{"num_deleted":"0","num_feature":"5","num_nodes":"7","size_leaf_vector":"0"}},{"base_weights":[-9.1210043E-1,-1.1896324E0,-4.5989972E-1,-6.3224334E-1,-1.3091767E0,-7.620338E-1,-2.4286012E-1],"categories":[],"categories_nodes":[],"categories_segments":[],"categories_sizes":[],"default_left":[1,1,1,0,0,0,0],"id":15,"left_children":[1,3,5,-1,-1,-1,-1],"loss_changes":[1.1124405E1,2.9703445E0,2.241209E0,0E0,0E0,0E0,0E0],"parents":[2147483647,0,0,1,1,2,2],"right_children":[2,4,6,-1,-1,-1,-1],"split_conditions":[-6.9072694E-1,-7.670974E-1,4.3686002E-1,-8.091225E-3,-1.6754378E-2,-9.752238E-3,-3.1080374E-3],"split_indices":[1,1,2,0,0,0,0],"split_type":[0,0,0,0,0,0,0],"sum_hessian":[9.2E1,5.6E1,3.6E1,1.1E1,4.5E1,1.4E1,2.2E1],"tree_param":{"num_deleted":"0","num_feature":"5","num_nodes":"7","size_leaf_vector":"0"}},{"base_weights":[-7.5069815E-1,-1.5081357E0,-4.0214336E-1,-4.518143E-1,-1.9080735E0,-7.304037E-1,-2.8434524E-1],"categories":[],"categories_nodes":[],"categories_segments":[],"categories_sizes":[],"default_left":[1,1,1,0,0,0,0],"id":16,"left_children":[1,3,5,-1,-1,-1,-1],"loss_changes":[2.3154274E1,1.0966869E1,2.228426E0,0E0,0E0,0E0,0E0],"parents":[2147483647,0,0,1,1,2,2],"right_children":[2,4,6,-1,-1,-1,-1],"split_conditions":[-7.3394525E-1,-7.670974E-1,-7.1042615E-1,-5.7821586E-3,-2.4418846E-2,-9.347447E-3,-3.6389492E-3],"split_indices":[1,1,1,0,0,0,0],"split_type":[0,0,0,0,0,0,0],"sum_hessian":[8.9E1,2.7E1,6.2E1,8E0,1.9E1,1.5E1,4.7E1],"tree_param":{"num_deleted":"0","num_feature":"5","num_nodes":"7","size_leaf_vector":"0"}},{"base_weights":[-9.386129E-1,-1.5639042E0,-6.6834843E-1,-4.8566133E-1,-1.694812E0,-2.4029039E-1,-1.0741283E0],"categories":[],"categories_nodes":[],"categories_segments":[],"categories_sizes":[],"default_left":[1,1,1,0,0,0,0],"id":17,"left_children":[1,3,5,-1,-1,-1,-1],"loss_changes":[1.2812271E1,2.5645103E0,9.990042E0,0E0,0E0,0E0,0E0],"parents":[2147483647,0,0,1,1,2,2],"right_children":[2,4,6,-1,-1,-1,-1],"split_conditions":[-1.7026377E1,-1.9036594E1,-1.0567133E1,-6.215321E-3,-2.1689601E-2,-3.075151E-3,-1.3746312E-2],"split_indices":[3,3,4,0,0,0,0],"split_type":[0,0,0,0,0,0,0],"sum_hessian":[8.1E1,2.3E1,5.8E1,3E0,2E1,2.9E1,2.9E1],"tree_param":{"num_deleted":"0","num_feature":"5","num_nodes":"7","size_leaf_vector":"0"}},{"base_weights":[-1.0299028E0,-1.190103E0,-4.863644E-1,-4.2195097E-1,-1.2507837E0,2.9744755E-2,-6.6005325E-1],"categories":[],"categories_nodes":[],"categories_segments":[],"categories_sizes":[],"default_left":[1,1,1,0,0,0,0],"id":18,"left_children":[1,3,5,-1,-1,-1,-1],"loss_changes":[7.954521E0,2.968132E0,2.171051E0,0E0,0E0,0E0,0E0],"parents":[2147483647,0,0,1,1,2,2],"right_children":[2,4,6,-1,-1,-1,-1],"split_conditions":[-6.82673E-1,4.789127E-1,-6.7313266E-1,-5.3999783E-3,-1.6007084E-2,3.806628E-4,-8.4471265E-3],"split_indices":[1,2,1,0,0,0,0],"split_type":[0,0,0,0,0,0,0],"sum_hessian":[9.7E1,7.4E1,2.3E1,6E0,6.8E1,6E0,1.7E1],"tree_param":{"num_deleted":"0","num_feature":"5","num_nodes":"7","size_leaf_vector":"0"}},{"base_weights":[-9.253702E-1,-1.3243573E0,-5.6309694E-1,-9.525115E-1,-1.851761E0,3.4233367E-1,-6.732096E-1],"categories":[],"categories_nodes":[],"categories_segments":[],"categories_sizes":[],"default_left":[1,1,1,0,0,0,0],"id":19,"left_children":[1,3,5,-1,-1,-1,-1],"loss_changes":[9.805847E0,4.9040184E0,4.218438E0,0E0,0E0,0E0,0E0],"parents":[2147483647,0,0,1,1,2,2],"right_children":[2,4,6,-1,-1,-1,-1],"split_conditions":[-1.6388176E1,-1.6726551E1,-1.5985237E1,-1.2189903E-2,-2.3698179E-2,4.381065E-3,-8.6154975E-3],"split_indices":[3,3,3,0,0,0,0],"split_type":[0,0,0,0,0,0,0],"sum_hessian":[7.2E1,3.3E1,3.9E1,2.1E1,1.2E1,4E0,3.5E1],"tree_param":{"num_deleted":"0","num_feature":"5","num_nodes":"7","size_leaf_vector":"0"}},{"base_weights":[-5.881439E-1,-5.1623464E-1,-2.5493731E0,4.5843565E-1,-5.551133E-1],"categories":[],"categories_nodes":[],"categories_segments":[],"categories_sizes":[],"default_left":[1,1,0,0,0],"id":20,"left_children":[1,3,-1,-1,-1],"loss_changes":[1.1658731E1,3.664936E0,0E0,0E0,0E0],"parents":[2147483647,0,0,1,1],"right_children":[2,4,-1,-1,-1],"split_conditions":[6.947448E-1,-7.90224E-1,-3.262597E-2,5.8668964E-3,-7.1041426E-3],"split_indices":[2,1,0,0,0],"split_type":[0,0,0,0,0],"sum_hessian":[9.1E1,8.9E1,2E0,3E0,8.6E1],"tree_param":{"num_deleted":"0","num_feature":"5","num_nodes":"5","size_leaf_vector":"0"}},{"base_weights":[-6.9935036E-1,-4.7821316E-1,-9.1450906E-1,-6.040867E-1,1.7946285E-1,-1.0438215E0,-1.0035659E-1],"categories":[],"categories_nodes":[],"categories_segments":[],"categories_sizes":[],"default_left":[1,1,1,0,0,0,0],"id":21,"left_children":[1,3,5,-1,-1,-1,-1],"loss_changes":[3.702095E0,3.8336916E0,4.422283E0,0E0,0E0,0E0,0E0],"parents":[2147483647,0,0,1,1,2,2],"right_children":[2,4,6,-1,-1,-1,-1],"split_conditions":[2.0362058E-1,1.9710636E-1,2.693013E-1,-7.730887E-3,2.2967018E-3,-1.3358456E-2,-1.2843279E-3],"split_indices":[0,0,0,0,0,0,0],"split_type":[0,0,0,0,0,0,0],"sum_hessian":[8.6E1,4.4E1,4.2E1,3.7E1,7E0,3.6E1,6E0],"tree_param":{"num_deleted":"0","num_feature":"5","num_nodes":"7","size_leaf_vector":"0"}},{"base_weights":[-7.5820756E-1,-8.198506E-1,6.340606E-2,-7.1583354E-1,-1.4867886E0,2.84583E-1,-1.736224E-1],"categories":[],"categories_nodes":[],"categories_segments":[],"categories_sizes":[],"default_left":[1,1,1,0,0,1,1],"id":22,"left_children":[1,3,-1,-1,-1,-1,-1],"loss_changes":[4.458252E0,4.55492E0,4.1638657E-1,0E0,0E0,0E0,0E0],"parents":[2147483647,0,0,1,1,2,2],"right_children":[2,4,-1,-1,-1,-1,-1],"split_conditions":[-1.4482233E1,6.5420794E-1,8.114482E-4,-9.160983E-3,-1.9027391E-2,3.641992E-3,-2.2219578E-3],"split_indices":[3,2,3,0,0,2147483647,2147483647],"split_type":[0,0,0,0,0,0,0],"sum_hessian":[8.6E1,8E1,6E0,7.1E1,9E0,3E0,3E0],"tree_param":{"num_deleted":"2","num_feature":"5","num_nodes":"7","size_leaf_vector":"0"}},{"base_weights":[-7.855438E-1,-6.13796E-2,-9.7318405E-1,-2.1183987E-1,3.25001E-1,-1.6716187E0,-8.2230663E-1],"categories":[],"categories_nodes":[],"categories_segments":[],"categories_sizes":[],"default_left":[1,1,1,0,0,0,0],"id":23,"left_children":[1,3,5,-1,-1,-1,-1],"loss_changes":[1.2441444E1,1.2315468E0,6.318016E0,0E0,0E0,0E0,0E0],"parents":[2147483647,0,0,1,1,2,2],"right_children":[2,4,6,-1,-1,-1,-1],"split_conditions":[1.8483435E-1,-1.0258797E1,-1.1636597E1,-2.7110514E-3,4.159247E-3,-2.1392781E-2,-1.0523587E-2],"split_indices":[0,4,4,0,0,0,0],"split_type":[0,0,0,0,0,0,0],"sum_hessian":[9.1E1,1.9E1,7.2E1,1.4E1,5E0,1.1E1,6.1E1],"tree_param":{"num_deleted":"0","num_feature":"5","num_nodes":"7","size_leaf_vector":"0"}},{"base_weights":[-7.2611827E-1,-9.6007895E-1,-3.8626936E-1,-8.3756614E-1,-1.4276301E0,-5.157848E-1,1.9626564E-1],"categories":[],"categories_nodes":[],"categories_segments":[],"categories_sizes":[],"default_left":[1,1,1,0,0,0,0],"id":24,"left_children":[1,3,5,-1,-1,-1,-1],"loss_changes":[7.1032104E0,1.9547234E0,3.1191225E0,0E0,0E0,0E0,0E0],"parents":[2147483647,0,0,1,1,2,2],"right_children":[2,4,6,-1,-1,-1,-1],"split_conditions":[-1.5586834E1,-9.933722E0,-1.4482233E1,-1.0718874E-2,-1.8270303E-2,-6.6008302E-3,2.5117379E-3],"split_indices":[3,4,3,0,0,0,0],"split_type":[0,0,0,0,0,0,0],"sum_hessian":[9.3E1,5.4E1,3.9E1,4.5E1,9E0,3.2E1,7E0],"tree_param":{"num_deleted":"0","num_feature":"5","num_nodes":"7","size_leaf_vector":"0"}},{"base_weights":[-8.3882874E-1,-1.4666197E0,-5.979446E-1,-7.4596334E-1,-2.5954645E0,-4.8629805E-1,-1.3914597E0],"categories":[],"categories_nodes":[],"categories_segments":[],"categories_sizes":[],"default_left":[1,1,1,0,0,0,0],"id":25,"left_children":[1,3,5,-1,-1,-1,-1],"loss_changes":[9.860004E0,1.3520554E1,4.018778E0,0E0,0E0,0E0,0E0],"parents":[2147483647,0,0,1,1,2,2],"right_children":[2,4,6,-1,-1,-1,-1],"split_conditions":[-7.3322105E-1,-7.5705E-1,6.4494425E-1,-9.546573E-3,-3.3215832E-2,-6.2234695E-3,-1.7807407E-2],"split_indices":[1,1,2,0,0,0,0],"split_type":[0,0,0,0,0,0,0],"sum_hessian":[7E1,1.8E1,5.2E1,1.2E1,6E0,4.7E1,5E0],"tree_param":{"num_deleted":"0","num_feature":"5","num_nodes":"7","size_leaf_vector":"0"}},{"base_weights":[-7.8571427E-1,-4.524109E-1,-9.9154747E-1,-5.8482367E-1,1.793031E-2,-1.1249484E0,-3.7212926E-1],"categories":[],"categories_nodes":[],"categories_segments":[],"categories_sizes":[],"default_left":[1,1,1,0,0,0,0],"id":26,"left_children":[1,3,5,-1,-1,-1,-1],"loss_changes":[4.971199E0,2.0034204E0,3.5476608E0,0E0,0E0,0E0,0E0],"parents":[2147483647,0,0,1,1,2,2],"right_children":[2,4,6,-1,-1,-1,-1],"split_conditions":[1.995224E-1,1.9323248E-1,-1.511036E1,-7.4843653E-3,2.2946573E-4,-1.4396689E-2,-4.762378E-3],"split_indices":[0,0,3,0,0,0,0],"split_type":[0,0,0,0,0,0,0],"sum_hessian":[7.8E1,3.1E1,4.7E1,2.4E1,7E0,3.8E1,9E0],"tree_param":{"num_deleted":"0","num_feature":"5","num_nodes":"7","size_leaf_vector":"0"}},{"base_weights":[-9.342005E-1,-1.1436E0,-3.6305174E-1,-1.000303E0,-1.9679048E0,1.0478664E-1,-6.035201E-1],"categories":[],"categories_nodes":[],"categories_segments":[],"categories_sizes":[],"default_left":[1,1,1,0,0,0,0],"id":27,"left_children":[1,3,5,-1,-1,-1,-1],"loss_changes":[9.631073E0,5.236847E0,2.763249E0,0E0,0E0,0E0,0E0],"parents":[2147483647,0,0,1,1,2,2],"right_children":[2,4,6,-1,-1,-1,-1],"split_conditions":[-1.5234142E1,-9.811417E0,-1.0921515E1,-1.2801522E-2,-2.5184546E-2,1.3410222E-3,-7.7236355E-3],"split_indices":[3,4,4,0,0,0,0],"split_type":[0,0,0,0,0,0,0],"sum_hessian":[8.3E1,6E1,2.3E1,5.3E1,7E0,8E0,1.5E1],"tree_param":{"num_deleted":"0","num_feature":"5","num_nodes":"7","size_leaf_vector":"0"}},{"base_weights":[-7.5818926E-1,-1.1475284E0,-4.5322704E-1,-1.2750036E0,2.5476173E-1,1.5886614E-1,-5.542161E-1],"categories":[],"categories_nodes":[],"categories_segments":[],"categories_sizes":[],"default_left":[1,1,1,0,0,0,0],"id":28,"left_children":[1,3,5,-1,-1,-1,-1],"loss_changes":[9.928478E0,7.117592E0,3.2405968E0,0E0,0E0,0E0,0E0],"parents":[2147483647,0,0,1,1,2,2],"right_children":[2,4,6,-1,-1,-1,-1],"split_conditions":[-7.0993745E-1,3.1749618E-1,-7.026099E-1,-1.6317042E-2,3.2603499E-3,2.0331123E-3,-7.0926603E-3],"split_indices":[1,0,1,0,0,0,0],"split_type":[0,0,0,0,0,0,0],"sum_hessian":[8.7E1,3.7E1,5E1,3.4E1,3E0,7E0,4.3E1],"tree_param":{"num_deleted":"0","num_feature":"5","num_nodes":"7","size_leaf_vector":"0"}},{"base_weights":[-5.028633E-1,-4.338547E-1,-2.0374546E0,-8.1823885E-1,-3.048587E-1],"categories":[],"categories_nodes":[],"categories_segments":[],"categories_sizes":[],"default_left":[1,1,0,0,0],"id":29,"left_children":[1,3,-1,-1,-1],"loss_changes":[7.164444E0,3.4197702E0,0E0,0E0,0E0],"parents":[2147483647,0,0,1,1],"right_children":[2,4,-1,-1,-1],"split_conditions":[7.001201E-1,-1.1668922E1,-2.607462E-2,-1.047153E-2,-3.9014735E-3],"split_indices":[2,4,0,0,0],"split_type":[0,0,0,0,0],"sum_hessian":[7.5E1,7.3E1,2E0,1.7E1,5.6E1],"tree_param":{"num_deleted":"0","num_feature":"5","num_nodes":"5","size_leaf_vector":"0"}},{"base_weights":[-6.296387E-1,-9.671738E-1,-2.449659E-1,-7.0393664E-1,-1.8444341E0,1.4216822E-1,-4.653059E-1],"categories":[],"categories_nodes":[],"categories_segments":[],"categories_sizes":[],"default_left":[1,1,1,0,0,0,0],"id":30,"left_children":[1,3,5,-1,-1,-1,-1],"loss_changes":[1.1059208E1,9.324299E0,3.6487994E0,0E0,0E0,0E0,0E0],"parents":[2147483647,0,0,1,1,2,2],"right_children":[2,4,6,-1,-1,-1,-1],"split_conditions":[-1.6216326E1,-1.6506819E1,-1.5672733E1,-9.008731E-3,-2.3604412E-2,1.8194184E-3,-5.9548193E-3],"split_indices":[3,3,3,0,0,0,0],"split_type":[0,0,0,0,0,0,0],"sum_hessian":[8.6E1,4.5E1,4.1E1,3.6E1,9E0,1.5E1,2.6E1],"tree_param":{"num_deleted":"0","num_feature":"5","num_nodes":"7","size_leaf_vector":"0"}},{"base_weights":[-7.7104676E-1,-1.0281495E0,-3.1309065E-1,-8.365896E-1,-1.4704326E0,-5.8808404E-1,-1.3420386E-3],"categories":[],"categories_nodes":[],"categories_segments":[],"categories_sizes":[],"default_left":[1,1,1,0,0,0,0],"id":31,"left_children":[1,3,5,-1,-1,-1,-1],"loss_changes":[9.68615E0,3.3449326E0,2.7425325E0,0E0,0E0,0E0,0E0],"parents":[2147483647,0,0,1,1,2,2],"right_children":[2,4,6,-1,-1,-1,-1],"split_conditions":[-1.5370764E1,-1.0345276E1,-1.04825325E1,-1.0706376E-2,-1.8818075E-2,-7.5260904E-3,-1.7174933E-5],"split_indices":[3,4,4,0,0,0,0],"split_type":[0,0,0,0,0,0,0],"sum_hessian":[8.4E1,5.3E1,3.1E1,3.9E1,1.4E1,1.6E1,1.5E1],"tree_param":{"num_deleted":"0","num_feature":"5","num_nodes":"7","size_leaf_vector":"0"}},{"base_weights":[-7.437597E-1,-1.2277144E0,-3.9838773E-1,-1.4697651E0,-1.6656023E-1,4.067968E-1,-5.2696407E-1],"categories":[],"categories_nodes":[],"categories_segments":[],"categories_sizes":[],"default_left":[1,1,1,0,0,0,0],"id":32,"left_children":[1,3,5,-1,-1,-1,-1],"loss_changes":[1.455389E1,9.258759E0,5.804862E0,0E0,0E0,0E0,0E0],"parents":[2147483647,0,0,1,1,2,2],"right_children":[2,4,6,-1,-1,-1,-1],"split_conditions":[-7.110611E-1,-1.504378E1,-7.0283973E-1,-1.880953E-2,-2.1315785E-3,5.206041E-3,-6.7438986E-3],"split_indices":[1,3,1,0,0,0,0],"split_type":[0,0,0,0,0,0,0],"sum_hessian":[8.9E1,3.6E1,5.3E1,2.9E1,7E0,7E0,4.6E1],"tree_param":{"num_deleted":"0","num_feature":"5","num_nodes":"7","size_leaf_vector":"0"}},{"base_weights":[-6.434849E-1,-5.551796E-1,-1.6364521E0,-6.3004E-1,1.5529713E-1,-1.9642586E0,1.651933E-1],"categories":[],"categories_nodes":[],"categories_segments":[],"categories_sizes":[],"default_left":[1,1,1,0,0,0,0],"id":33,"left_children":[1,3,5,-1,-1,-1,-1],"loss_changes":[7.158432E0,4.6718864E0,4.458618E0,0E0,0E0,0E0,0E0],"parents":[2147483647,0,0,1,1,2,2],"right_children":[2,4,6,-1,-1,-1,-1],"split_conditions":[6.610872E-1,6.39274E-1,-9.7797985E0,-8.063028E-3,1.9874375E-3,-2.5137883E-2,2.1140852E-3],"split_indices":[2,2,4,0,0,0,0],"split_type":[0,0,0,0,0,0,0],"sum_hessian":[9.1E1,8.5E1,6E0,7.7E1,8E0,5E0,1E0],"tree_param":{"num_deleted":"0","num_feature":"5","num_nodes":"7","size_leaf_vector":"0"}},{"base_weights":[-6.724745E-1,-8.554471E-1,-1.6123787E-1,-1.1688176E0,-6.2751776E-1,-2.6133576E-1,3.2951206E-1],"categories":[],"categories_nodes":[],"categories_segments":[],"categories_sizes":[],"default_left":[1,1,1,0,0,0,0],"id":34,"left_children":[1,3,5,-1,-1,-1,-1],"loss_changes":[6.877743E0,3.194992E0,1.1176968E0,0E0,0E0,0E0,0E0],"parents":[2147483647,0,0,1,1,2,2],"right_children":[2,4,6,-1,-1,-1,-1],"split_conditions":[-1.5147189E1,-1.1335059E1,-9.202436E0,-1.49581125E-2,-8.030749E-3,-3.344482E-3,4.2169783E-3],"split_indices":[3,4,4,0,0,0,0],"split_type":[0,0,0,0,0,0,0],"sum_hessian":[7.4E1,5.4E1,2E1,2.1E1,3.3E1,1.7E1,3E0],"tree_param":{"num_deleted":"0","num_feature":"5","num_nodes":"7","size_leaf_vector":"0"}},{"base_weights":[-8.5191536E-1,-9.574411E-1,1.807484E-1,-1.2828805E0,-8.2758E-1,3.6903077E-1,-1.4686224E-1],"categories":[],"categories_nodes":[],"categories_segments":[],"categories_sizes":[],"default_left":[1,1,1,0,0,0,0],"id":35,"left_children":[1,3,5,-1,-1,-1,-1],"loss_changes":[9.762646E0,2.319275E0,6.0934645E-1,0E0,0E0,0E0,0E0],"parents":[2147483647,0,0,1,1,2,2],"right_children":[2,4,6,-1,-1,-1,-1],"split_conditions":[-1.4505816E1,-1.1635312E1,-1.4107111E1,-1.641785E-2,-1.0591074E-2,4.7227247E-3,-1.8794907E-3],"split_indices":[3,4,3,0,0,0,0],"split_type":[0,0,0,0,0,0,0],"sum_hessian":[8.7E1,7.9E1,8E0,2E1,5.9E1,5E0,3E0],"tree_param":{"num_deleted":"0","num_feature":"5","num_nodes":"7","size_leaf_vector":"0"}},{"base_weights":[-6.8684614E-1,-9.4123024E-1,-3.1914523E-1,-8.1212294E-1,-1.811664E0,-8.1590396E-1,-1.2754627E-1],"categories":[],"categories_nodes":[],"categories_segments":[],"categories_sizes":[],"default_left":[1,1,1,0,0,0,0],"id":36,"left_children":[1,3,5,-1,-1,-1,-1],"loss_changes":[6.9019814E0,3.5857735E0,3.0368233E0,0E0,0E0,0E0,0E0],"parents":[2147483647,0,0,1,1,2,2],"right_children":[2,4,6,-1,-1,-1,-1],"split_conditions":[-6.934222E-1,-7.026099E-1,-1.7537704E1,-1.0393261E-2,-2.3185031E-2,-1.0441649E-2,-1.6322917E-3],"split_indices":[1,1,3,0,0,0,0],"split_type":[0,0,0,0,0,0,0],"sum_hessian":[7.6E1,4.4E1,3.2E1,4E1,4E0,8E0,2.4E1],"tree_param":{"num_deleted":"0","num_feature":"5","num_nodes":"7","size_leaf_vector":"0"}},{"base_weights":[-6.0280174E-1,-8.319971E-1,-1.777966E-1,-5.410193E-1,-1.249629E0,-2.9268476E-1,1.7473146E-1],"categories":[],"categories_nodes":[],"categories_segments":[],"categories_sizes":[],"default_left":[1,1,1,0,0,0,0],"id":37,"left_children":[1,3,5,-1,-1,-1,-1],"loss_changes":[7.839628E0,5.764572E0,1.2661803E0,0E0,0E0,0E0,0E0],"parents":[2147483647,0,0,1,1,2,2],"right_children":[2,4,6,-1,-1,-1,-1],"split_conditions":[-1.54715805E1,-1.06255865E1,-9.705301E0,-6.923773E-3,-1.5992308E-2,-3.7456756E-3,2.2361511E-3],"split_indices":[3,4,4,0,0,0,0],"split_type":[0,0,0,0,0,0,0],"sum_hessian":[8.1E1,5.2E1,2.9E1,3.2E1,2E1,2.2E1,7E0],"tree_param":{"num_deleted":"0","num_feature":"5","num_nodes":"7","size_leaf_vector":"0"}},{"base_weights":[-6.522771E-1,-7.664299E-1,-2.2012869E-1,-1.5963782E0,-6.335917E-1,-7.6787156E-1,-7.8299254E-2],"categories":[],"categories_nodes":[],"categories_segments":[],"categories_sizes":[],"default_left":[1,1,1,0,0,0,0],"id":38,"left_children":[1,3,5,-1,-1,-1,-1],"loss_changes":[4.2217407E0,6.705963E0,1.4935975E0,0E0,0E0,0E0,0E0],"parents":[2147483647,0,0,1,1,2,2],"right_children":[2,4,6,-1,-1,-1,-1],"split_conditions":[-6.830331E-1,-1.1954483E1,-1.3323383E1,-2.0429881E-2,-8.108482E-3,-9.826947E-3,-1.002046E-3],"split_indices":[1,4,4,0,0,0,0],"split_type":[0,0,0,0,0,0,0],"sum_hessian":[8.8E1,6.9E1,1.9E1,8E0,6.1E1,3E0,1.6E1],"tree_param":{"num_deleted":"0","num_feature":"5","num_nodes":"7","size_leaf_vector":"0"}},{"base_weights":[-4.4151333E-1,-6.425179E-1,1.6357961E-1,-2.8031248E-1,-1.035735E0,4.1348386E-1,6.93729E-2],"categories":[],"categories_nodes":[],"categories_segments":[],"categories_sizes":[],"default_left":[1,1,1,0,0,1,1],"id":39,"left_children":[1,3,-1,-1,-1,-1,-1],"loss_changes":[8.983835E0,7.543066E0,4.186259E-1,0E0,0E0,0E0,0E0],"parents":[2147483647,0,0,1,1,2,2],"right_children":[2,4,-1,-1,-1,-1,-1],"split_conditions":[-1.5082703E1,5.7229733E-1,2.0934336E-3,-3.5873393E-3,-1.3254968E-2,5.2916193E-3,8.878097E-4],"split_indices":[3,2,3,0,0,2147483647,2147483647],"split_type":[0,0,0,0,0,0,0],"sum_hessian":[7.2E1,5.4E1,1.8E1,2.9E1,2.5E1,4E0,1.4E1],"tree_param":{"num_deleted":"2","num_feature":"5","num_nodes":"7","size_leaf_vector":"0"}},{"base_weights":[-6.442709E-1,-1.4286736E0,-3.5680112E-1,-1.6021067E0,2.6158306E-1,-5.884186E-1,3.732355E-2],"categories":[],"categories_nodes":[],"categories_segments":[],"categories_sizes":[],"default_left":[1,1,1,0,0,0,0],"id":40,"left_children":[1,3,5,-1,-1,-1,-1],"loss_changes":[1.9108051E1,7.1614532E0,5.9555626E0,0E0,0E0,0E0,0E0],"parents":[2147483647,0,0,1,1,2,2],"right_children":[2,4,6,-1,-1,-1,-1],"split_conditions":[-7.317852E-1,-1.5140579E1,-6.82673E-1,-2.0503191E-2,3.347647E-3,-7.530372E-3,4.7765352E-4],"split_indices":[1,3,1,0,0,0,0],"split_type":[0,0,0,0,0,0,0],"sum_hessian":[8.6E1,2.2E1,6.4E1,2E1,2E0,4E1,2.4E1],"tree_param":{"num_deleted":"0","num_feature":"5","num_nodes":"7","size_leaf_vector":"0"}},{"base_weights":[-5.1920414E-1,-3.0181456E-1,-8.494437E-1,-1.776076E-1,-1.4089969E0,-1.4511641E0,-3.6136314E-1],"categories":[],"categories_nodes":[],"categories_segments":[],"categories_sizes":[],"default_left":[1,1,1,0,0,0,0],"id":41,"left_children":[1,3,5,-1,-1,-1,-1],"loss_changes":[5.630459E0,6.76326E0,8.873621E0,0E0,0E0,0E0,0E0],"parents":[2147483647,0,0,1,1,2,2],"right_children":[2,4,6,-1,-1,-1,-1],"split_conditions":[2.1967784E-1,6.662564E-1,2.4696127E-1,-2.2729589E-3,-1.8031841E-2,-1.8571483E-2,-4.624597E-3],"split_indices":[0,2,0,0,0,0,0],"split_type":[0,0,0,0,0,0,0],"sum_hessian":[8.1E1,5E1,3.1E1,4.6E1,4E0,1.3E1,1.8E1],"tree_param":{"num_deleted":"0","num_feature":"5","num_nodes":"7","size_leaf_vector":"0"}},{"base_weights":[-7.7100724E-1,-9.839626E-1,-1.3104743E-2,-8.465823E-1,-2.1708753E0,-2.9579082E-1,2.708918E-1],"categories":[],"categories_nodes":[],"categories_segments":[],"categories_sizes":[],"default_left":[1,1,1,0,0,0,0],"id":42,"left_children":[1,3,5,-1,-1,-1,-1],"loss_changes":[1.3221855E1,8.597912E0,1.6054827E0,0E0,0E0,0E0,0E0],"parents":[2147483647,0,0,1,1,2,2],"right_children":[2,4,6,-1,-1,-1,-1],"split_conditions":[-1.5280083E1,-9.532488E0,-1.473795E1,-1.0834259E-2,-2.778209E-2,-3.7854258E-3,3.4667768E-3],"split_indices":[3,4,3,0,0,0,0],"split_type":[0,0,0,0,0,0,0],"sum_hessian":[8.1E1,6.3E1,1.8E1,5.8E1,5E0,9E0,9E0],"tree_param":{"num_deleted":"0","num_feature":"5","num_nodes":"7","size_leaf_vector":"0"}},{"base_weights":[-6.3715243E-1,-7.322408E-1,-1.0940759E-1,-5.6745857E-1,-1.3626074E0,8.07684E-1,-2.4208264E-1],"categories":[],"categories_nodes":[],"categories_segments":[],"categories_sizes":[],"default_left":[1,1,1,0,0,0,0],"id":43,"left_children":[1,3,5,-1,-1,-1,-1],"loss_changes":[4.135208E0,6.601776E0,1.8989786E0,0E0,0E0,0E0,0E0],"parents":[2147483647,0,0,1,1,2,2],"right_children":[2,4,6,-1,-1,-1,-1],"split_conditions":[2.5321037E-1,2.2174583E-1,2.5561023E-1,-7.262133E-3,-1.7438164E-2,1.0336453E-2,-3.0980876E-3],"split_indices":[0,0,0,0,0,0,0],"split_type":[0,0,0,0,0,0,0],"sum_hessian":[8.3E1,7E1,1.3E1,5.7E1,1.3E1,1E0,1.2E1],"tree_param":{"num_deleted":"0","num_feature":"5","num_nodes":"7","size_leaf_vector":"0"}},{"base_weights":[-6.145208E-1,-1.2896099E0,-2.779531E-1,5.9792574E-2,-1.629452E0,-1.6458753E-1,-7.885945E-1],"categories":[],"categories_nodes":[],"categories_segments":[],"categories_sizes":[],"default_left":[1,1,1,0,0,0,0],"id":44,"left_children":[1,3,5,-1,-1,-1,-1],"loss_changes":[2.0317947E1,1.38549385E1,3.459334E0,0E0,0E0,0E0,0E0],"parents":[2147483647,0,0,1,1,2,2],"right_children":[2,4,6,-1,-1,-1,-1],"split_conditions":[-7.310566E-1,-7.7318466E-1,2.1967784E-1,7.652041E-4,-2.0853147E-2,-2.1063327E-3,-1.0092151E-2],"split_indices":[1,1,0,0,0,0,0],"split_type":[0,0,0,0,0,0,0],"sum_hessian":[9E1,2.9E1,6.1E1,6E0,2.3E1,5.1E1,1E1],"tree_param":{"num_deleted":"0","num_feature":"5","num_nodes":"7","size_leaf_vector":"0"}},{"base_weights":[-7.3476547E-1,-1.3853809E0,-5.594719E-1,-8.3142227E-1,-1.8469592E0,-6.312824E-1,5.3653684E-3],"categories":[],"categories_nodes":[],"categories_segments":[],"categories_sizes":[],"default_left":[1,1,1,0,0,0,0],"id":45,"left_children":[1,3,5,-1,-1,-1,-1],"loss_changes":[9.261204E0,3.0669136E0,2.8832378E0,0E0,0E0,0E0,0E0],"parents":[2147483647,0,0,1,1,2,2],"right_children":[2,4,6,-1,-1,-1,-1],"split_conditions":[-1.1635312E1,-1.2234066E1,-1.4470085E1,-1.0640247E-2,-2.3636727E-2,-8.078927E-3,6.866408E-5],"split_indices":[4,4,3,0,0,0,0],"split_type":[0,0,0,0,0,0,0],"sum_hessian":[8.7E1,1.7E1,7E1,9E0,8E0,6.2E1,8E0],"tree_param":{"num_deleted":"0","num_feature":"5","num_nodes":"7","size_leaf_vector":"0"}},{"base_weights":[-5.6241703E-1,-1.0230376E0,-2.031236E-1,-5.911617E-1,-1.2906274E0,-2.9852325E-1,3.23115E-1],"categories":[],"categories_nodes":[],"categories_segments":[],"categories_sizes":[],"default_left":[1,1,1,0,0,0,0],"id":46,"left_children":[1,3,5,-1,-1,-1,-1],"loss_changes":[1.3859524E1,3.5129585E0,2.5564032E0,0E0,0E0,0E0,0E0],"parents":[2147483647,0,0,1,1,2,2],"right_children":[2,4,6,-1,-1,-1,-1],"split_conditions":[-7.1166706E-1,-1.674918E1,-1.4470978E1,-7.5654774E-3,-1.651699E-2,-3.8203944E-3,4.135111E-3],"split_indices":[1,3,3,0,0,0,0],"split_type":[0,0,0,0,0,0,0],"sum_hessian":[8.4E1,3.6E1,4.8E1,1.5E1,2.1E1,4.1E1,7E0],"tree_param":{"num_deleted":"0","num_feature":"5","num_nodes":"7","size_leaf_vector":"0"}},{"base_weights":[-5.13697E-1,-2.6669148E-1,-8.108656E-1,-3.3804637E-1,3.010264E-1,-2.0250416E0,-6.534331E-1],"categories":[],"categories_nodes":[],"categories_segments":[],"categories_sizes":[],"default_left":[1,1,1,0,0,0,0],"id":47,"left_children":[1,3,5,-1,-1,-1,-1],"loss_changes":[6.1697464E0,2.086724E0,6.131651E0,0E0,0E0,0E0,0E0],"parents":[2147483647,0,0,1,1,2,2],"right_children":[2,4,6,-1,-1,-1,-1],"split_conditions":[5.7847506E-1,5.643638E-1,5.908804E-1,-4.3261973E-3,3.8524289E-3,-2.5915762E-2,-8.362404E-3],"split_indices":[2,2,2,0,0,0,0],"split_type":[0,0,0,0,0,0,0],"sum_hessian":[8.6E1,4.8E1,3.8E1,4.3E1,5E0,3E0,3.5E1],"tree_param":{"num_deleted":"0","num_feature":"5","num_nodes":"7","size_leaf_vector":"0"}},{"base_weights":[-6.239345E-1,-1.0209519E-1,-7.6470745E-1,3.3235483E-2,-8.349372E-1,-8.4894633E-1,2.1917278E-1],"categories":[],"categories_nodes":[],"categories_segments":[],"categories_sizes":[],"default_left":[1,1,1,0,0,0,0],"id":48,"left_children":[1,3,5,-1,-1,-1,-1],"loss_changes":[6.092636E0,1.9120935E0,5.656212E0,0E0,0E0,0E0,0E0],"parents":[2147483647,0,0,1,1,2,2],"right_children":[2,4,6,-1,-1,-1,-1],"split_conditions":[1.850411E-1,-1.4586008E1,-1.4479946E1,4.253359E-4,-1.068523E-2,-1.0864513E-2,2.8048952E-3],"split_indices":[0,3,3,0,0,0,0],"split_type":[0,0,0,0,0,0,0],"sum_hessian":[8.3E1,1.8E1,6.5E1,1.6E1,2E0,6E1,5E0],"tree_param":{"num_deleted":"0","num_feature":"5","num_nodes":"7","size_leaf_vector":"0"}},{"base_weights":[-5.501192E-1,-3.880593E-1,-9.25891E-1,-2.9546797E-1,-1.0224127E0,-1.1220145E0,4.8232326E-1],"categories":[],"categories_nodes":[],"categories_segments":[],"categories_sizes":[],"default_left":[1,1,1,0,0,0,0],"id":49,"left_children":[1,3,5,-1,-1,-1,-1],"loss_changes":[5.2432747E0,3.574459E0,7.9981422E0,0E0,0E0,0E0,0E0],"parents":[2147483647,0,0,1,1,2,2],"right_children":[2,4,6,-1,-1,-1,-1],"split_conditions":[2.2174583E-1,6.4520776E-1,3.180324E-1,-3.781294E-3,-1.3084474E-2,-1.4359143E-2,6.1726016E-3],"split_indices":[0,2,0,0,0,0,0],"split_type":[0,0,0,0,0,0,0],"sum_hessian":[9.1E1,6.5E1,2.6E1,5.8E1,7E0,2.3E1,3E0],"tree_param":{"num_deleted":"0","num_feature":"5","num_nodes":"7","size_leaf_vector":"0"}},{"base_weights":[-6.970052E-1,-1.3832822E0,-3.7450042E-1,-8.364371E-1,-2.251793E0,2.8608033E-1,-4.5772323E-1],"categories":[],"categories_nodes":[],"categories_segments":[],"categories_sizes":[],"default_left":[1,1,1,0,0,0,0],"id":50,"left_children":[1,3,5,-1,-1,-1,-1],"loss_changes":[2.0508087E1,1.2364735E1,3.7593203E0,0E0,0E0,0E0,0E0],"parents":[2147483647,0,0,1,1,2,2],"right_children":[2,4,6,-1,-1,-1,-1],"split_conditions":[-7.296589E-1,-7.458663E-1,-7.2051525E-1,-1.0704424E-2,-2.8817644E-2,3.6611543E-3,-5.857779E-3],"split_indices":[1,1,1,0,0,0,0],"split_type":[0,0,0,0,0,0,0],"sum_hessian":[9.4E1,2.9E1,6.5E1,1.9E1,1E1,7E0,5.8E1],"tree_param":{"num_deleted":"0","num_feature":"5","num_nodes":"7","size_leaf_vector":"0"}},{"base_weights":[-6.3491184E-1,-3.381689E-1,-1.2742195E0,-1.3008378E0,-1.2615064E-1,-1.3655336E0,-1.4940517E-1],"categories":[],"categories_nodes":[],"categories_segments":[],"categories_sizes":[],"default_left":[1,1,1,0,0,0,0],"id":51,"left_children":[1,3,5,-1,-1,-1,-1],"loss_changes":[1.4745899E1,1.1265689E1,2.3637695E0,0E0,0E0,0E0,0E0],"parents":[2147483647,0,0,1,1,2,2],"right_children":[2,4,6,-1,-1,-1,-1],"split_conditions":[2.207936E-1,-1.7284792E1,3.180324E-1,-1.664766E-2,-1.614431E-3,-1.7475612E-2,-1.9120342E-3],"split_indices":[0,3,0,0,0,0,0],"split_type":[0,0,0,0,0,0,0],"sum_hessian":[7.9E1,5.5E1,2.4E1,9E0,4.6E1,2.2E1,2E0],"tree_param":{"num_deleted":"0","num_feature":"5","num_nodes":"7","size_leaf_vector":"0"}},{"base_weights":[-6.640616E-1,-1.1719383E0,-3.859558E-1,-6.2982655E-1,-2.4271197E0,-5.979059E-1,-1.2994306E-1],"categories":[],"categories_nodes":[],"categories_segments":[],"categories_sizes":[],"default_left":[1,1,1,0,0,0,0],"id":52,"left_children":[1,3,5,-1,-1,-1,-1],"loss_changes":[1.2118347E1,1.9565239E1,3.1237602E0,0E0,0E0,0E0,0E0],"parents":[2147483647,0,0,1,1,2,2],"right_children":[2,4,6,-1,-1,-1,-1],"split_conditions":[-7.296589E-1,-7.436831E-1,-6.8015826E-1,-8.060296E-3,-3.1061415E-2,-7.651787E-3,-1.662965E-3],"split_indices":[1,1,1,0,0,0,0],"split_type":[0,0,0,0,0,0,0],"sum_hessian":[8.8E1,3E1,5.8E1,2.2E1,8E0,3.1E1,2.7E1],"tree_param":{"num_deleted":"0","num_feature":"5","num_nodes":"7","size_leaf_vector":"0"}},{"base_weights":[-6.358976E-1,-1.5578303E0,-4.7970685E-1,-1.6613257E0,-2.6143825E-1,-1.5136625E-1,-9.8485273E-1],"categories":[],"categories_nodes":[],"categories_segments":[],"categories_sizes":[],"default_left":[1,1,1,0,0,0,0],"id":53,"left_children":[1,3,5,-1,-1,-1,-1],"loss_changes":[1.0628485E1,1.041542E0,1.129526E1,0E0,0E0,0E0,0E0],"parents":[2147483647,0,0,1,1,2,2],"right_children":[2,4,6,-1,-1,-1,-1],"split_conditions":[-1.1995319E1,2.4939573E-1,2.207936E-1,-2.1261055E-2,-3.3457938E-3,-1.9371314E-3,-1.2603795E-2],"split_indices":[4,0,0,0,0,0,0],"split_type":[0,0,0,0,0,0,0],"sum_hessian":[7.8E1,1E1,6.8E1,9E0,1E0,4.2E1,2.6E1],"tree_param":{"num_deleted":"0","num_feature":"5","num_nodes":"7","size_leaf_vector":"0"}},{"base_weights":[-5.33502E-1,-3.2006255E-1,-1.075642E0,-1.009194E0,-6.0380314E-2,-1.534845E0,-8.8409907E-1],"categories":[],"categories_nodes":[],"categories_segments":[],"categories_sizes":[],"default_left":[1,1,1,0,0,0,0],"id":54,"left_children":[1,3,5,-1,-1,-1,-1],"loss_changes":[1.0069994E1,1.1750109E1,8.4197235E-1,0E0,0E0,0E0,0E0],"parents":[2147483647,0,0,1,1,2,2],"right_children":[2,4,6,-1,-1,-1,-1],"split_conditions":[2.2082539E-1,-1.1621233E1,2.2834334E-1,-1.2915306E-2,-7.727258E-4,-1.96424E-2,-1.1314386E-2],"split_indices":[0,4,0,0,0,0,0],"split_type":[0,0,0,0,0,0,0],"sum_hessian":[8.9E1,6.5E1,2.4E1,1.7E1,4.8E1,5E0,1.9E1],"tree_param":{"num_deleted":"0","num_feature":"5","num_nodes":"7","size_leaf_vector":"0"}},{"base_weights":[-6.517711E-1,-1.3139691E0,-3.5883805E-1,-1.6604339E0,-4.7504297E-1,-5.642473E-2,-7.9205626E-1],"categories":[],"categories_nodes":[],"categories_segments":[],"categories_sizes":[],"default_left":[1,1,1,0,0,0,0],"id":55,"left_children":[1,3,5,-1,-1,-1,-1],"loss_changes":[1.621075E1,6.7683372E0,7.946977E0,0E0,0E0,0E0,0E0],"parents":[2147483647,0,0,1,1,2,2],"right_children":[2,4,6,-1,-1,-1,-1],"split_conditions":[-1.1343825E1,-1.5757234E1,-1.0154445E1,-2.1249643E-2,-6.079431E-3,-7.2210364E-4,-1.0136454E-2],"split_indices":[4,3,4,0,0,0,0],"split_type":[0,0,0,0,0,0,0],"sum_hessian":[8.5E1,2.5E1,6E1,1.7E1,8E0,3.6E1,2.4E1],"tree_param":{"num_deleted":"0","num_feature":"5","num_nodes":"7","size_leaf_vector":"0"}},{"base_weights":[-5.731863E-1,-4.334132E-1,-1.6896092E0,-1.0349615E0,-2.9916772E-1,-1.9961472E0,2.2807854E-1],"categories":[],"categories_nodes":[],"categories_segments":[],"categories_sizes":[],"default_left":[1,1,1,0,0,0,0],"id":56,"left_children":[1,3,5,-1,-1,-1,-1],"loss_changes":[1.0971138E1,5.1817217E0,5.1580334E0,0E0,0E0,0E0,0E0],"parents":[2147483647,0,0,1,1,2,2],"right_children":[2,4,6,-1,-1,-1,-1],"split_conditions":[6.678314E-1,-1.17576885E1,-9.7797985E0,-1.32450685E-2,-3.8286422E-3,-2.554598E-2,2.918868E-3],"split_indices":[2,4,4,0,0,0,0],"split_type":[0,0,0,0,0,0,0],"sum_hessian":[7.4E1,6.7E1,7E0,1.1E1,5.6E1,6E0,1E0],"tree_param":{"num_deleted":"0","num_feature":"5","num_nodes":"7","size_leaf_vector":"0"}},{"base_weights":[-5.346081E-1,-9.508392E-1,-3.7054834E-1,5.7502604E-1,-1.0614125E0,-1.8586013E-1,-6.519222E-1],"categories":[],"categories_nodes":[],"categories_segments":[],"categories_sizes":[],"default_left":[1,1,1,0,0,0,0],"id":57,"left_children":[1,3,5,-1,-1,-1,-1],"loss_changes":[4.6326046E0,3.9847355E0,2.6850214E0,0E0,0E0,0E0,0E0],"parents":[2147483647,0,0,1,1,2,2],"right_children":[2,4,6,-1,-1,-1,-1],"split_conditions":[-7.317852E-1,-8.0141175E-1,2.0284835E-1,7.3589785E-3,-1.3583579E-2,-2.3785718E-3,-8.343069E-3],"split_indices":[1,1,0,0,0,0,0],"split_type":[0,0,0,0,0,0,0],"sum_hessian":[7.2E1,1.9E1,5.3E1,1E0,1.8E1,3.3E1,2E1],"tree_param":{"num_deleted":"0","num_feature":"5","num_nodes":"7","size_leaf_vector":"0"}},{"base_weights":[-5.1189476E-1,-6.866455E-1,-1.3162914E-1,6.8266034E-2,-7.5915164E-1,-4.3017513E-1,5.8128346E-2],"categories":[],"categories_nodes":[],"categories_segments":[],"categories_sizes":[],"default_left":[1,1,1,0,0,0,0],"id":58,"left_children":[1,3,5,-1,-1,-1,-1],"loss_changes":[5.558012E0,3.2264957E0,1.6112429E0,0E0,0E0,0E0,0E0],"parents":[2147483647,0,0,1,1,2,2],"right_children":[2,4,6,-1,-1,-1,-1],"split_conditions":[-6.8855125E-1,-7.851628E-1,4.441948E-1,8.736444E-4,-9.715353E-3,-5.5052284E-3,7.439059E-4],"split_indices":[1,1,2,0,0,0,0],"split_type":[0,0,0,0,0,0,0],"sum_hessian":[8.4E1,5.7E1,2.7E1,5E0,5.2E1,1E1,1.7E1],"tree_param":{"num_deleted":"0","num_feature":"5","num_nodes":"7","size_leaf_vector":"0"}},{"base_weights":[-5.9030277E-1,-3.3303812E-2,-8.888151E-1,4.5503762E-1,-2.0171371E-1,-1.33127E0,-6.3060796E-1],"categories":[],"categories_nodes":[],"categories_segments":[],"categories_sizes":[],"default_left":[1,1,1,0,0,0,0],"id":59,"left_children":[1,3,5,-1,-1,-1,-1],"loss_changes":[1.3770899E1,2.5590332E0,5.3297195E0,0E0,0E0,0E0,0E0],"parents":[2147483647,0,0,1,1,2,2],"right_children":[2,4,6,-1,-1,-1,-1],"split_conditions":[5.561943E-1,1.8221036E-1,6.0406196E-1,5.8234097E-3,-2.5814604E-3,-1.703712E-2,-8.070297E-3],"split_indices":[2,0,2,0,0,0,0],"split_type":[0,0,0,0,0,0,0],"sum_hessian":[8.2E1,2.9E1,5.3E1,7E0,2.2E1,1.8E1,3.5E1],"tree_param":{"num_deleted":"0","num_feature":"5","num_nodes":"7","size_leaf_vector":"0"}},{"base_weights":[-5.145066E-1,-5.2501917E-2,-6.6296196E-1,-3.3511946E-1,7.4424624E-2,-8.931159E-1,-1.3820533E-1],"categories":[],"categories_nodes":[],"categories_segments":[],"categories_sizes":[],"default_left":[1,1,1,0,0,0,0],"id":60,"left_children":[1,3,5,-1,-1,-1,-1],"loss_changes":[5.863682E0,8.141178E-1,7.726927E0,0E0,0E0,0E0,0E0],"parents":[2147483647,0,0,1,1,2,2],"right_children":[2,4,6,-1,-1,-1,-1],"split_conditions":[5.153032E-1,2.8734526E-1,-1.5157789E1,-4.2887395E-3,9.524599E-4,-1.1429779E-2,-1.7687028E-3],"split_indices":[2,2,3,0,0,0,0],"split_type":[0,0,0,0,0,0,0],"sum_hessian":[8.5E1,2.1E1,6.4E1,6E0,1.5E1,4.4E1,2E1],"tree_param":{"num_deleted":"0","num_feature":"5","num_nodes":"7","size_leaf_vector":"0"}},{"base_weights":[-5.0058794E-1,-8.6798006E-1,-3.3993277E-1,-1.7409858E-1,-1.2727023E0,-8.100629E-1,-1.719354E-1],"categories":[],"categories_nodes":[],"categories_segments":[],"categories_sizes":[],"default_left":[1,1,1,0,0,0,0],"id":61,"left_children":[1,3,5,-1,-1,-1,-1],"loss_changes":[4.4858437E0,6.5183277E0,4.441598E0,0E0,0E0,0E0,0E0],"parents":[2147483647,0,0,1,1,2,2],"right_children":[2,4,6,-1,-1,-1,-1],"split_conditions":[-7.310566E-1,-7.765416E-1,-1.17576885E1,-2.2280517E-3,-1.6287591E-2,-1.0366897E-2,-2.200368E-3],"split_indices":[1,1,4,0,0,0,0],"split_type":[0,0,0,0,0,0,0],"sum_hessian":[8E1,2.3E1,5.7E1,9E0,1.4E1,1.4E1,4.3E1],"tree_param":{"num_deleted":"0","num_feature":"5","num_nodes":"7","size_leaf_vector":"0"}},{"base_weights":[-5.260686E-1,-1.0638453E0,-2.8822827E-1,-5.581926E-1,-1.8170705E0,-1.0715588E0,-1.4977162E-1],"categories":[],"categories_nodes":[],"categories_segments":[],"categories_sizes":[],"default_left":[1,1,1,0,0,0,0],"id":62,"left_children":[1,3,5,-1,-1,-1,-1],"loss_changes":[1.0693197E1,8.888353E0,6.455408E0,0E0,0E0,0E0,0E0],"parents":[2147483647,0,0,1,1,2,2],"right_children":[2,4,6,-1,-1,-1,-1],"split_conditions":[-7.310566E-1,-7.454655E-1,-1.7505592E1,-7.1435506E-3,-2.3254221E-2,-1.3713429E-2,-1.9167239E-3],"split_indices":[1,1,3,0,0,0,0],"split_type":[0,0,0,0,0,0,0],"sum_hessian":[8.5E1,2.5E1,6E1,1.6E1,9E0,8E0,5.2E1],"tree_param":{"num_deleted":"0","num_feature":"5","num_nodes":"7","size_leaf_vector":"0"}},{"base_weights":[-4.3144363E-1,-5.153152E-1,3.0857017E-2,-1.009186E0,-3.6053377E-1,-1.260888E-1,5.4372406E-1],"categories":[],"categories_nodes":[],"categories_segments":[],"categories_sizes":[],"default_left":[1,1,1,0,0,0,0],"id":63,"left_children":[1,3,5,-1,-1,-1,-1],"loss_changes":[2.807619E0,4.299118E0,1.0344654E0,0E0,0E0,0E0,0E0],"parents":[2147483647,0,0,1,1,2,2],"right_children":[2,4,6,-1,-1,-1,-1],"split_conditions":[-9.7642765E0,-7.36471E-1,-8.9694395E0,-1.2915204E-2,-4.613983E-3,-1.6136396E-3,6.9583873E-3],"split_indices":[4,1,4,0,0,0,0],"split_type":[0,0,0,0,0,0,0],"sum_hessian":[7.1E1,6E1,1.1E1,1.3E1,4.7E1,9E0,2E0],"tree_param":{"num_deleted":"0","num_feature":"5","num_nodes":"7","size_leaf_vector":"0"}},{"base_weights":[-4.5193434E-1,-8.150867E-1,-1.3628493E-1,2.3767509E-1,-9.149679E-1,5.880544E-1,-2.6612943E-1],"categories":[],"categories_nodes":[],"categories_segments":[],"categories_sizes":[],"default_left":[1,1,1,0,0,0,0],"id":64,"left_children":[1,3,5,-1,-1,-1,-1],"loss_changes":[9.059223E0,4.108055E0,4.294763E0,0E0,0E0,0E0,0E0],"parents":[2147483647,0,0,1,1,2,2],"right_children":[2,4,6,-1,-1,-1,-1],"split_conditions":[-1.617775E1,1.6790193E-1,-1.5982131E1,3.0416811E-3,-1.1709434E-2,7.5257113E-3,-3.40583E-3],"split_indices":[3,0,3,0,0,0,0],"split_type":[0,0,0,0,0,0,0],"sum_hessian":[7.9E1,3.6E1,4.3E1,3E0,3.3E1,6E0,3.7E1],"tree_param":{"num_deleted":"0","num_feature":"5","num_nodes":"7","size_leaf_vector":"0"}},{"base_weights":[-5.060742E-1,-4.035946E-1,-1.6781725E0,-1.0517877E0,-3.129956E-1,-2.0360737E0,2.3461783E-1],"categories":[],"categories_nodes":[],"categories_segments":[],"categories_sizes":[],"default_left":[1,1,1,0,0,0,0],"id":65,"left_children":[1,3,5,-1,-1,-1,-1],"loss_changes":[1.0253263E1,4.6624756E0,5.2698307E0,0E0,0E0,0E0,0E0],"parents":[2147483647,0,0,1,1,2,2],"right_children":[2,4,6,-1,-1,-1,-1],"split_conditions":[6.699127E-1,-1.2138769E1,-9.632814E0,-1.3460405E-2,-4.0056068E-3,-2.6056947E-2,3.0025556E-3],"split_indices":[2,4,4,0,0,0,0],"split_type":[0,0,0,0,0,0,0],"sum_hessian":[9E1,8.4E1,6E0,9E0,7.5E1,5E0,1E0],"tree_param":{"num_deleted":"0","num_feature":"5","num_nodes":"7","size_leaf_vector":"0"}},{"base_weights":[-4.6866015E-1,-3.6656845E-1,-1.4261601E0,-5.9451014E-1,-1.8507248E-1,-1.989465E0,-2.2466287E-1],"categories":[],"categories_nodes":[],"categories_segments":[],"categories_sizes":[],"default_left":[1,1,1,0,0,0,0],"id":66,"left_children":[1,3,5,-1,-1,-1,-1],"loss_changes":[8.959236E0,3.571948E0,5.6443214E0,0E0,0E0,0E0,0E0],"parents":[2147483647,0,0,1,1,2,2],"right_children":[2,4,6,-1,-1,-1,-1],"split_conditions":[6.586343E-1,-1.0929567E1,-1.0843944E1,-7.6083294E-3,-2.3684918E-3,-2.5460465E-2,-2.8751555E-3],"split_indices":[2,4,4,0,0,0,0],"split_type":[0,0,0,0,0,0,0],"sum_hessian":[9.6E1,8.8E1,8E0,3.8E1,5E1,5E0,3E0],"tree_param":{"num_deleted":"0","num_feature":"5","num_nodes":"7","size_leaf_vector":"0"}},{"base_weights":[-5.327022E-1,-1.1301075E0,-2.8168288E-1,3.9605338E-2,-1.2292337E0,-6.617237E-1,-1.18585944E-1],"categories":[],"categories_nodes":[],"categories_segments":[],"categories_sizes":[],"default_left":[1,1,1,0,0,0,0],"id":67,"left_children":[1,3,5,-1,-1,-1,-1],"loss_changes":[1.30281315E1,3.0633698E0,3.888472E0,0E0,0E0,0E0,0E0],"parents":[2147483647,0,0,1,1,2,2],"right_children":[2,4,6,-1,-1,-1,-1],"split_conditions":[-7.2636366E-1,-1.7677761E1,-1.6901335E1,5.06855E-4,-1.5731296E-2,-8.468504E-3,-1.5176208E-3],"split_indices":[1,3,3,0,0,0,0],"split_type":[0,0,0,0,0,0,0],"sum_hessian":[8.8E1,2.5E1,6.3E1,2E0,2.3E1,1.8E1,4.5E1],"tree_param":{"num_deleted":"0","num_feature":"5","num_nodes":"7","size_leaf_vector":"0"}},{"base_weights":[-6.337238E-1,-1.1217207E0,-4.3425617E-1,-1.3924632E0,7.729679E-2,-9.345019E-1,-1.5954113E-1],"categories":[],"categories_nodes":[],"categories_segments":[],"categories_sizes":[],"default_left":[1,1,1,0,0,0,0],"id":68,"left_children":[1,3,5,-1,-1,-1,-1],"loss_changes":[7.1053753E0,7.249382E0,7.6841345E0,0E0,0E0,0E0,0E0],"parents":[2147483647,0,0,1,1,2,2],"right_children":[2,4,6,-1,-1,-1,-1],"split_conditions":[-1.1621233E1,-6.1019194E-1,-7.296589E-1,-1.7820248E-2,9.892168E-4,-1.1959422E-2,-2.0417506E-3],"split_indices":[4,1,1,0,0,0,0],"split_type":[0,0,0,0,0,0,0],"sum_hessian":[7.7E1,2.1E1,5.6E1,1.7E1,4E0,1.9E1,3.7E1],"tree_param":{"num_deleted":"0","num_feature":"5","num_nodes":"7","size_leaf_vector":"0"}},{"base_weights":[-3.8913634E-1,-1.8065141E-1,-7.67885E-1,-3.3906823E-1,2.0782495E-1,1.416888E-1,-8.668647E-1],"categories":[],"categories_nodes":[],"categories_segments":[],"categories_sizes":[],"default_left":[1,1,1,0,0,0,0],"id":69,"left_children":[1,3,5,-1,-1,-1,-1],"loss_changes":[7.0469475E0,3.762938E0,3.0037632E0,0E0,0E0,0E0,0E0],"parents":[2147483647,0,0,1,1,2,2],"right_children":[2,4,6,-1,-1,-1,-1],"split_conditions":[2.2330447E-1,1.9840226E-1,-1.7685091E1,-4.3392745E-3,2.6596698E-3,1.8132828E-3,-1.1093826E-2],"split_indices":[0,0,3,0,0,0,0],"split_type":[0,0,0,0,0,0,0],"sum_hessian":[9E1,5.9E1,3.1E1,4.2E1,1.7E1,3E0,2.8E1],"tree_param":{"num_deleted":"0","num_feature":"5","num_nodes":"7","size_leaf_vector":"0"}},{"base_weights":[-5.299765E-1,-2.971388E-1,-1.3300514E0,-6.430495E-1,-1.675267E-1,-1.070143E0,-2.1021495E0],"categories":[],"categories_nodes":[],"categories_segments":[],"categories_sizes":[],"default_left":[1,1,1,0,0,0,0],"id":70,"left_children":[1,3,5,-1,-1,-1,-1],"loss_changes":[1.6370676E1,3.075502E0,1.763897E0,0E0,0E0,0E0,0E0],"parents":[2147483647,0,0,1,1,2,2],"right_children":[2,4,6,-1,-1,-1,-1],"split_conditions":[6.328897E-1,-1.152332E1,6.936482E-1,-8.229518E-3,-2.1439472E-3,-1.3695309E-2,-2.6902562E-2],"split_indices":[2,4,2,0,0,0,0],"split_type":[0,0,0,0,0,0,0],"sum_hessian":[8.9E1,7E1,1.9E1,1.8E1,5.2E1,1.6E1,3E0],"tree_param":{"num_deleted":"0","num_feature":"5","num_nodes":"7","size_leaf_vector":"0"}},{"base_weights":[-5.959417E-1,-9.5190114E-1,-1.3706036E-1,3.5035548E-1,-1.0363259E0,6.44764E-1,-2.8213966E-1],"categories":[],"categories_nodes":[],"categories_segments":[],"categories_sizes":[],"default_left":[1,1,1,0,0,0,0],"id":71,"left_children":[1,3,5,-1,-1,-1,-1],"loss_changes":[1.0650181E1,4.4309654E0,3.5847092E0,0E0,0E0,0E0,0E0],"parents":[2147483647,0,0,1,1,2,2],"right_children":[2,4,6,-1,-1,-1,-1],"split_conditions":[-7.1249807E-1,-7.904664E-1,-7.052016E-1,4.483725E-3,-1.3262531E-2,8.25146E-3,-3.610723E-3],"split_indices":[1,1,1,0,0,0,0],"split_type":[0,0,0,0,0,0,0],"sum_hessian":[6.5E1,3.6E1,2.9E1,2E0,3.4E1,4E0,2.5E1],"tree_param":{"num_deleted":"0","num_feature":"5","num_nodes":"7","size_leaf_vector":"0"}},{"base_weights":[-3.2619548E-1,-6.751961E-1,-1.9742545E-1,-8.5407394E-1,2.4690548E-1,-5.765029E-1,-1.1340197E-1],"categories":[],"categories_nodes":[],"categories_segments":[],"categories_sizes":[],"default_left":[1,1,1,0,0,0,0],"id":72,"left_children":[1,3,5,-1,-1,-1,-1],"loss_changes":[4.2709E0,4.499406E0,2.2597766E0,0E0,0E0,0E0,0E0],"parents":[2147483647,0,0,1,1,2,2],"right_children":[2,4,6,-1,-1,-1,-1],"split_conditions":[-1.1660648E1,-1.5079184E1,-1.715487E1,-1.0930135E-2,3.1598085E-3,-7.377879E-3,-1.4512781E-3],"split_indices":[4,3,3,0,0,0,0],"split_type":[0,0,0,0,0,0,0],"sum_hessian":[9.7E1,2.5E1,7.2E1,2.1E1,4E0,1.2E1,6E1],"tree_param":{"num_deleted":"0","num_feature":"5","num_nodes":"7","size_leaf_vector":"0"}},{"base_weights":[-3.8654107E-1,-5.3312135E-1,1.5072273E-1,-8.583999E-1,-3.8148853E-1,3.370001E-2,5.4186E-1],"categories":[],"categories_nodes":[],"categories_segments":[],"categories_sizes":[],"default_left":[1,1,1,0,0,0,0],"id":73,"left_children":[1,3,5,-1,-1,-1,-1],"loss_changes":[7.876829E0,3.5197163E0,9.887222E-1,0E0,0E0,0E0,0E0],"parents":[2147483647,0,0,1,1,2,2],"right_children":[2,4,6,-1,-1,-1,-1],"split_conditions":[-1.50240135E1,-1.1500425E1,-9.645045E0,-1.0985497E-2,-4.8821545E-3,4.3128076E-4,6.9345315E-3],"split_indices":[3,4,4,0,0,0,0],"split_type":[0,0,0,0,0,0,0],"sum_hessian":[9.8E1,7.7E1,2.1E1,2.3E1,5.4E1,1.7E1,4E0],"tree_param":{"num_deleted":"0","num_feature":"5","num_nodes":"7","size_leaf_vector":"0"}},{"base_weights":[-3.4268448E-1,-6.6534865E-1,-1.6118847E-1,-3.7003666E-1,-1.4681159E0,-3.8456988E-1,1.1994205E-1],"categories":[],"categories_nodes":[],"categories_segments":[],"categories_sizes":[],"default_left":[1,1,1,0,0,0,0],"id":74,"left_children":[1,3,5,-1,-1,-1,-1],"loss_changes":[4.987669E0,6.8058147E0,3.6256883E0,0E0,0E0,0E0,0E0],"parents":[2147483647,0,0,1,1,2,2],"right_children":[2,4,6,-1,-1,-1,-1],"split_conditions":[-1.1104177E1,-1.1369934E1,-1.53985405E1,-4.7355974E-3,-1.8788425E-2,-4.9215886E-3,1.5349757E-3],"split_indices":[4,4,3,0,0,0,0],"split_type":[0,0,0,0,0,0,0],"sum_hessian":[8.6E1,3E1,5.6E1,2.3E1,7E0,3.1E1,2.5E1],"tree_param":{"num_deleted":"0","num_feature":"5","num_nodes":"7","size_leaf_vector":"0"}},{"base_weights":[-4.611922E-1,-8.943204E-1,-6.357329E-2,-9.396812E-1,5.0541437E-1,-6.372997E-1,1.0417839E-1],"categories":[],"categories_nodes":[],"categories_segments":[],"categories_sizes":[],"default_left":[1,1,1,0,0,0,0],"id":75,"left_children":[1,3,5,-1,-1,-1,-1],"loss_changes":[1.5442944E1,3.2051277E0,4.6860843E0,0E0,0E0,0E0,0E0],"parents":[2147483647,0,0,1,1,2,2],"right_children":[2,4,6,-1,-1,-1,-1],"split_conditions":[-7.0993745E-1,-9.103221E0,-1.2076376E1,-1.2025706E-2,6.4681135E-3,-8.155935E-3,1.333238E-3],"split_indices":[1,4,4,0,0,0,0],"split_type":[0,0,0,0,0,0,0],"sum_hessian":[8.9E1,4.2E1,4.7E1,4.1E1,1E0,1E1,3.7E1],"tree_param":{"num_deleted":"0","num_feature":"5","num_nodes":"7","size_leaf_vector":"0"}},{"base_weights":[-3.0374816E-1,-2.1227951E-1,-1.4117262E0,-2.4654678E-1,3.2362497E-1,-2.046658E0,-9.457489E-2],"categories":[],"categories_nodes":[],"categories_segments":[],"categories_sizes":[],"default_left":[1,1,1,0,0,0,0],"id":76,"left_children":[1,3,5,-1,-1,-1,-1],"loss_changes":[7.9092846E0,1.4754508E0,4.8242445E0,0E0,0E0,0E0,0E0],"parents":[2147483647,0,0,1,1,2,2],"right_children":[2,4,6,-1,-1,-1,-1],"split_conditions":[6.936482E-1,6.6310847E-1,-1.1062828E1,-3.155218E-3,4.141637E-3,-2.6192402E-2,-1.2103359E-3],"split_indices":[2,2,4,0,0,0,0],"split_type":[0,0,0,0,0,0,0],"sum_hessian":[8E1,7.5E1,5E0,7.1E1,4E0,3E0,2E0],"tree_param":{"num_deleted":"0","num_feature":"5","num_nodes":"7","size_leaf_vector":"0"}},{"base_weights":[-6.289293E-1,-4.7719458E-1,-1.9752389E0,-3.5970025E-2,-6.4296824E-1,-2.4032898E0,-1.1521403E0],"categories":[],"categories_nodes":[],"categories_segments":[],"categories_sizes":[],"default_left":[1,1,1,0,0,1,1],"id":77,"left_children":[1,3,-1,-1,-1,-1,-1],"loss_changes":[1.785136E1,6.12092E0,4.0202713E-1,0E0,0E0,0E0,0E0],"parents":[2147483647,0,0,1,1,2,2],"right_children":[2,4,-1,-1,-1,-1,-1],"split_conditions":[6.609878E-1,5.082253E-1,-2.5278404E-2,-4.603316E-4,-8.228479E-3,-3.0756447E-2,-1.4744681E-2],"split_indices":[2,2,3,0,0,2147483647,2147483647],"split_type":[0,0,0,0,0,0,0],"sum_hessian":[9.1E1,8.3E1,8E0,2.3E1,6E1,4E0,4E0],"tree_param":{"num_deleted":"2","num_feature":"5","num_nodes":"7","size_leaf_vector":"0"}},{"base_weights":[-4.713804E-1,-8.6405104E-1,-2.7685472E-1,-3.9900756E-1,-1.4002461E0,3.3380076E-1,-3.563097E-1],"categories":[],"categories_nodes":[],"categories_segments":[],"categories_sizes":[],"default_left":[1,1,1,0,0,0,0],"id":78,"left_children":[1,3,5,-1,-1,-1,-1],"loss_changes":[7.017313E0,7.1712646E0,3.2727118E0,0E0,0E0,0E0,0E0],"parents":[2147483647,0,0,1,1,2,2],"right_children":[2,4,6,-1,-1,-1,-1],"split_conditions":[-7.317852E-1,-7.5901496E-1,-7.232617E-1,-5.106357E-3,-1.7919851E-2,4.2718635E-3,-4.559925E-3],"split_indices":[1,1,1,0,0,0,0],"split_type":[0,0,0,0,0,0,0],"sum_hessian":[9.4E1,3E1,6.4E1,1.7E1,1.3E1,7E0,5.7E1],"tree_param":{"num_deleted":"0","num_feature":"5","num_nodes":"7","size_leaf_vector":"0"}},{"base_weights":[-2.5114757E-1,-5.5696046E-1,-5.35965E-2,-4.6533355E-1,-1.8819515E0,-2.2451057E-1,8.694607E-2],"categories":[],"categories_nodes":[],"categories_segments":[],"categories_sizes":[],"default_left":[1,1,1,0,0,0,0],"id":79,"left_children":[1,3,5,-1,-1,-1,-1],"loss_changes":[5.528206E0,3.4948397E0,1.3887004E0,0E0,0E0,0E0,0E0],"parents":[2147483647,0,0,1,1,2,2],"right_children":[2,4,6,-1,-1,-1,-1],"split_conditions":[-1.616969E1,-1.6197191E1,1.957326E-1,-5.955173E-3,-2.4084546E-2,-2.8732063E-3,1.1127049E-3],"split_indices":[3,3,0,0,0,0,0],"split_type":[0,0,0,0,0,0,0],"sum_hessian":[9.1E1,3.5E1,5.6E1,3.4E1,1E0,2.5E1,3.1E1],"tree_param":{"num_deleted":"0","num_feature":"5","num_nodes":"7","size_leaf_vector":"0"}},{"base_weights":[-2.9798535E-1,-3.604345E-1,2.5638607E-1,-1.440115E-1,-6.31458E-1,5.5245554E-1,-1.5017451E-1],"categories":[],"categories_nodes":[],"categories_segments":[],"categories_sizes":[],"default_left":[1,1,1,0,0,0,0],"id":80,"left_children":[1,3,5,-1,-1,-1,-1],"loss_changes":[3.3120728E0,4.8361435E0,1.2866664E0,0E0,0E0,0E0,0E0],"parents":[2147483647,0,0,1,1,2,2],"right_children":[2,4,6,-1,-1,-1,-1],"split_conditions":[-1.4470978E1,2.0412263E-1,-1.4113699E1,-1.843008E-3,-8.081174E-3,7.0701297E-3,-1.9218801E-3],"split_indices":[3,0,3,0,0,0,0],"split_type":[0,0,0,0,0,0,0],"sum_hessian":[9.2E1,8.3E1,9E0,4.7E1,3.6E1,5E0,4E0],"tree_param":{"num_deleted":"0","num_feature":"5","num_nodes":"7","size_leaf_vector":"0"}},{"base_weights":[-3.616829E-1,-8.5201405E-2,-7.8939843E-1,-4.9410173E-1,8.6420715E-2,-1.1440256E0,-2.166522E-1],"categories":[],"categories_nodes":[],"categories_segments":[],"categories_sizes":[],"default_left":[1,1,1,0,0,0,0],"id":81,"left_children":[1,3,5,-1,-1,-1,-1],"loss_changes":[1.0812242E1,4.0427523E0,7.064152E0,0E0,0E0,0E0,0E0],"parents":[2147483647,0,0,1,1,2,2],"right_children":[2,4,6,-1,-1,-1,-1],"split_conditions":[2.2082539E-1,-1.6547548E1,-1.5815678E1,-6.3233385E-3,1.1059815E-3,-1.4640832E-2,-2.7726379E-3],"split_indices":[0,3,3,0,0,0,0],"split_type":[0,0,0,0,0,0,0],"sum_hessian":[9.1E1,5.6E1,3.5E1,1.6E1,4E1,2.1E1,1.4E1],"tree_param":{"num_deleted":"0","num_feature":"5","num_nodes":"7","size_leaf_vector":"0"}},{"base_weights":[-4.0725723E-1,-8.9019454E-1,-2.1534362E-1,7.058689E-1,-1.1648976E0,1.3429555E-1,-3.1490967E-1],"categories":[],"categories_nodes":[],"categories_segments":[],"categories_sizes":[],"default_left":[1,1,1,0,0,0,0],"id":82,"left_children":[1,3,5,-1,-1,-1,-1],"loss_changes":[7.408244E0,1.0906464E1,2.131023E0,0E0,0E0,0E0,0E0],"parents":[2147483647,0,0,1,1,2,2],"right_children":[2,4,6,-1,-1,-1,-1],"split_conditions":[-7.310566E-1,5.7151973E-1,-7.0567834E-1,9.033459E-3,-1.4907945E-2,1.7186668E-3,-4.030102E-3],"split_indices":[1,2,1,0,0,0,0],"split_type":[0,0,0,0,0,0,0],"sum_hessian":[8.1E1,2.2E1,5.9E1,3E0,1.9E1,1.3E1,4.6E1],"tree_param":{"num_deleted":"0","num_feature":"5","num_nodes":"7","size_leaf_vector":"0"}},{"base_weights":[-4.2766848E-1,5.1785674E-4,-7.2106504E-1,1.39479E-1,-1.7934467E-1,-1.0625774E0,-4.5306975E-1],"categories":[],"categories_nodes":[],"categories_segments":[],"categories_sizes":[],"default_left":[1,1,1,0,0,0,0],"id":83,"left_children":[1,3,5,-1,-1,-1,-1],"loss_changes":[1.1432558E1,9.747832E-1,4.4608593E0,0E0,0E0,0E0,0E0],"parents":[2147483647,0,0,1,1,2,2],"right_children":[2,4,6,-1,-1,-1,-1],"split_conditions":[5.4243183E-1,4.8021907E-1,-7.3027396E-1,1.7850026E-3,-2.2951893E-3,-1.3598488E-2,-5.7982253E-3],"split_indices":[2,2,1,0,0,0,0],"split_type":[0,0,0,0,0,0,0],"sum_hessian":[9E1,3.7E1,5.3E1,2.1E1,1.6E1,2.2E1,3.1E1],"tree_param":{"num_deleted":"0","num_feature":"5","num_nodes":"7","size_leaf_vector":"0"}},{"base_weights":[-2.81388E-1,-1.3951515E-1,-7.194459E-1,-2.7813235E-1,1.3775519E-1,-9.983929E-1,-7.162106E-2],"categories":[],"categories_nodes":[],"categories_segments":[],"categories_sizes":[],"default_left":[1,1,1,0,0,0,0],"id":84,"left_children":[1,3,5,-1,-1,-1,-1],"loss_changes":[5.8037357E0,2.8440285E0,4.084797E0,0E0,0E0,0E0,0E0],"parents":[2147483647,0,0,1,1,2,2],"right_children":[2,4,6,-1,-1,-1,-1],"split_conditions":[6.343448E-1,5.938752E-1,-1.5082703E1,-3.559439E-3,1.7629418E-3,-1.2777077E-2,-9.1658084E-4],"split_indices":[2,2,3,0,0,0,0],"split_type":[0,0,0,0,0,0,0],"sum_hessian":[9.4E1,7.2E1,2.2E1,4.8E1,2.4E1,1.5E1,7E0],"tree_param":{"num_deleted":"0","num_feature":"5","num_nodes":"7","size_leaf_vector":"0"}},{"base_weights":[-4.5836055E-1,-8.456821E-1,-1.866259E-1,6.3841784E-1,-9.0632546E-1,-4.08571E-1,4.223129E-2],"categories":[],"categories_nodes":[],"categories_segments":[],"categories_sizes":[],"default_left":[1,1,1,0,0,0,0],"id":85,"left_children":[1,3,5,-1,-1,-1,-1],"loss_changes":[9.104059E0,3.8186436E0,2.7093222E0,0E0,0E0,0E0,0E0],"parents":[2147483647,0,0,1,1,2,2],"right_children":[2,4,6,-1,-1,-1,-1],"split_conditions":[-1.6153889E1,-8.0624485E-1,-7.012328E-1,8.170244E-3,-1.1598831E-2,-5.228746E-3,5.4046104E-4],"split_indices":[3,1,1,0,0,0,0],"split_type":[0,0,0,0,0,0,0],"sum_hessian":[8.7E1,3.5E1,5.2E1,1E0,3.4E1,2.6E1,2.6E1],"tree_param":{"num_deleted":"0","num_feature":"5","num_nodes":"7","size_leaf_vector":"0"}},{"base_weights":[-4.0597636E-1,-6.717207E-1,4.5806393E-3,-9.257855E-1,-3.221729E-1,2.887097E-1,-4.766055E-1],"categories":[],"categories_nodes":[],"categories_segments":[],"categories_sizes":[],"default_left":[1,1,1,0,0,0,0],"id":86,"left_children":[1,3,5,-1,-1,-1,-1],"loss_changes":[9.167746E0,4.230934E0,4.7860456E0,0E0,0E0,0E0,0E0],"parents":[2147483647,0,0,1,1,2,2],"right_children":[2,4,6,-1,-1,-1,-1],"split_conditions":[-6.993537E-1,6.132579E-1,-6.692817E-1,-1.1847873E-2,-4.1230544E-3,3.6948042E-3,-6.0994276E-3],"split_indices":[1,2,1,0,0,0,0],"split_type":[0,0,0,0,0,0,0],"sum_hessian":[8.3E1,5E1,3.3E1,2.8E1,2.2E1,2.1E1,1.2E1],"tree_param":{"num_deleted":"0","num_feature":"5","num_nodes":"7","size_leaf_vector":"0"}},{"base_weights":[-3.2216144E-1,-8.573317E-1,-7.527549E-2,-1.171478E0,-2.6533464E-1,-3.935868E-1,1.361208E-1],"categories":[],"categories_nodes":[],"categories_segments":[],"categories_sizes":[],"default_left":[1,1,1,0,0,0,0],"id":87,"left_children":[1,3,5,-1,-1,-1,-1],"loss_changes":[1.1694677E1,4.896431E0,4.225545E0,0E0,0E0,0E0,0E0],"parents":[2147483647,0,0,1,1,2,2],"right_children":[2,4,6,-1,-1,-1,-1],"split_conditions":[-7.2636366E-1,-1.580833E1,-1.6228148E1,-1.4992159E-2,-3.3956582E-3,-5.036984E-3,1.7420255E-3],"split_indices":[1,3,3,0,0,0,0],"split_type":[0,0,0,0,0,0,0],"sum_hessian":[8.8E1,2.7E1,6.1E1,1.7E1,1E1,2.4E1,3.7E1],"tree_param":{"num_deleted":"0","num_feature":"5","num_nodes":"7","size_leaf_vector":"0"}},{"base_weights":[-3.5565814E-1,-4.398122E-1,5.968008E-1,-7.4844676E-1,-2.1742369E-1,6.513264E-1,1.3482371E-1],"categories":[],"categories_nodes":[],"categories_segments":[],"categories_sizes":[],"default_left":[1,1,1,0,0,1,1],"id":88,"left_children":[1,3,-1,-1,-1,-1,-1],"loss_changes":[6.754897E0,4.985029E0,8.851266E-2,0E0,0E0,0E0,0E0],"parents":[2147483647,0,0,1,1,2,2],"right_children":[2,4,-1,-1,-1,-1,-1],"split_conditions":[-1.4470978E1,-1.1067593E1,7.6376447E-3,-9.578356E-3,-2.782511E-3,8.335444E-3,1.725426E-3],"split_indices":[3,4,3,0,0,2147483647,2147483647],"split_type":[0,0,0,0,0,0,0],"sum_hessian":[8E1,7.4E1,6E0,3E1,4.4E1,5E0,1E0],"tree_param":{"num_deleted":"2","num_feature":"5","num_nodes":"7","size_leaf_vector":"0"}},{"base_weights":[-4.5305416E-1,-6.005927E-1,1.4586119E-2,-7.014215E-1,3.0631882E-1,2.894362E-1,-4.7565693E-1],"categories":[],"categories_nodes":[],"categories_segments":[],"categories_sizes":[],"default_left":[1,1,1,0,0,0,0],"id":89,"left_children":[1,3,5,-1,-1,-1,-1],"loss_changes":[6.6322765E0,6.8901806E0,3.3715122E0,0E0,0E0,0E0,0E0],"parents":[2147483647,0,0,1,1,2,2],"right_children":[2,4,6,-1,-1,-1,-1],"split_conditions":[-6.805937E-1,2.752993E-1,1.8483435E-1,-8.976543E-3,3.9201593E-3,3.7041015E-3,-6.0872883E-3],"split_indices":[1,0,0,0,0,0,0],"split_type":[0,0,0,0,0,0,0],"sum_hessian":[9.5E1,7.2E1,2.3E1,6.5E1,7E0,1.5E1,8E0],"tree_param":{"num_deleted":"0","num_feature":"5","num_nodes":"7","size_leaf_vector":"0"}},{"base_weights":[-5.6358105E-1,-5.1878992E-2,-8.900328E-1,-4.3255848E-1,1.8625017E-1,-3.521232E-1,-1.2674114E0],"categories":[],"categories_nodes":[],"categories_segments":[],"categories_sizes":[],"default_left":[1,1,1,0,0,0,0],"id":90,"left_children":[1,3,5,-1,-1,-1,-1],"loss_changes":[1.3651604E1,3.0720434E0,9.703491E0,0E0,0E0,0E0,0E0],"parents":[2147483647,0,0,1,1,2,2],"right_children":[2,4,6,-1,-1,-1,-1],"split_conditions":[5.382272E-1,4.3544725E-1,2.0375796E-1,-5.5357297E-3,2.3835634E-3,-4.5063477E-3,-1.621988E-2],"split_indices":[2,2,0,0,0,0,0],"split_type":[0,0,0,0,0,0,0],"sum_hessian":[8.1E1,3.2E1,4.9E1,1.2E1,2E1,2.1E1,2.8E1],"tree_param":{"num_deleted":"0","num_feature":"5","num_nodes":"7","size_leaf_vector":"0"}},{"base_weights":[-3.0238664E-1,-8.675876E-1,-6.0531918E-2,4.9101827E-1,-1.0959294E0,-6.290983E-1,8.906683E-3],"categories":[],"categories_nodes":[],"categories_segments":[],"categories_sizes":[],"default_left":[1,1,1,0,0,0,0],"id":91,"left_children":[1,3,5,-1,-1,-1,-1],"loss_changes":[1.0473116E1,7.673332E0,2.177028E0,0E0,0E0,0E0,0E0],"parents":[2147483647,0,0,1,1,2,2],"right_children":[2,4,6,-1,-1,-1,-1],"split_conditions":[-7.2900915E-1,-7.954579E-1,-1.7822662E1,6.283877E-3,-1.4025315E-2,-8.050976E-3,1.1398456E-4],"split_indices":[1,1,3,0,0,0,0],"split_type":[0,0,0,0,0,0,0],"sum_hessian":[7.6E1,2.2E1,5.4E1,3E0,1.9E1,5E0,4.9E1],"tree_param":{"num_deleted":"0","num_feature":"5","num_nodes":"7","size_leaf_vector":"0"}},{"base_weights":[-2.941754E-1,-8.592628E-1,-1.24494046E-1,1.9857539E-1,-1.0367413E0,2.301256E-2,-3.4652105E-1],"categories":[],"categories_nodes":[],"categories_segments":[],"categories_sizes":[],"default_left":[1,1,1,0,0,0,0],"id":92,"left_children":[1,3,5,-1,-1,-1,-1],"loss_changes":[9.097967E0,4.3362274E0,2.4642582E0,0E0,0E0,0E0,0E0],"parents":[2147483647,0,0,1,1,2,2],"right_children":[2,4,6,-1,-1,-1,-1],"split_conditions":[-1.1517103E1,1.8483435E-1,2.1967784E-1,2.5412973E-3,-1.3267846E-2,2.9450655E-4,-4.434653E-3],"split_indices":[4,0,0,0,0,0,0],"split_type":[0,0,0,0,0,0,0],"sum_hessian":[9.5E1,2.1E1,7.4E1,3E0,1.8E1,4.5E1,2.9E1],"tree_param":{"num_deleted":"0","num_feature":"5","num_nodes":"7","size_leaf_vector":"0"}},{"base_weights":[-3.1615153E-1,-2.8639572E-2,-6.6856223E-1,-5.068408E-1,2.1141571E-1,-2.0857441E0,-5.19468E-1],"categories":[],"categories_nodes":[],"categories_segments":[],"categories_sizes":[],"default_left":[1,1,1,0,0,0,0],"id":93,"left_children":[1,3,5,-1,-1,-1,-1],"loss_changes":[7.8839917E0,5.158122E0,6.311799E0,0E0,0E0,0E0,0E0],"parents":[2147483647,0,0,1,1,2,2],"right_children":[2,4,6,-1,-1,-1,-1],"split_conditions":[-1.0703854E1,-1.715487E1,-1.7125721E1,-6.486369E-3,2.705623E-3,-2.6692612E-2,-6.647967E-3],"split_indices":[4,3,3,0,0,0,0],"split_type":[0,0,0,0,0,0,0],"sum_hessian":[7.7E1,4.3E1,3.4E1,1.4E1,2.9E1,2E0,3.2E1],"tree_param":{"num_deleted":"0","num_feature":"5","num_nodes":"7","size_leaf_vector":"0"}},{"base_weights":[-4.6721244E-1,-1.2035847E0,-3.2158512E-1,-1.4743998E0,-4.212374E-1,4.1847906E-1,-4.3049365E-1],"categories":[],"categories_nodes":[],"categories_segments":[],"categories_sizes":[],"default_left":[1,1,1,0,0,0,0],"id":94,"left_children":[1,3,5,-1,-1,-1,-1],"loss_changes":[8.942471E0,2.345129E0,6.144503E0,0E0,0E0,0E0,0E0],"parents":[2147483647,0,0,1,1,2,2],"right_children":[2,4,6,-1,-1,-1,-1],"split_conditions":[-1.7276014E1,-6.952232E-1,-1.6758106E1,-1.8868845E-2,-5.3908466E-3,5.3555463E-3,-5.509305E-3],"split_indices":[3,1,3,0,0,0,0],"split_type":[0,0,0,0,0,0,0],"sum_hessian":[8.6E1,1.3E1,7.3E1,9E0,4E0,9E0,6.4E1],"tree_param":{"num_deleted":"0","num_feature":"5","num_nodes":"7","size_leaf_vector":"0"}},{"base_weights":[-3.4223375E-1,-4.1518012E-1,3.27994E-1,-2.6939428E-1,-9.632631E-1,5.8191806E-1,-1.3489062E-1],"categories":[],"categories_nodes":[],"categories_segments":[],"categories_sizes":[],"default_left":[1,1,1,0,0,0,0],"id":95,"left_children":[1,3,5,-1,-1,-1,-1],"loss_changes":[4.3407745E0,5.9729166E0,1.1363331E0,0E0,0E0,0E0,0E0],"parents":[2147483647,0,0,1,1,2,2],"right_children":[2,4,6,-1,-1,-1,-1],"split_conditions":[-1.4470085E1,-9.967567E0,-1.4113699E1,-3.4476123E-3,-1.2327499E-2,7.4471803E-3,-1.7262822E-3],"split_indices":[3,4,3,0,0,0,0],"split_type":[0,0,0,0,0,0,0],"sum_hessian":[8.5E1,7.7E1,8E0,6.2E1,1.5E1,5E0,3E0],"tree_param":{"num_deleted":"0","num_feature":"5","num_nodes":"7","size_leaf_vector":"0"}},{"base_weights":[-2.8848952E-1,-8.699069E-1,-1.2863672E-1,-5.694456E-1,-1.9820907E0,1.8701094E-1,-3.925609E-1],"categories":[],"categories_nodes":[],"categories_segments":[],"categories_sizes":[],"default_left":[1,1,1,0,0,0,0],"id":96,"left_children":[1,3,5,-1,-1,-1,-1],"loss_changes":[6.858688E0,4.2179995E0,5.0718365E0,0E0,0E0,0E0,0E0],"parents":[2147483647,0,0,1,1,2,2],"right_children":[2,4,6,-1,-1,-1,-1],"split_conditions":[-1.1960864E1,-1.2128301E1,5.7431E-1,-7.2875624E-3,-2.5366092E-2,2.3932995E-3,-5.023855E-3],"split_indices":[4,4,2,0,0,0,0],"split_type":[0,0,0,0,0,0,0],"sum_hessian":[7.4E1,1.5E1,5.9E1,1.3E1,2E0,2.7E1,3.2E1],"tree_param":{"num_deleted":"0","num_feature":"5","num_nodes":"7","size_leaf_vector":"0"}},{"base_weights":[-2.9830027E-1,-9.789174E-2,-7.095631E-1,-1.6971916E-1,4.8045102E-1,-1.3727655E0,-4.3614563E-1],"categories":[],"categories_nodes":[],"categories_segments":[],"categories_sizes":[],"default_left":[1,1,1,0,0,0,0],"id":97,"left_children":[1,3,5,-1,-1,-1,-1],"loss_changes":[7.2659707E0,2.6155343E0,4.659878E0,0E0,0E0,0E0,0E0],"parents":[2147483647,0,0,1,1,2,2],"right_children":[2,4,6,-1,-1,-1,-1],"split_conditions":[2.1967784E-1,2.1029338E-1,2.3247519E-1,-2.1720054E-3,6.1486415E-3,-1.7568165E-2,-5.581637E-3],"split_indices":[0,0,0,0,0,0,0],"split_type":[0,0,0,0,0,0,0],"sum_hessian":[8.8E1,6E1,2.8E1,5.4E1,6E0,7E0,2.1E1],"tree_param":{"num_deleted":"0","num_feature":"5","num_nodes":"7","size_leaf_vector":"0"}},{"base_weights":[-2.1838349E-1,-5.956599E-1,-9.130149E-2,-8.724983E-3,-7.582126E-1,2.9776397E-1,-3.4252316E-1],"categories":[],"categories_nodes":[],"categories_segments":[],"categories_sizes":[],"default_left":[1,1,1,0,0,0,0],"id":98,"left_children":[1,3,5,-1,-1,-1,-1],"loss_changes":[4.3565593E0,2.187766E0,6.9439087E0,0E0,0E0,0E0,0E0],"parents":[2147483647,0,0,1,1,2,2],"right_children":[2,4,6,-1,-1,-1,-1],"split_conditions":[-1.1594924E1,1.8545306E-1,-1.071962E1,-1.11659225E-4,-9.703335E-3,3.8106774E-3,-4.3834895E-3],"split_indices":[4,0,4,0,0,0,0],"split_type":[0,0,0,0,0,0,0],"sum_hessian":[9.1E1,2.2E1,6.9E1,5E0,1.7E1,2.7E1,4.2E1],"tree_param":{"num_deleted":"0","num_feature":"5","num_nodes":"7","size_leaf_vector":"0"}},{"base_weights":[-4.619583E-1,-2.2539735E-1,-9.530167E-1,-7.5859016E-1,1.4184803E-2,-1.1342684E0,-1.2959084E-1],"categories":[],"categories_nodes":[],"categories_segments":[],"categories_sizes":[],"default_left":[1,1,1,0,0,0,0],"id":99,"left_children":[1,3,5,-1,-1,-1,-1],"loss_changes":[9.543074E0,7.419882E0,3.8826885E0,0E0,0E0,0E0,0E0],"parents":[2147483647,0,0,1,1,2,2],"right_children":[2,4,6,-1,-1,-1,-1],"split_conditions":[2.2082539E-1,-1.1610288E1,2.853949E-1,-9.708167E-3,1.8153206E-4,-1.4515963E-2,-1.6584574E-3],"split_indices":[0,4,0,0,0,0,0],"split_type":[0,0,0,0,0,0,0],"sum_hessian":[8.3E1,5.7E1,2.6E1,1.7E1,4E1,2.1E1,5E0],"tree_param":{"num_deleted":"0","num_feature":"5","num_nodes":"7","size_leaf_vector":"0"}},{"base_weights":[-3.1804678E-1,8.805633E-2,-4.424425E-1,-2.8018424E-1,5.211394E-1,-6.5061206E-1,-9.7158134E-2],"categories":[],"categories_nodes":[],"categories_segments":[],"categories_sizes":[],"default_left":[1,1,1,0,0,0,0],"id":100,"left_children":[1,3,5,-1,-1,-1,-1],"loss_changes":[4.383465E0,3.495069E0,4.6807156E0,0E0,0E0,0E0,0E0],"parents":[2147483647,0,0,1,1,2,2],"right_children":[2,4,6,-1,-1,-1,-1],"split_conditions":[5.0881934E-1,-1.1436037E1,6.1197484E-1,-3.5856983E-3,6.6693565E-3,-8.326301E-3,-1.2433953E-3],"split_indices":[2,4,2,0,0,0,0],"split_type":[0,0,0,0,0,0,0],"sum_hessian":[8.5E1,2E1,6.5E1,1.1E1,9E0,4E1,2.5E1],"tree_param":{"num_deleted":"0","num_feature":"5","num_nodes":"7","size_leaf_vector":"0"}},{"base_weights":[-4.300848E-1,-4.8822734E-1,7.821448E-1,-3.8462125E-2,-6.4817095E-1],"categories":[],"categories_nodes":[],"categories_segments":[],"categories_sizes":[],"default_left":[1,1,0,0,0],"id":101,"left_children":[1,3,-1,-1,-1],"loss_changes":[5.949952E0,5.4422874E0,0E0,0E0,0E0],"parents":[2147483647,0,0,1,1],"right_children":[2,4,-1,-1,-1],"split_conditions":[-9.035343E0,1.850411E-1,1.0009611E-2,-4.922246E-4,-8.295061E-3],"split_indices":[4,0,0,0,0],"split_type":[0,0,0,0,0],"sum_hessian":[7.8E1,7.5E1,3E0,2E1,5.5E1],"tree_param":{"num_deleted":"0","num_feature":"5","num_nodes":"5","size_leaf_vector":"0"}},{"base_weights":[-3.9687872E-1,-2.931407E-1,-2.2427464E0,-1.0562615E0,-2.1147425E-1],"categories":[],"categories_nodes":[],"categories_segments":[],"categories_sizes":[],"default_left":[1,1,0,0,0],"id":102,"left_children":[1,3,-1,-1,-1],"loss_changes":[1.4278515E1,4.4507313E0,0E0,0E0,0E0],"parents":[2147483647,0,0,1,1],"right_children":[2,4,-1,-1,-1],"split_conditions":[6.6619647E-1,-1.8080563E1,-2.870187E-2,-1.3517659E-2,-2.7063724E-3],"split_indices":[2,3,0,0,0],"split_type":[0,0,0,0,0],"sum_hessian":[7.7E1,7.4E1,3E0,6E0,6.8E1],"tree_param":{"num_deleted":"0","num_feature":"5","num_nodes":"5","size_leaf_vector":"0"}},{"base_weights":[-1.24421716E-1,2.204803E-1,-3.3927813E-1,7.0109516E-3,3.5229412E-1,-2.407508E-1,-1.0873716E0],"categories":[],"categories_nodes":[],"categories_segments":[],"categories_sizes":[],"default_left":[1,1,1,0,0,0,0],"id":103,"left_children":[1,3,5,-1,-1,-1,-1],"loss_changes":[6.5218873E0,9.542291E-1,3.7184272E0,0E0,0E0,0E0,0E0],"parents":[2147483647,0,0,1,1,2,2],"right_children":[2,4,6,-1,-1,-1,-1],"split_conditions":[5.5025613E-1,-1.1031052E1,-9.142872E0,8.972367E-5,4.508535E-3,-3.0810433E-3,-1.3915795E-2],"split_indices":[2,4,4,0,0,0,0],"split_type":[0,0,0,0,0,0,0],"sum_hessian":[8.6E1,3.3E1,5.3E1,1.3E1,2E1,4.8E1,5E0],"tree_param":{"num_deleted":"0","num_feature":"5","num_nodes":"7","size_leaf_vector":"0"}},{"base_weights":[-3.378721E-1,-6.2454826E-1,-2.0353667E-1,-1.6900782E-1,-1.6283884E0,7.243488E-1,-2.6731858E-1],"categories":[],"categories_nodes":[],"categories_segments":[],"categories_sizes":[],"default_left":[1,1,1,0,0,0,0],"id":104,"left_children":[1,3,5,-1,-1,-1,-1],"loss_changes":[3.0692759E0,1.1614323E1,3.626206E0,0E0,0E0,0E0,0E0],"parents":[2147483647,0,0,1,1,2,2],"right_children":[2,4,6,-1,-1,-1,-1],"split_conditions":[-1.1621233E1,-1.2072065E1,-1.7389595E1,-2.162902E-3,-2.0839537E-2,9.269958E-3,-3.4210482E-3],"split_indices":[4,4,3,0,0,0,0],"split_type":[0,0,0,0,0,0,0],"sum_hessian":[8.2E1,2.5E1,5.7E1,1.8E1,7E0,3E0,5.4E1],"tree_param":{"num_deleted":"0","num_feature":"5","num_nodes":"7","size_leaf_vector":"0"}},{"base_weights":[-2.673616E-1,-1.4560929E-1,-6.9567233E-1,-4.5045337E-1,2.1681511E-1,-1.0062283E0,-1.08274E-1],"categories":[],"categories_nodes":[],"categories_segments":[],"categories_sizes":[],"default_left":[1,1,1,0,0,0,0],"id":105,"left_children":[1,3,5,-1,-1,-1,-1],"loss_changes":[3.9662337E0,6.947607E0,2.9921932E0,0E0,0E0,0E0,0E0],"parents":[2147483647,0,0,1,1,2,2],"right_children":[2,4,6,-1,-1,-1,-1],"split_conditions":[-9.967567E0,-1.1088277E1,-7.003553E-1,-5.764742E-3,2.7747226E-3,-1.2877353E-2,-1.3856521E-3],"split_indices":[4,4,1,0,0,0,0],"split_type":[0,0,0,0,0,0,0],"sum_hessian":[7.7E1,6.1E1,1.6E1,3.3E1,2.8E1,1E1,6E0],"tree_param":{"num_deleted":"0","num_feature":"5","num_nodes":"7","size_leaf_vector":"0"}},{"base_weights":[-3.5305744E-1,-1.3824406E-1,-6.4830506E-1,1.9523358E-1,-5.9820056E-1,-9.168081E-1,3.0536816E-1],"categories":[],"categories_nodes":[],"categories_segments":[],"categories_sizes":[],"default_left":[1,1,1,0,0,0,0],"id":106,"left_children":[1,3,5,-1,-1,-1,-1],"loss_changes":[4.920803E0,7.325894E0,8.730084E0,0E0,0E0,0E0,0E0],"parents":[2147483647,0,0,1,1,2,2],"right_children":[2,4,6,-1,-1,-1,-1],"split_conditions":[-1.0580076E1,2.0861608E-1,2.5199485E-1,2.49853E-3,-7.655558E-3,-1.1732984E-2,3.907993E-3],"split_indices":[4,0,0,0,0,0,0],"split_type":[0,0,0,0,0,0,0],"sum_hessian":[7.8E1,4.6E1,3.2E1,2.7E1,1.9E1,2.5E1,7E0],"tree_param":{"num_deleted":"0","num_feature":"5","num_nodes":"7","size_leaf_vector":"0"}},{"base_weights":[-2.2419834E-1,-3.0857715E-1,4.395005E-1,-2.4766925E-1,-1.7081131E0,3.0002183E-1,6.649434E-1],"categories":[],"categories_nodes":[],"categories_segments":[],"categories_sizes":[],"default_left":[1,1,1,0,0,1,1],"id":107,"left_children":[1,3,-1,-1,-1,-1,-1],"loss_changes":[4.8957996E0,6.055405E0,1.149472E-1,0E0,0E0,0E0,0E0],"parents":[2147483647,0,0,1,1,2,2],"right_children":[2,4,-1,-1,-1,-1,-1],"split_conditions":[-9.504581E0,2.7957633E-1,5.6245713E-3,-3.169583E-3,-2.1859823E-2,3.8395727E-3,8.5097095E-3],"split_indices":[4,0,0,0,0,2147483647,2147483647],"split_type":[0,0,0,0,0,0,0],"sum_hessian":[8.4E1,7.5E1,9E0,7.3E1,2E0,7E0,2E0],"tree_param":{"num_deleted":"2","num_feature":"5","num_nodes":"7","size_leaf_vector":"0"}},{"base_weights":[-3.888063E-1,-7.8665894E-1,-5.998679E-2,-4.815822E-1,-1.2523097E0,-1.697628E-1,5.6500167E-1],"categories":[],"categories_nodes":[],"categories_segments":[],"categories_sizes":[],"default_left":[1,1,1,0,0,0,0],"id":108,"left_children":[1,3,5,-1,-1,-1,-1],"loss_changes":[1.2119229E1,5.3633957E0,3.663571E0,0E0,0E0,0E0,0E0],"parents":[2147483647,0,0,1,1,2,2],"right_children":[2,4,6,-1,-1,-1,-1],"split_conditions":[-1.6153889E1,-1.6799911E1,-9.48009E0,-6.1631175E-3,-1.6026614E-2,-2.172564E-3,7.23069E-3],"split_indices":[3,3,4,0,0,0,0],"split_type":[0,0,0,0,0,0,0],"sum_hessian":[9.2E1,4.1E1,5.1E1,2.6E1,1.5E1,4.4E1,7E0],"tree_param":{"num_deleted":"0","num_feature":"5","num_nodes":"7","size_leaf_vector":"0"}},{"base_weights":[-3.5613653E-1,-2.4389567E-2,-6.119321E-1,3.795076E-1,-2.8030643E-1,-1.8945234E0,-4.7187608E-1],"categories":[],"categories_nodes":[],"categories_segments":[],"categories_sizes":[],"default_left":[1,1,1,0,0,0,0],"id":109,"left_children":[1,3,5,-1,-1,-1,-1],"loss_changes":[6.60411E0,3.7241213E0,7.009945E0,0E0,0E0,0E0,0E0],"parents":[2147483647,0,0,1,1,2,2],"right_children":[2,4,6,-1,-1,-1,-1],"split_conditions":[5.7508075E-1,1.8483435E-1,5.8517635E-1,4.8568035E-3,-3.587262E-3,-2.4245437E-2,-6.0389023E-3],"split_indices":[2,0,2,0,0,0,0],"split_type":[0,0,0,0,0,0,0],"sum_hessian":[7.7E1,3.4E1,4.3E1,1.3E1,2.1E1,3E0,4E1],"tree_param":{"num_deleted":"0","num_feature":"5","num_nodes":"7","size_leaf_vector":"0"}},{"base_weights":[-2.3519073E-1,-4.811407E-1,-4.048997E-2,7.395417E-1,-5.627024E-1,-4.7207123E-1,8.378301E-2],"categories":[],"categories_nodes":[],"categories_segments":[],"categories_sizes":[],"default_left":[1,1,1,0,0,0,0],"id":110,"left_children":[1,3,5,-1,-1,-1,-1],"loss_changes":[4.433977E0,4.4981403E0,2.8821478E0,0E0,0E0,0E0,0E0],"parents":[2147483647,0,0,1,1,2,2],"right_children":[2,4,6,-1,-1,-1,-1],"split_conditions":[-7.1042615E-1,-8.0683875E-1,-1.731588E1,9.4643915E-3,-7.2012655E-3,-6.0413997E-3,1.0722252E-3],"split_indices":[1,1,3,0,0,0,0],"split_type":[0,0,0,0,0,0,0],"sum_hessian":[9.2E1,4E1,5.2E1,2E0,3.8E1,1.1E1,4.1E1],"tree_param":{"num_deleted":"0","num_feature":"5","num_nodes":"7","size_leaf_vector":"0"}},{"base_weights":[-2.5590453E-1,-3.1985613E-3,-4.6152103E-1,-6.7903584E-1,1.0250097E-1,-1.3109598E0,-3.4078473E-1],"categories":[],"categories_nodes":[],"categories_segments":[],"categories_sizes":[],"default_left":[1,1,1,0,0,0,0],"id":111,"left_children":[1,3,5,-1,-1,-1,-1],"loss_changes":[4.0514436E0,2.6412864E0,3.9632435E0,0E0,0E0,0E0,0E0],"parents":[2147483647,0,0,1,1,2,2],"right_children":[2,4,6,-1,-1,-1,-1],"split_conditions":[2.0375796E-1,-1.784917E1,2.0643964E-1,-8.690059E-3,1.3117709E-3,-1.6777197E-2,-4.3612416E-3],"split_indices":[0,3,0,0,0,0,0],"split_type":[0,0,0,0,0,0,0],"sum_hessian":[7.7E1,3.5E1,4.2E1,4E0,3.1E1,4E0,3.8E1],"tree_param":{"num_deleted":"0","num_feature":"5","num_nodes":"7","size_leaf_vector":"0"}}]},"name":"gbtree"},"learner_model_param":{"base_score":"5E-1","num_class":"0","num_feature":"5","num_target":"1"},"objective":{"name":"reg:squarederror","reg_loss_param":{"scale_pos_weight":"1"}}},"version":[1,6,1]}