{"learner":{"attributes":{"best_iteration":"22","best_ntree_limit":"23","best_score":"0.775722054354024","scikit_learn":"{\"n_estimators\": 142, \"objective\": \"reg:squarederror\", \"max_depth\": 4, \"max_leaves\": null, \"max_bin\": null, \"grow_policy\": null, \"learning_rate\": 0.26065264079648764, \"verbosity\": null, \"booster\": null, \"tree_method\": null, \"gamma\": 0.29839117131648096, \"min_child_weight\": null, \"max_delta_step\": null, \"subsample\": 0.9647123312140895, \"sampling_method\": null, \"colsample_bytree\": 0.81113852266507, \"colsample_bylevel\": null, \"colsample_bynode\": null, \"reg_alpha\": null, \"reg_lambda\": null, \"scale_pos_weight\": null, \"base_score\": null, \"missing\": NaN, \"num_parallel_tree\": null, \"random_state\": null, \"n_jobs\": null, \"monotone_constraints\": null, \"interaction_constraints\": null, \"importance_type\": null, \"gpu_id\": null, \"validate_parameters\": null, \"predictor\": null, \"enable_categorical\": false, \"max_cat_to_onehot\": null, \"eval_metric\": [\"rmse\"], \"early_stopping_rounds\": null, \"callbacks\": null, \"evals_result_\": {\"validation_0\": {\"rmse\": [4.4909698031338925, 3.428510891913968, 2.630667783582539, 2.032141212849529, 1.5927657700063758, 1.2580447326438629, 1.0000389651153194, 0.8121688549703342, 0.6817006262398905, 0.5926202447706637, 0.5124648759674028, 0.45118526527184866, 0.4165884156483778, 0.3899432537564649, 0.3518315575302801, 0.3239606654540498, 0.30865268269228624, 0.29596891709068357, 0.29082496063333163, 0.2838727213271075, 0.2723094333631664, 0.264324207775018, 0.2641271943308885, 0.2568133747801494, 0.25253738880505155, 0.25251666472516154, 0.25250899480887196, 0.25252772561870523, 0.2525003449386598, 0.2473091592986024, 0.24257588092005825, 0.23945624280857603, 0.2394490464305094, 0.23576273491168245, 0.23165690830052013, 0.23164972003451925, 0.23164921085669835, 0.231652296071036, 0.23164821969650956, 0.23164654853483269, 0.23164656558773866, 0.23164656292113808, 0.23164721163450952]}, \"validation_1\": {\"rmse\": [4.252483798739018, 3.287746542996415, 2.5923999346190167, 2.0125346173041945, 1.6105911503396046, 1.3397958579539309, 1.1345397733100229, 0.9852723335956953, 0.9083111669688102, 0.8454952845890344, 0.819166345884224, 0.8075040052881879, 0.8108015691312868, 0.8060859012604814, 0.8014365504656985, 0.7942900960372408, 0.7922398269825223, 0.7833090214495425, 0.781801064915823, 0.7775730233131517, 0.7787932867884315, 0.7757975036147835, 0.775722054354024, 0.779020667494938, 0.7805382152855829, 0.7805338467520592, 0.7805324210307478, 0.7805361459052885, 0.7805310035211919, 0.77937647523975, 0.7814887477902359, 0.7799075092552636, 0.779904886653962, 0.7773472977468775, 0.7774749442978174, 0.77747733992985, 0.7774776848306886, 0.7774761863710772, 0.7774784382035504, 0.7774819481263879, 0.7774824467179258, 0.7774822656224243, 0.7774847172006479]}}, \"_estimator_type\": \"regressor\"}"},"feature_names":["Species_ID","D_cm","H_m","G_m2_ha","A_year","F_Soil_ID","AEDR_mean","Distance_km","Azimuth"],"feature_types":["int","float","float","float","int","int","float","float","int"],"gradient_booster":{"model":{"gbtree_model_param":{"num_parallel_tree":"1","num_trees":"43","size_leaf_vector":"0"},"tree_info":[0,0,0,0,0,0,0,0,0,0,0,0,0,0,0,0,0,0,0,0,0,0,0,0,0,0,0,0,0,0,0,0,0,0,0,0,0,0,0,0,0,0,0],"trees":[{"base_weights":[5.547776E0,4.018344E0,6.959309E0,5.67119E0,3.258969E0,6.1439996E0,7.8657284E0,2.3216732E0,3.6211138E0],"categories":[],"categories_nodes":[],"categories_segments":[],"categories_sizes":[],"default_left":[1,1,1,0,1,0,0,0,0],"id":0,"left_children":[1,3,5,-1,7,-1,-1,-1,-1],"loss_changes":[2.8075E2,7.063196E1,5.6208496E0,0E0,8.904236E0,0E0,0E0,0E0,0E0],"parents":[2147483647,0,0,1,1,2,2,4,4],"right_children":[2,4,6,-1,8,-1,-1,-1,-1],"split_conditions":[8.167025E-1,1.37E2,2.8480687E0,1.4782106E0,1.809035E-1,1.6014496E0,2.0502229E0,6.051502E-1,9.4385284E-1],"split_indices":[6,8,6,0,6,0,0,0,0],"split_type":[0,0,0,0,0,0,0,0,0],"sum_hessian":[1.42E2,7E1,7.2E1,2E1,5E1,4.2E1,3E1,1.6E1,3.4E1],"tree_param":{"num_deleted":"0","num_feature":"9","num_nodes":"9","size_leaf_vector":"0"}},{"base_weights":[4.143215E0,2.9611757E0,5.1281667E0,4.2158027E0,2.364288E0,5.751752E0,4.4050694E0,1.6047226E0,2.6075125E0,4.2037994E-1,1.663489E0,2.7304685E0,1.3482752E0],"categories":[],"categories_nodes":[],"categories_segments":[],"categories_sizes":[],"default_left":[1,1,1,0,1,0,0,1,1,1,1,0,0],"id":1,"left_children":[1,3,5,-1,7,-1,-1,-1,11,-1,-1,-1,-1],"loss_changes":[1.4780981E2,3.945813E1,8.481689E0,0E0,4.4986877E0,0E0,0E0,2.750969E-1,1.5828094E0,0E0,0E0,0E0,0E0],"parents":[2147483647,0,0,1,1,2,2,4,4,7,7,8,8],"right_children":[2,4,6,-1,8,-1,-1,-1,12,-1,-1,-1,-1],"split_conditions":[8.04614E-1,1.37E2,6.7093725E0,1.09886E0,1.730805E-1,1.4992093E0,1.1481929E0,4.1827518E-1,2.8207806E1,1.0957313E-1,4.3359277E-1,7.117038E-1,3.514315E-1],"split_indices":[6,8,7,0,6,0,0,2,7,2147483647,2147483647,0,0],"split_type":[0,0,0,0,0,0,0,0,0,0,0,0,0],"sum_hessian":[1.39E2,6.5E1,7.4E1,1.9E1,4.6E1,3.6E1,3.8E1,1.3E1,3.3E1,1E0,1.2E1,2.9E1,4E0],"tree_param":{"num_deleted":"2","num_feature":"9","num_nodes":"13","size_leaf_vector":"0"}},{"base_weights":[3.0788403E0,1.9122332E0,3.6300724E0,1.4823014E0,2.7592633E0,3.2399533E0,4.665432E0,1.5538119E0,5.575197E-1,3.1721675E0,1.2990217E0,5.1516595E0,2.748642E0,1.6063249E0,5.28248E-1,7.245393E-1,2.9652357E0],"categories":[],"categories_nodes":[],"categories_segments":[],"categories_sizes":[],"default_left":[1,1,1,1,1,0,1,1,0,0,0,0,1,0,0,0,0],"id":2,"left_children":[1,3,5,7,9,-1,11,13,-1,-1,-1,-1,15,-1,-1,-1,-1],"loss_changes":[8.50177E1,1.3389877E1,2.3659912E1,1.3821869E0,4.9233856E0,0E0,8.207886E0,8.209839E-1,0E0,0E0,0E0,0E0,9.204292E-1,0E0,0E0,0E0,0E0],"parents":[2147483647,0,0,1,1,2,2,3,3,4,4,6,6,7,7,12,12],"right_children":[2,4,6,8,10,-1,12,14,-1,-1,-1,-1,16,-1,-1,-1,-1],"split_conditions":[6.4467597E-1,4.065057E1,3.6519156E0,3.9792824E1,2.1551182E1,8.4450233E-1,7.0950384E0,3.9171684E1,1.4531897E-1,8.2683384E-1,3.3859342E-1,1.3427936E0,1.7416271E1,4.1869283E-1,1.3768923E-1,1.8885307E-1,7.7289647E-1],"split_indices":[6,3,6,7,7,0,7,3,0,0,0,0,3,0,0,0,0],"split_type":[0,0,0,0,0,0,0,0,0,0,0,0,0,0,0,0,0],"sum_hessian":[1.42E2,4.7E1,9.5E1,3.3E1,1.4E1,7.2E1,2.3E1,3E1,3E0,1E1,4E0,1.7E1,6E0,2.8E1,2E0,1E0,5E0],"tree_param":{"num_deleted":"0","num_feature":"9","num_nodes":"17","size_leaf_vector":"0"}},{"base_weights":[2.3350925E0,2.7600274E0,1.5235076E0,2.420857E0,3.3899775E0,9.8538005E-1,1.9454169E0,2.7008255E0,1.5864435E0,1.7117988E0,3.517775E0,1.0891151E0,-1.0380415E-1,1.0729431E0,2.1436026E0,1.9721682E0,1.2292339E0,1.1936952E0,3.2008094E-1,1.1477094E0,3.1217295E-1,2.5988383E0,1.2478617E0],"categories":[],"categories_nodes":[],"categories_segments":[],"categories_sizes":[],"default_left":[1,1,1,1,1,1,1,0,1,1,1,1,0,1,1,1,1,0,0,1,1,0,0],"id":3,"left_children":[1,3,5,7,-1,11,13,-1,-1,-1,-1,17,-1,-1,21,-1,-1,-1,-1,-1,-1,-1,-1],"loss_changes":[4.3732117E1,1.1022827E1,9.4350815E0,1.0199097E1,1.9781494E-1,2.8247337E0,2.3686523E0,0E0,5.586624E-2,0E0,0E0,1.3872852E0,0E0,3.987503E-2,5.320244E0,0E0,0E0,0E0,0E0,0E0,0E0,0E0,0E0],"parents":[2147483647,0,0,1,1,2,2,3,3,4,4,5,5,6,6,8,8,11,11,13,13,14,14],"right_children":[2,4,6,8,-1,12,14,-1,-1,-1,-1,18,-1,-1,22,-1,-1,-1,-1,-1,-1,-1,-1],"split_conditions":[1.4059164E1,2.615E2,3.75E1,1.05E2,8.8360655E-1,3.639347E1,3.1963451E1,7.039773E-1,4.1351068E-1,4.4618484E-1,9.169173E-1,3.364373E1,-2.7056824E-2,2.7966544E-1,4.854279E1,5.1405084E-1,3.2040304E-1,3.111398E-1,8.342994E-2,2.9915348E-1,8.13687E-2,6.7739403E-1,3.2525843E-1],"split_indices":[7,8,4,8,2,3,3,0,5,2147483647,2147483647,7,0,2,3,2147483647,2147483647,0,0,2147483647,2147483647,0,0],"split_type":[0,0,0,0,0,0,0,0,0,0,0,0,0,0,0,0,0,0,0,0,0,0,0],"sum_hessian":[1.38E2,8.9E1,4.9E1,6.1E1,2.8E1,2.3E1,2.6E1,4.4E1,1.7E1,3E0,2.5E1,2.1E1,2E0,6E0,2E1,6E0,1.1E1,1.8E1,3E0,5E0,1E0,1.2E1,8E0],"tree_param":{"num_deleted":"6","num_feature":"9","num_nodes":"23","size_leaf_vector":"0"}},{"base_weights":[1.7588669E0,2.6015806E0,1.4825264E0,1.0416752E0,1.7738881E0,1.190172E0,4.7448796E-1,1.9417254E0,1.1595082E0,1.4404557E0,8.404328E-1,3.120408E-1,1.0494797E0,2.1080675E0,1.2670267E0,3.7609524E-1,1.3113655E0],"categories":[],"categories_nodes":[],"categories_segments":[],"categories_sizes":[],"default_left":[1,0,1,1,1,1,1,1,1,0,0,0,0,0,0,0,0],"id":4,"left_children":[1,-1,3,5,7,9,11,13,15,-1,-1,-1,-1,-1,-1,-1,-1],"loss_changes":[2.8512848E1,0E0,1.1896042E1,3.225422E0,4.244858E0,1.8530846E0,6.999829E-1,2.716095E0,1.4102726E0,0E0,0E0,0E0,0E0,0E0,0E0,0E0,0E0],"parents":[2147483647,0,0,2,2,3,3,4,4,5,5,6,6,7,7,8,8],"right_children":[2,-1,4,6,8,10,12,14,16,-1,-1,-1,-1,-1,-1,-1,-1],"split_conditions":[6.213463E0,6.781088E-1,3.55E1,1.6774933E1,2.5E0,1.3874462E1,2.1341505E1,2.626572E1,1.8868334E1,3.7545857E-1,2.1906103E-1,8.1334256E-2,2.7354965E-1,5.4947335E-1,3.3025384E-1,9.803021E-2,3.4181085E-1],"split_indices":[7,0,4,1,5,7,2,1,1,0,0,0,0,0,0,0,0],"split_type":[0,0,0,0,0,0,0,0,0,0,0,0,0,0,0,0,0],"sum_hessian":[1.38E2,3.2E1,1.06E2,4.4E1,6.2E1,3.4E1,1E1,4.7E1,1.5E1,1.8E1,1.6E1,9E0,1E0,3.6E1,1.1E1,3E0,1.2E1],"tree_param":{"num_deleted":"0","num_feature":"9","num_nodes":"17","size_leaf_vector":"0"}},{"base_weights":[1.308374E0,1.0892184E0,2.444297E0,5.8894044E-1,1.2350754E0,2.714471E0,1.477571E0,6.3755524E-1,2.280784E-1,9.3089294E-1,1.3973393E0,3.193748E-1,1.6173745E0,6.691405E-1,3.044474E-1,-3.6328237E-3,3.8376346E-1,1.3881612E0,5.185337E-1,1.5194324E0,9.0508753E-1],"categories":[],"categories_nodes":[],"categories_segments":[],"categories_sizes":[],"default_left":[1,1,1,1,1,0,1,1,1,1,1,0,0,1,1,1,1,0,0,0,0],"id":5,"left_children":[1,3,5,7,9,-1,11,-1,-1,17,19,-1,-1,-1,-1,-1,-1,-1,-1,-1,-1],"loss_changes":[3.2438705E1,8.028885E0,1.7352295E0,3.6334133E-1,3.240158E0,0E0,6.168909E-1,5.9314728E-2,1.8176404E-1,5.8797455E0,2.1106033E0,0E0,0E0,0E0,0E0,0E0,0E0,0E0,0E0,0E0,0E0],"parents":[2147483647,0,0,1,1,2,2,3,3,4,4,6,6,7,7,8,8,9,9,10,10],"right_children":[2,4,6,8,10,-1,12,-1,-1,18,20,-1,-1,-1,-1,-1,-1,-1,-1,-1,-1],"split_conditions":[4.2173615E0,3.862955E-1,7.0950384E0,3.9964348E1,3.55E1,7.07534E-1,1.7416271E1,1.6618045E-1,5.9449233E-2,9.308308E0,5E-1,8.324588E-2,4.2157292E-1,1.7441323E-1,7.935502E-2,-9.4690506E-4,1.00028954E-1,3.6182785E-1,1.3515717E-1,3.9604405E-1,2.3591344E-1],"split_indices":[6,6,7,7,4,0,3,1,3,1,0,0,0,2147483647,2147483647,2147483647,2147483647,0,0,0,0],"split_type":[0,0,0,0,0,0,0,0,0,0,0,0,0,0,0,0,0,0,0,0,0],"sum_hessian":[1.4E2,1.19E2,2.1E1,2.8E1,9.1E1,1.5E1,6E0,2.4E1,4E0,3.4E1,5.7E1,1E0,5E0,2.1E1,3E0,2E0,2E0,1.5E1,1.9E1,4.4E1,1.3E1],"tree_param":{"num_deleted":"4","num_feature":"9","num_nodes":"21","size_leaf_vector":"0"}},{"base_weights":[9.895481E-1,7.174072E-1,1.5723156E0,9.08113E-1,4.3242988E-1,1.2317399E0,1.9364482E0,5.561965E-1,1.0613683E0,1.24348015E-1,5.5151767E-1,1.2995214E0,2.789081E-1,9.067968E-1,1.8690564E-1,8.7567806E-2,1.0840923E0,5.6282604E-1,-6.347799E-2,8.191679E-1,3.2757488E-1,7.9704195E-1,1.4595399E0,3.7297702E-1,4.5385122E-2],"categories":[],"categories_nodes":[],"categories_segments":[],"categories_sizes":[],"default_left":[1,1,1,1,1,1,0,1,1,1,1,1,1,0,0,0,0,0,0,0,0,0,0,1,1],"id":6,"left_children":[1,3,5,7,9,11,-1,13,15,17,19,21,-1,-1,-1,-1,-1,-1,-1,-1,-1,-1,-1,-1,-1],"loss_changes":[2.1709686E1,5.0419884E0,3.195465E0,2.5917206E0,1.4723492E0,1.316742E0,0E0,2.4199843E0,7.902107E-1,1.1063756E0,1.5298119E0,7.664299E-1,4.8974156E-2,0E0,0E0,0E0,0E0,0E0,0E0,0E0,0E0,0E0,0E0,0E0,0E0],"parents":[2147483647,0,0,1,1,2,2,3,3,4,4,5,5,7,7,8,8,9,9,10,10,11,11,12,12],"right_children":[2,4,6,8,10,12,-1,14,16,18,20,22,-1,-1,-1,-1,-1,-1,-1,-1,-1,-1,-1,-1,-1],"split_conditions":[2.0659418E0,1.4059164E1,4.67058E0,6.810071E0,1.7620941E1,3.036913E1,5.047403E-1,6.4028926E0,3.065064E0,1.03461895E1,2.1551182E1,4.286606E0,7.269813E-2,2.3635897E-1,4.8717447E-2,2.282478E-2,2.825715E-1,1.4670208E-1,-1.6545705E-2,2.1351828E-1,8.538325E-2,2.0775108E-1,3.804329E-1,9.721744E-2,1.1829752E-2],"split_indices":[6,7,6,7,7,2,0,7,2,1,7,7,0,0,0,0,0,0,0,0,0,0,0,2147483647,2147483647],"split_type":[0,0,0,0,0,0,0,0,0,0,0,0,0,0,0,0,0,0,0,0,0,0,0,0,0],"sum_hessian":[1.43E2,9.9E1,4.4E1,5.8E1,4.1E1,2.5E1,1.9E1,1.9E1,3.9E1,1.2E1,2.9E1,2.3E1,2E0,9E0,1E1,1E0,3.8E1,3E0,9E0,1.2E1,1.7E1,7E0,1.6E1,1E0,1E0],"tree_param":{"num_deleted":"2","num_feature":"9","num_nodes":"25","size_leaf_vector":"0"}},{"base_weights":[7.341756E-1,5.141597E-1,1.163268E0,9.418022E-1,3.8007462E-1,9.3541205E-1,1.5462754E0,9.6722E-1,2.040143E-1,7.0874935E-1,2.9157138E-1,1.6446638E-1,9.813262E-1,1.6890874E0,3.6439434E-1,7.687495E-1,-6.562638E-2,3.7701547E-1,1.7317618E-1,2.407682E-1,5.9313774E-3,1.1445129E0,6.411702E-1,1.8246455E0,5.8382577E-1,4.6889567E-1,7.769585E-2],"categories":[],"categories_nodes":[],"categories_segments":[],"categories_sizes":[],"default_left":[1,1,1,1,1,1,1,1,1,1,1,1,1,1,1,0,0,0,0,1,1,0,0,0,0,1,1],"id":7,"left_children":[1,3,5,-1,9,11,13,-1,-1,15,17,-1,21,23,-1,-1,-1,-1,-1,-1,-1,-1,-1,-1,-1,-1,-1],"loss_changes":[1.2713303E1,5.0893917E0,2.6553116E0,2.1523857E-1,1.9459181E0,9.713192E-1,2.0850945E0,0E0,0E0,7.473903E-1,5.4167986E-1,3.4861438E-2,9.3144035E-1,1.0323029E0,5.344984E-2,0E0,0E0,0E0,0E0,0E0,0E0,0E0,0E0,0E0,0E0,0E0,0E0],"parents":[2147483647,0,0,1,1,2,2,3,3,4,4,5,5,6,6,9,9,10,10,11,11,12,12,13,13,14,14],"right_children":[2,4,6,-1,10,12,14,-1,-1,16,18,-1,22,24,-1,-1,-1,-1,-1,-1,-1,-1,-1,-1,-1,-1,-1],"split_conditions":[1.7898719E0,5.95E1,2.635E2,2.4548322E-1,1.5E0,9.5E0,2.5E0,2.5210845E-1,5.3176865E-2,1.4179765E0,5.286605E-1,4.2868596E-2,2.535E2,3.8937996E1,9.4980344E-2,2.0037657E-1,-1.710569E-2,9.827007E-2,4.513883E-2,6.2756866E-2,1.5460291E-3,2.983203E-1,1.671227E-1,4.7559866E-1,1.5217572E-1,1.2221889E-1,2.0251626E-2],"split_indices":[6,8,8,0,5,8,5,2147483647,2147483647,6,6,2,8,3,0,0,0,0,0,2147483647,2147483647,0,0,0,0,2147483647,2147483647],"split_type":[0,0,0,0,0,0,0,0,0,0,0,0,0,0,0,0,0,0,0,0,0,0,0,0,0,0,0],"sum_hessian":[1.4E2,9.4E1,4.6E1,2.1E1,7.3E1,3.1E1,1.5E1,2E1,1E0,1.4E1,5.9E1,2E0,2.9E1,1.3E1,2E0,1.3E1,1E0,3.3E1,2.6E1,1E0,1E0,1.8E1,1.1E1,1.1E1,2E0,1E0,1E0],"tree_param":{"num_deleted":"6","num_feature":"9","num_nodes":"27","size_leaf_vector":"0"}},{"base_weights":[5.4107493E-1,4.4641158E-1,1.0725349E0,6.5674603E-1,3.422249E-1,1.2472277E0,5.699302E-1,7.059668E-1,1.9069576E-1,3.0195424E-1,1.0419466E0,4.6267876E-1,1.3394293E0,4.5001984E-2,7.709011E-1,4.4385546E-1,7.966859E-1,-1.5581608E-2,3.3340788E-1,2.2044179E-1,5.12705E-1,-5.8179617E-2,1.2568259E-1],"categories":[],"categories_nodes":[],"categories_segments":[],"categories_sizes":[],"default_left":[1,1,1,1,1,1,1,1,1,1,0,0,0,1,0,0,0,1,1,0,0,1,1],"id":8,"left_children":[1,3,5,7,9,11,13,15,-1,19,-1,-1,-1,-1,-1,-1,-1,-1,-1,-1,-1,-1,-1],"loss_changes":[6.4136467E0,2.361105E0,1.0451946E0,7.370701E-1,1.9678183E0,3.929882E-1,7.0377517E-1,4.5485497E-1,1.5238644E-1,1.2269263E0,0E0,0E0,0E0,3.2286428E-2,0E0,0E0,0E0,0E0,0E0,0E0,0E0,0E0,0E0],"parents":[2147483647,0,0,1,1,2,2,3,3,4,4,5,5,6,6,7,7,8,8,9,9,13,13],"right_children":[2,4,6,8,10,12,14,16,-1,20,-1,-1,-1,-1,-1,-1,-1,-1,-1,-1,-1,-1,-1],"split_conditions":[4.2173615E0,7.95E1,7.0950384E0,3.0194163E0,9.3E1,7.4969997E0,3.343444E1,1.5200353E1,4.9705353E-2,9.6627104E-1,2.7158615E-1,1.20598435E-1,3.4912577E-1,1.1729886E-2,2.0093739E-1,1.15692094E-1,2.0765828E-1,-4.061387E-3,8.690364E-2,5.7458732E-2,1.3363792E-1,-1.5164671E-2,3.27595E-2],"split_indices":[6,8,7,6,4,6,7,3,1,6,0,0,0,1,0,0,0,2147483647,2147483647,0,0,2147483647,2147483647],"split_type":[0,0,0,0,0,0,0,0,0,0,0,0,0,0,0,0,0,0,0,0,0,0,0],"sum_hessian":[1.36E2,1.17E2,1.9E1,3.7E1,8E1,1.3E1,6E0,3.3E1,4E0,7.7E1,3E0,2E0,1.1E1,2E0,4E0,1E1,2.3E1,2E0,2E0,5.7E1,2E1,1E0,1E0],"tree_param":{"num_deleted":"4","num_feature":"9","num_nodes":"23","size_leaf_vector":"0"}},{"base_weights":[4.166459E-1,6.400633E-1,3.6010072E-1,2.9493195E-1,7.410627E-1,2.2947872E-1,4.527716E-1,4.6557266E-1,7.898092E-3,3.0416012E-2,7.7507424E-1,4.5716813E-1,1.2190901E-1,5.247707E-1,1.859765E-1,5.2226067E-1,1.1941028E-1,-4.8718613E-2,8.88741E-2,8.1183535E-1,3.8306713E-2,5.4698825E-1,5.096072E-2,5.3609455E-1,5.3382855E-2,5.949457E-1,2.0274343E-1,9.505412E-2,7.7490616E-1],"categories":[],"categories_nodes":[],"categories_segments":[],"categories_sizes":[],"default_left":[1,1,1,1,1,1,1,1,1,0,1,1,1,1,1,1,1,1,1,0,0,0,0,0,0,0,0,0,0],"id":9,"left_children":[1,3,5,7,9,11,13,-1,-1,-1,19,21,23,25,27,-1,-1,-1,-1,-1,-1,-1,-1,-1,-1,-1,-1,-1,-1],"loss_changes":[1.6013241E0,7.574625E-1,1.3244724E0,3.8816017E-1,4.8399925E-1,1.1933839E0,1.2086163E0,3.5752892E-2,2.2668201E-2,0E0,5.1058865E-1,5.558946E-1,9.931532E-1,1.0770884E0,7.830922E-1,0E0,0E0,0E0,0E0,0E0,0E0,0E0,0E0,0E0,0E0,0E0,0E0,0E0,0E0],"parents":[2147483647,0,0,1,1,2,2,3,3,4,4,5,5,6,6,7,7,8,8,10,10,11,11,12,12,13,13,14,14],"right_children":[2,4,6,8,10,12,14,-1,-1,-1,20,22,24,26,28,-1,-1,-1,-1,-1,-1,-1,-1,-1,-1,-1,-1,-1,-1],"split_conditions":[5.152359E0,4.286606E0,3.75E1,4.2126245E0,2.6589055E0,9.097274E0,2.5E0,1.2135274E-1,2.0586585E-3,7.928014E-3,2.404068E1,1.7017757E1,1.005E2,2.6982193E1,3.360194E1,1.3612862E-1,3.1124603E-2,-1.26986345E-2,2.3165269E-2,2.1160702E-1,9.984746E-3,1.4257392E-1,1.3283046E-2,1.3973445E-1,1.3914381E-2,1.5507416E-1,5.284561E-2,2.4776107E-2,2.0198134E-1],"split_indices":[7,7,4,7,1,1,5,1,1,0,2,7,8,1,7,2147483647,2147483647,2147483647,2147483647,0,0,0,0,0,0,0,0,0,0],"split_type":[0,0,0,0,0,0,0,0,0,0,0,0,0,0,0,0,0,0,0,0,0,0,0,0,0,0,0,0,0],"sum_hessian":[1.44E2,2.7E1,1.17E2,7E0,2E1,5E1,6.7E1,4E0,3E0,1E0,1.9E1,1.5E1,3.5E1,5.2E1,1.5E1,3E0,1E0,2E0,1E0,1.8E1,1E0,1.2E1,3E0,4E0,3.1E1,4.2E1,1E1,1.4E1,1E0],"tree_param":{"num_deleted":"4","num_feature":"9","num_nodes":"29","size_leaf_vector":"0"}},{"base_weights":[3.3620474E-1,2.4427909E-1,6.2407863E-1,1.1091474E-1,3.4689927E-1,8.560371E-1,4.081073E-1,6.29615E-2,8.092262E-1,4.1755965E-1,5.9314802E-2,2.7921057E-1,9.769762E-1,5.0566863E-2,5.000803E-1,3.7112826E-1,2.4775889E-2,-1.3029933E-1,4.3198854E-1,-7.604262E-2,2.2990556E-1,3.9478174E-1,-3.3751488E-2,1.8550062E-1,-2.954173E-2,6.6287756E-1,2.1932949E-1],"categories":[],"categories_nodes":[],"categories_segments":[],"categories_sizes":[],"default_left":[1,1,1,1,1,1,1,1,0,1,1,1,0,1,1,0,0,0,0,0,0,1,1,1,1,0,0],"id":10,"left_children":[1,3,5,7,9,11,13,15,-1,17,19,-1,-1,-1,25,-1,-1,-1,-1,-1,-1,-1,-1,-1,-1,-1,-1],"loss_changes":[3.5259056E0,1.4259124E0,1.3038263E0,1.5563923E0,1.1944823E0,7.736311E-1,5.995095E-1,5.321115E-1,0E0,4.3572712E-1,3.1766206E-1,1.5800205E-1,0E0,5.952678E-2,5.4019356E-1,0E0,0E0,0E0,0E0,0E0,0E0,0E0,0E0,0E0,0E0,0E0,0E0],"parents":[2147483647,0,0,1,1,2,2,3,3,4,4,5,5,6,6,7,7,9,9,10,10,11,11,13,13,14,14],"right_children":[2,4,6,8,10,12,14,16,-1,18,20,-1,-1,-1,26,-1,-1,-1,-1,-1,-1,-1,-1,-1,-1,-1,-1],"split_conditions":[2.7041664E0,3.75E1,1.605818E1,4.18852E1,2.5277145E1,4.2646103E0,2.0762829E1,3.6124182E0,2.1092694E-1,3.3627653E0,7.75E1,7.2776966E-2,2.5465143E-1,1.3180386E-2,4.07372E1,9.673556E-2,6.4579006E-3,-3.3962864E-2,1.1259895E-1,-1.9820709E-2,5.992549E-2,1.029009E-1,-8.797414E-3,4.8351225E-2,-7.70013E-3,1.7278078E-1,5.7168808E-2],"split_indices":[6,4,2,3,2,7,3,2,0,2,4,4,0,2,3,0,0,0,0,0,0,2147483647,2147483647,2147483647,2147483647,0,0],"split_type":[0,0,0,0,0,0,0,0,0,0,0,0,0,0,0,0,0,0,0,0,0,0,0,0,0,0,0],"sum_hessian":[1.38E2,1.06E2,3.2E1,4.7E1,5.9E1,1.4E1,1.8E1,4.5E1,2E0,4.7E1,1.2E1,3E0,1.1E1,4E0,1.4E1,4E0,4.1E1,1E0,4.6E1,7E0,5E0,2E0,1E0,1E0,3E0,8E0,6E0],"tree_param":{"num_deleted":"4","num_feature":"9","num_nodes":"27","size_leaf_vector":"0"}},{"base_weights":[2.558779E-1,1.6307001E-1,4.3616292E-1,8.703172E-2,3.4462616E-1,3.796045E-1,9.634044E-1,2.6968238E-1,1.5036712E-3,4.411447E-1,-7.95017E-3,4.397838E-1,1.536153E-1,3.2157364E-1,-4.422173E-2,1.4095415E-1,-5.4319482E-2,5.08023E-1,-1.5175898E-1,-2.5220203E-1,1.4019099E-1,1.4163856E-1,5.375403E-1,2.1553628E-1,-8.335272E-2],"categories":[],"categories_nodes":[],"categories_segments":[],"categories_sizes":[],"default_left":[1,1,1,1,1,1,0,1,1,1,1,1,1,0,0,0,0,0,0,1,1,0,0,1,1],"id":11,"left_children":[1,3,5,7,9,11,-1,13,15,17,-1,21,-1,-1,-1,-1,-1,-1,-1,-1,-1,-1,-1,-1,-1],"loss_changes":[2.3215322E0,1.2953076E0,1.0656452E0,1.0774955E0,9.563515E-1,5.444374E-1,0E0,3.72576E-1,3.813157E-1,9.4945E-1,2.886427E-1,9.4396067E-1,1.7937174E-1,0E0,0E0,0E0,0E0,0E0,0E0,0E0,0E0,0E0,0E0,0E0,0E0],"parents":[2147483647,0,0,1,1,2,2,3,3,4,4,5,5,7,7,8,8,9,9,10,10,11,11,12,12],"right_children":[2,4,6,8,10,12,-1,14,16,18,-1,22,-1,-1,-1,-1,-1,-1,-1,-1,-1,-1,-1,-1,-1],"split_conditions":[1.7898719E0,4.18852E1,1.8499441E1,1.1091482E1,5.2237816E1,4.138228E1,2.511139E-1,2.6097996E1,6.55E1,1.2188001E0,-2.0722328E-3,1.38645935E1,4.0040232E-2,8.381902E-2,-1.152651E-2,3.6740072E-2,-1.4158516E-2,1.3241754E-1,-3.9556377E-2,-6.573712E-2,3.654115E-2,3.6918465E-2,1.401113E-1,5.6180097E-2,-2.1726107E-2],"split_indices":[6,3,6,1,3,3,0,7,8,6,3,3,0,0,0,0,0,0,0,2147483647,2147483647,0,0,2147483647,2147483647],"split_type":[0,0,0,0,0,0,0,0,0,0,0,0,0,0,0,0,0,0,0,0,0,0,0,0,0],"sum_hessian":[1.42E2,9.5E1,4.7E1,6.8E1,2.7E1,4.4E1,3E0,2.1E1,4.7E1,2.1E1,6E0,3.4E1,1E1,1.8E1,3E0,1.3E1,3.4E1,1.9E1,2E0,2E0,4E0,9E0,2.5E1,8E0,2E0],"tree_param":{"num_deleted":"4","num_feature":"9","num_nodes":"25","size_leaf_vector":"0"}},{"base_weights":[1.8645145E-1,1.4277539E-1,4.2923015E-1,1.7487866E-1,-5.064215E-2,3.003489E-1,7.815803E-1,1.5541065E-1,5.29263E-1,-2.572911E-1,7.412324E-2,5.043011E-1,2.2062336E-1,9.907751E-1,3.118588E-1,1.7248017E-1,-2.9737765E-1,9.243822E-2,-3.309857E-1,1.2196171E-1,-1.1004607E-1,1.2303682E-1,4.338305E-1],"categories":[],"categories_nodes":[],"categories_segments":[],"categories_sizes":[],"default_left":[1,1,1,1,1,1,1,1,0,1,1,1,1,1,1,0,0,1,1,1,1,1,1],"id":12,"left_children":[1,3,5,7,9,-1,-1,15,-1,-1,-1,-1,-1,-1,-1,-1,-1,-1,-1,-1,-1,-1,-1],"loss_changes":[1.4338264E0,7.6018596E-1,7.188914E-1,6.352589E-1,4.8315874E-1,1.6516268E-1,1.8233466E-1,8.241792E-1,0E0,2.1100783E-1,1.1914595E-1,0E0,2.3790896E-1,0E0,0E0,0E0,0E0,0E0,0E0,0E0,0E0,0E0,0E0],"parents":[2147483647,0,0,1,1,2,2,3,3,4,4,5,5,6,6,7,7,9,9,10,10,12,12],"right_children":[2,4,6,8,10,-1,-1,16,-1,-1,-1,-1,-1,-1,-1,-1,-1,-1,-1,-1,-1,-1,-1],"split_conditions":[4.67058E0,2.5E0,3.5E0,9.15E1,1.8317745E1,7.828673E-2,2.0372097E-1,2.9655342E1,1.379538E-1,-6.706361E-2,1.9320417E-2,1.314474E-1,5.750606E-2,2.5824815E-1,8.128682E-2,4.495741E-2,-7.7512264E-2,2.4094265E-2,-8.627229E-2,3.178964E-2,-2.8683797E-2,3.206987E-2,1.1307906E-1],"split_indices":[6,5,0,4,1,2,1,1,0,1,6,2147483647,2147483647,2147483647,2147483647,0,0,2147483647,2147483647,2147483647,2147483647,2147483647,2147483647],"split_type":[0,0,0,0,0,0,0,0,0,0,0,0,0,0,0,0,0,0,0,0,0,0,0],"sum_hessian":[1.4E2,1.2E2,2E1,1.03E2,1.7E1,1.6E1,4E0,9.9E1,4E0,6E0,1.1E1,3E0,1.3E1,2E0,2E0,9.6E1,3E0,1E0,5E0,9E0,2E0,1E1,3E0],"tree_param":{"num_deleted":"10","num_feature":"9","num_nodes":"23","size_leaf_vector":"0"}},{"base_weights":[1.3875507E-1,7.360938E-2,2.6751292E-1,2.2299033E-1,2.9398983E-2,1.9362696E-1,4.0318313E-1,3.0110338E-1,-1.02814674E-1,1.7844087E-2,4.4800806E-1,1.3096495E-1,4.537785E-1,1.3353181E-1,5.136127E-1,1.0932023E-1,3.8788494E-1,-1.4677179E-1,3.650689E-2,-1.1367827E-2,1.4593656E-1,2.1368188E-1,1.908526E-2,1.934412E-1,-8.3007574E-2,6.319169E-1,2.4526425E-1],"categories":[],"categories_nodes":[],"categories_segments":[],"categories_sizes":[],"default_left":[1,1,1,1,1,1,1,1,1,1,0,1,0,1,1,1,1,1,1,1,1,1,1,1,1,1,1],"id":13,"left_children":[1,3,5,7,9,11,13,-1,-1,-1,-1,-1,-1,-1,-1,-1,-1,-1,-1,-1,-1,-1,-1,-1,-1,-1,-1],"loss_changes":[1.1881828E0,6.3405097E-1,4.0309095E-1,5.908495E-1,3.596165E-1,4.7852433E-1,4.0785575E-1,2.571746E-1,3.5979055E-2,2.8229594E-1,0E0,2.5504348E-1,0E0,9.389354E-2,1.942277E-1,0E0,0E0,0E0,0E0,0E0,0E0,0E0,0E0,0E0,0E0,0E0,0E0],"parents":[2147483647,0,0,1,1,2,2,3,3,4,4,5,5,6,6,7,7,8,8,9,9,11,11,13,13,14,14],"right_children":[2,4,6,8,10,12,14,-1,-1,-1,-1,-1,-1,-1,-1,-1,-1,-1,-1,-1,-1,-1,-1,-1,-1,-1,-1],"split_conditions":[1.7898719E0,5.95E1,2.635E2,1.2779574E0,9.3E1,3.3550713E1,8.717987E0,7.848339E-2,-2.6798915E-2,4.6511083E-3,1.1677448E-1,3.413636E-2,1.1827856E-1,3.4805417E-2,1.338745E-1,2.8494606E-2,1.0110323E-1,-3.825645E-2,9.515617E-3,-2.963054E-3,3.803875E-2,5.5696744E-2,4.974623E-3,5.042096E-2,-2.1636143E-2,1.647108E-1,6.392877E-2],"split_indices":[6,8,8,6,4,7,6,6,2,8,0,6,0,0,2,2147483647,2147483647,2147483647,2147483647,2147483647,2147483647,2147483647,2147483647,2147483647,2147483647,2147483647,2147483647],"split_type":[0,0,0,0,0,0,0,0,0,0,0,0,0,0,0,0,0,0,0,0,0,0,0,0,0,0,0],"sum_hessian":[1.43E2,9.6E1,4.7E1,2.1E1,7.5E1,3.2E1,1.5E1,1.7E1,4E0,7.4E1,1E0,2.7E1,5E0,5E0,1E1,6E0,1.1E1,3E0,1E0,6.1E1,1.3E1,1.5E1,1.2E1,4E0,1E0,6E0,4E0],"tree_param":{"num_deleted":"12","num_feature":"9","num_nodes":"27","size_leaf_vector":"0"}},{"base_weights":[1.0109207E-1,2.6634729E-2,1.9049084E-1,1.12639666E-1,-5.5735826E-2,3.4116256E-1,8.2386754E-2,-3.7318852E-3,3.986182E-1,3.5705276E-2,-3.3362967E-1,4.7539137E-2,3.9238775E-1,-1.4153603E-1,1.2879528E-1,-6.0699273E-2,2.1526508E-1,4.2777163E-1,5.354178E-2,-7.094209E-2,3.042813E-1,-3.9894778E-1,-4.8238117E-2,-7.4469805E-2,2.6778746E-1,4.0953824E-1,1.6113758E-2,-2.1705532E-1,3.150813E-2,2.6055047E-1,1.1843999E-2],"categories":[],"categories_nodes":[],"categories_segments":[],"categories_sizes":[],"default_left":[1,1,1,1,1,1,1,1,1,1,1,1,1,1,1,0,0,1,1,0,0,1,1,1,1,1,1,1,1,0,0],"id":14,"left_children":[1,3,5,7,9,11,13,15,-1,19,-1,-1,-1,-1,29,-1,-1,-1,-1,-1,-1,-1,-1,-1,-1,-1,-1,-1,-1,-1,-1],"loss_changes":[9.201654E-1,5.517672E-1,9.980509E-1,1.2661186E0,1.0283489E0,3.7241006E-1,4.1312236E-1,3.623856E-1,8.775818E-2,9.09517E-1,1.6716802E-1,1.543034E-1,1.3537312E-1,9.831621E-2,4.9000007E-1,0E0,0E0,0E0,0E0,0E0,0E0,0E0,0E0,0E0,0E0,0E0,0E0,0E0,0E0,0E0,0E0],"parents":[2147483647,0,0,1,1,2,2,3,3,4,4,5,5,6,6,7,7,8,8,9,9,10,10,11,11,12,12,13,13,14,14],"right_children":[2,4,6,8,10,12,14,16,-1,20,-1,-1,-1,-1,30,-1,-1,-1,-1,-1,-1,-1,-1,-1,-1,-1,-1,-1,-1,-1,-1],"split_conditions":[9.79348E-1,5.32327E-1,1.6748463E1,3.7301898E-1,2.605E2,1.35E1,4.15E1,3.5E0,1.0390088E-1,4.2081738E1,-8.696145E-2,1.2391201E-2,1.022769E-1,-3.6891736E-2,3.8423096E1,-1.5821425E-2,5.610941E-2,1.114998E-1,1.3955805E-2,-1.8491242E-2,7.931172E-2,-1.03986785E-1,-1.2573392E-2,-1.941075E-2,6.9799505E-2,1.0674722E-1,4.2000934E-3,-5.657604E-2,8.212677E-3,6.791317E-2,3.0871695E-3],"split_indices":[6,6,1,6,8,8,4,0,6,3,6,1,2,3,3,0,0,2147483647,2147483647,0,0,2147483647,2147483647,2147483647,2147483647,2147483647,2147483647,2147483647,2147483647,0,0],"split_type":[0,0,0,0,0,0,0,0,0,0,0,0,0,0,0,0,0,0,0,0,0,0,0,0,0,0,0,0,0,0,0],"sum_hessian":[1.38E2,7.6E1,6.2E1,3.7E1,3.9E1,2.5E1,3.7E1,2.7E1,1E1,3E1,9E0,4E0,2.1E1,6E0,3.1E1,2.2E1,5E0,9E0,1E0,2.2E1,8E0,7E0,2E0,3E0,1E0,2E1,1E0,4E0,2E0,1.4E1,1.7E1],"tree_param":{"num_deleted":"10","num_feature":"9","num_nodes":"31","size_leaf_vector":"0"}},{"base_weights":[8.169705E-2,2.7010476E-2,1.4606404E-1,-1.9386213E-2,1.4599234E-1,2.4857004E-1,5.1099762E-2,5.9918314E-2,-1.0972156E-1,4.015533E-1,2.5059894E-2,2.9744998E-1,7.0859015E-2,-2.8673302E-2,1.7280746E-1,-4.1416785E-4,2.3342597E-1,-2.6655915E-1,3.351914E-2,3.9867163E-2,4.551898E-1,9.9840865E-2,-2.2424322E-1,1.4382212E-1,4.163795E-1,-9.663792E-2,2.6251543E-1,8.0084324E-2,-9.654082E-2,3.776571E-1,1.70402E-2],"categories":[],"categories_nodes":[],"categories_segments":[],"categories_sizes":[],"default_left":[1,1,1,1,1,1,1,1,1,1,1,1,1,1,1,0,0,0,0,1,1,0,0,0,0,1,1,1,1,0,0],"id":15,"left_children":[1,3,5,7,9,11,13,15,17,-1,21,23,-1,-1,29,-1,-1,-1,-1,-1,-1,-1,-1,-1,-1,-1,-1,-1,-1,-1,-1],"loss_changes":[4.9589616E-1,4.3341863E-1,6.200348E-1,4.1492242E-1,6.698605E-1,2.4820447E-1,3.447698E-1,3.2460928E-1,6.15504E-1,1.1765003E-1,3.2067868E-1,3.786168E-1,2.8218383E-1,1.7011586E-1,4.4028878E-1,0E0,0E0,0E0,0E0,0E0,0E0,0E0,0E0,0E0,0E0,0E0,0E0,0E0,0E0,0E0,0E0],"parents":[2147483647,0,0,1,1,2,2,3,3,4,4,5,5,6,6,7,7,8,8,9,9,10,10,11,11,12,12,13,13,14,14],"right_children":[2,4,6,8,10,12,14,16,18,-1,22,24,-1,-1,30,-1,-1,-1,-1,-1,-1,-1,-1,-1,-1,-1,-1,-1,-1,-1,-1],"split_conditions":[9.6627104E-1,4.2261482E1,1.749492E1,5.32327E-1,4.604254E1,1.6646069E1,2.3634209E1,3.7301898E-1,6.60261E-1,1.0466593E-1,3.1610584E1,1.3148119E1,1.8469589E-2,-7.473772E-3,3.8666786E1,-1.0795394E-4,6.0843095E-2,-6.947935E-2,8.736853E-3,1.0391481E-2,1.1864642E-1,2.6023785E-2,-5.8449585E-2,3.7487615E-2,1.0853042E-1,-2.5188928E-2,6.8425335E-2,2.087419E-2,-2.5163619E-2,9.843732E-2,4.4415733E-3],"split_indices":[6,3,2,6,3,1,1,6,6,1,1,3,4,2,3,0,0,0,0,2147483647,2147483647,0,0,0,0,2147483647,2147483647,2147483647,2147483647,0,0],"split_type":[0,0,0,0,0,0,0,0,0,0,0,0,0,0,0,0,0,0,0,0,0,0,0,0,0,0,0,0,0,0,0],"sum_hessian":[1.41E2,7.7E1,6.4E1,5.6E1,2.1E1,3E1,3.4E1,3E1,2.6E1,6E0,1.5E1,2.3E1,7E0,2.1E1,1.3E1,2.3E1,7E0,1.2E1,1.4E1,1E0,5E0,1.2E1,3E0,1.1E1,1.2E1,4E0,3E0,8E0,1.3E1,5E0,8E0],"tree_param":{"num_deleted":"6","num_feature":"9","num_nodes":"31","size_leaf_vector":"0"}},{"base_weights":[6.180297E-2,5.1116936E-2,3.4651414E-1,9.344669E-2,-1.3290495E-2,1.0621214E-1,6.5386105E-1,-2.6366064E-1,1.05372E-1,-4.6123255E-2,1.6329429E-1,1.8009917E-1,-5.7724476E-2,4.3542557E-3,1.2434122E-1,-6.140296E-2,3.360114E-1,-1.6546018E-1,2.8086132E-1],"categories":[],"categories_nodes":[],"categories_segments":[],"categories_sizes":[],"default_left":[1,1,1,1,1,1,0,0,1,1,1,1,1,1,1,0,0,0,0],"id":16,"left_children":[1,3,5,7,9,-1,-1,-1,-1,15,17,-1,-1,-1,-1,-1,-1,-1,-1],"loss_changes":[4.1735524E-1,3.8020468E-1,2.9983234E-1,3.8550603E-1,3.3220658E-1,5.884729E-2,0E0,0E0,1.5658933E-1,3.008995E-1,3.9432752E-1,0E0,0E0,0E0,0E0,0E0,0E0,0E0,0E0],"parents":[2147483647,0,0,1,1,2,2,3,3,4,4,5,5,8,8,9,9,10,10],"right_children":[2,4,6,8,10,-1,-1,-1,-1,16,18,-1,-1,-1,-1,-1,-1,-1,-1],"split_conditions":[1.8499441E1,5E-1,3E0,1.476335E-1,4.5E0,2.7684474E-2,1.704306E-1,-6.872384E-2,2.7465489E-2,3.40382E1,1.1880594E1,4.6943326E-2,-1.5046037E-2,1.1349482E-3,3.2409865E-2,-1.6004844E-2,8.758226E-2,-4.3127634E-2,7.3207244E-2],"split_indices":[6,0,0,6,0,1,0,0,3,1,3,2147483647,2147483647,2147483647,2147483647,0,0,0,0],"split_type":[0,0,0,0,0,0,0,0,0,0,0,0,0,0,0,0,0,0,0],"sum_hessian":[1.42E2,1.38E2,4E0,8.3E1,5.5E1,3E0,1E0,2E0,8.1E1,4.7E1,8E0,2E0,1E0,1.3E1,6.8E1,4.6E1,1E0,2E0,6E0],"tree_param":{"num_deleted":"4","num_feature":"9","num_nodes":"19","size_leaf_vector":"0"}},{"base_weights":[4.6872396E-2,3.7646692E-2,2.9581755E-1,-5.1666703E-3,8.712622E-2,5.6864595E-1,8.544898E-2,1.581045E-1,-3.5229553E-2,2.851188E-1,5.4335702E-2,1.6164303E-1,-7.156658E-2,-9.25678E-2,2.5194725E-1,-1.7628011E-1,1.4425324E-2,-8.192182E-3,3.228067E-1,-1.5944564E-1,7.347855E-2],"categories":[],"categories_nodes":[],"categories_segments":[],"categories_sizes":[],"default_left":[1,1,1,1,1,1,1,1,1,1,1,1,1,0,0,0,0,1,1,1,1],"id":17,"left_children":[1,3,-1,7,9,-1,-1,13,15,-1,-1,-1,-1,-1,-1,-1,-1,-1,-1,-1,-1],"loss_changes":[3.195874E-1,2.97024E-1,2.3838234E-1,3.786085E-1,4.0650603E-1,0E0,5.9422843E-2,3.0560753E-1,4.5779297E-1,1.0213292E-1,2.4498172E-1,0E0,0E0,0E0,0E0,0E0,0E0,0E0,0E0,0E0,0E0],"parents":[2147483647,0,0,1,1,2,2,3,3,4,4,6,6,7,7,8,8,9,9,10,10],"right_children":[2,4,-1,8,10,-1,-1,14,16,-1,-1,-1,-1,-1,-1,-1,-1,-1,-1,-1,-1],"split_conditions":[1.8499441E1,3.0959991E1,7.710563E-2,5.5002546E0,1.51339035E1,1.4821906E-1,2.2272501E-2,1.25E1,1.2395603E1,7.431696E-2,1.4162743E-2,4.213268E-2,-1.8654019E-2,-2.412804E-2,6.5670714E-2,-4.5947876E-2,3.7599988E-3,-2.1353136E-3,8.414041E-2,-4.1559927E-2,1.9152377E-2],"split_indices":[6,3,6,2,1,2147483647,2147483647,4,3,2,2,2147483647,2147483647,0,0,0,0,2147483647,2147483647,2147483647,2147483647],"split_type":[0,0,0,0,0,0,0,0,0,0,0,0,0,0,0,0,0,0,0,0,0],"sum_hessian":[1.43E2,1.39E2,4E0,7.5E1,6.4E1,1E0,3E0,1.1E1,6.4E1,8E0,5.6E1,2E0,1E0,3E0,8E0,1.6E1,4.8E1,1E0,7E0,4E0,5.2E1],"tree_param":{"num_deleted":"8","num_feature":"9","num_nodes":"21","size_leaf_vector":"0"}},{"base_weights":[3.9509915E-2,1.2896284E-1,1.0424023E-2,8.58863E-2,4.413345E-1,-1.028025E-1,3.2463733E-2,1.6696802E-1,-3.0287912E-2,5.051689E-1,1.249156E-1,-3.210119E-2,-2.3885493E-1,1.6412862E-1,1.2557037E-2,-8.036741E-2,2.007938E-1,-6.1507408E-2,1.8778276E-1,-1.316527E-1,1.5351176E-1,2.8777122E-3,-2.87777E-1,-6.377536E-2,2.4718277E-1,1.3788004E-1,-1.568777E-2],"categories":[],"categories_nodes":[],"categories_segments":[],"categories_sizes":[],"default_left":[1,1,1,1,1,1,1,1,1,1,1,1,1,1,1,1,1,1,1,1,1,1,1,1,1,1,1],"id":18,"left_children":[1,3,-1,7,-1,-1,-1,-1,-1,-1,-1,-1,-1,-1,-1,-1,-1,-1,-1,-1,-1,-1,-1,-1,-1,-1,-1],"loss_changes":[3.7071574E-1,4.330516E-1,2.7534464E-1,3.0648446E-1,1.7690182E-2,1.6547598E-1,2.3907223E-1,1.7509723E-1,1.0686282E-1,0E0,0E0,2.6042488E-1,7.1784526E-2,2.429046E-1,2.8888068E-1,0E0,0E0,0E0,0E0,0E0,0E0,0E0,0E0,0E0,0E0,0E0,0E0],"parents":[2147483647,0,0,1,1,2,2,3,3,4,4,5,5,6,6,7,7,8,8,11,11,12,12,13,13,14,14],"right_children":[2,4,-1,8,-1,-1,-1,-1,-1,-1,-1,-1,-1,-1,-1,-1,-1,-1,-1,-1,-1,-1,-1,-1,-1,-1,-1],"split_conditions":[6.4028926E0,2.5E0,2.7170489E-3,1E0,1.15035E-1,-2.6795743E-2,8.461758E-3,4.352065E-2,-7.894624E-3,1.316736E-1,3.255958E-2,-8.36726E-3,-6.2258165E-2,4.2780556E-2,3.2730247E-3,-2.0947976E-2,5.2337434E-2,-1.6032068E-2,4.894607E-2,-3.4315623E-2,4.0013246E-2,7.5008324E-4,-7.500984E-2,-1.6623216E-2,6.442884E-2,3.5938796E-2,-4.0890584E-3],"split_indices":[7,0,3,0,0,2147483647,2147483647,7,3,2147483647,2147483647,2147483647,2147483647,2147483647,2147483647,2147483647,2147483647,2147483647,2147483647,2147483647,2147483647,2147483647,2147483647,2147483647,2147483647,2147483647,2147483647],"split_type":[0,0,0,0,0,0,0,0,0,0,0,0,0,0,0,0,0,0,0,0,0,0,0,0,0,0,0],"sum_hessian":[1.42E2,3.4E1,1.08E2,3.1E1,3E0,1.7E1,9.1E1,1.8E1,1.3E1,2E0,1E0,1.2E1,5E0,1.1E1,8E1,2E0,1.6E1,1.2E1,1E0,8E0,4E0,1E0,4E0,3E0,8E0,1.4E1,6.6E1],"tree_param":{"num_deleted":"20","num_feature":"9","num_nodes":"27","size_leaf_vector":"0"}},{"base_weights":[1.6246477E-2,6.36603E-3,1.7847812E-1,2.4352749E-1,8.862555E-4,-3.8676836E-2,4.053023E-1,3.241291E-1,4.1162133E-2,-3.8638446E-2,4.2867403E-2,6.0103416E-2,-7.839775E-2,4.7775492E-1,9.3972206E-2,1.1934462E-1,-6.793457E-2,2.628319E-2,2.850598E-1,-3.3748943E-2,-1.06172085E-1],"categories":[],"categories_nodes":[],"categories_segments":[],"categories_sizes":[],"default_left":[1,1,1,1,1,1,1,1,1,1,1,1,1,1,1,0,0,1,1,1,1],"id":19,"left_children":[1,3,5,-1,9,-1,-1,-1,-1,15,-1,-1,-1,-1,-1,-1,-1,-1,-1,-1,-1],"loss_changes":[2.2327277E-1,1.726298E-1,4.0972373E-1,3.559108E-2,2.1902363E-1,2.4330186E-2,4.533106E-2,0E0,0E0,3.2283148E-1,2.4956824E-1,0E0,1.3771672E-3,0E0,0E0,0E0,0E0,0E0,0E0,0E0,0E0],"parents":[2147483647,0,0,1,1,2,2,3,3,4,4,5,5,6,6,9,9,10,10,12,12],"right_children":[2,4,6,-1,10,-1,-1,-1,-1,16,-1,-1,-1,-1,-1,-1,-1,-1,-1,-1,-1],"split_conditions":[1.0252262E1,1.363395E-1,4.9701657E0,6.347608E-2,3.0959991E1,-1.0081219E-2,1.0564311E-1,8.4485106E-2,1.0729019E-2,5.5002546E0,1.1173502E-2,1.5666114E-2,-2.043458E-2,1.2452808E-1,2.4494102E-2,3.1107489E-2,-1.7707326E-2,6.8507823E-3,7.430159E-2,-8.796751E-3,-2.7674032E-2],"split_indices":[6,6,7,2,3,2,2,2147483647,2147483647,2,8,2147483647,2147483647,2147483647,2147483647,0,0,2147483647,2147483647,2147483647,2147483647],"split_type":[0,0,0,0,0,0,0,0,0,0,0,0,0,0,0,0,0,0,0,0,0],"sum_hessian":[1.39E2,1.32E2,7E0,2E0,1.3E2,4E0,3E0,1E0,1E0,6.7E1,6.3E1,1E0,3E0,2E0,1E0,1E1,5.7E1,6E1,3E0,2E0,1E0],"tree_param":{"num_deleted":"10","num_feature":"9","num_nodes":"21","size_leaf_vector":"0"}},{"base_weights":[1.5542055E-2,-1.7907368E-2,5.3681947E-2,1.6987552E-1,-4.179506E-2,1.7218104E-1,3.0282432E-2,-8.268833E-3,1.9317716E-1,4.1662697E-2,-1.3138747E-1,1.6563972E-2,2.9910126E-1,-2.0885055E-1,4.255237E-2,2.1601841E-1,1.664424E-2,-3.7337862E-2,2.58698E-1,-6.5947264E-2,-2.8184924E-1,-1.5675068E-1,8.2577035E-2,5.935049E-2,3.3518133E-1,8.868957E-2,-6.7523206E-3],"categories":[],"categories_nodes":[],"categories_segments":[],"categories_sizes":[],"default_left":[1,1,1,1,1,1,1,1,1,1,1,1,1,1,1,1,1,0,0,0,0,1,1,1,1,1,1],"id":20,"left_children":[1,3,-1,-1,9,-1,-1,-1,-1,17,19,-1,-1,-1,-1,-1,-1,-1,-1,-1,-1,-1,-1,-1,-1,-1,-1],"loss_changes":[1.8594612E-1,3.5698456E-1,1.8333782E-1,3.895685E-2,5.2887666E-1,2.1230623E-1,1.7906758E-1,0E0,2.8662384E-2,6.4405787E-1,3.161853E-1,8.15902E-2,3.200817E-2,0E0,1.2798658E-1,0E0,0E0,0E0,0E0,0E0,0E0,0E0,0E0,0E0,0E0,0E0,0E0],"parents":[2147483647,0,0,1,1,2,2,3,3,4,4,5,5,6,6,8,8,9,9,10,10,11,11,12,12,14,14],"right_children":[2,4,-1,-1,10,-1,-1,-1,-1,18,20,-1,-1,-1,-1,-1,-1,-1,-1,-1,-1,-1,-1,-1,-1,-1,-1],"split_conditions":[9.6627104E-1,5.2E1,1.3992341E-2,4.4278502E-2,5.269165E-1,4.487944E-2,7.893195E-3,-2.155293E-3,5.0352138E-2,3.7301898E-1,2.605E2,4.317443E-3,7.7961534E-2,-5.4437444E-2,1.1091388E-2,5.6305766E-2,4.3383646E-3,-9.732212E-3,6.743031E-2,-1.7189328E-2,-7.3464744E-2,-4.0857475E-2,2.152392E-2,1.5469861E-2,8.7365896E-2,2.311717E-2,-1.7600101E-3],"split_indices":[6,8,2,4,6,2147483647,2147483647,2147483647,2147483647,6,8,2147483647,2147483647,2147483647,2147483647,2147483647,2147483647,0,0,0,0,2147483647,2147483647,2147483647,2147483647,2147483647,2147483647],"split_type":[0,0,0,0,0,0,0,0,0,0,0,0,0,0,0,0,0,0,0,0,0,0,0,0,0,0,0],"sum_hessian":[1.44E2,7.7E1,6.7E1,8E0,6.9E1,1E1,5.7E1,1E0,7E0,3.6E1,3.3E1,5E0,5E0,2E0,5.5E1,6E0,1E0,2.7E1,9E0,2.4E1,9E0,1E0,4E0,1E0,4E0,2.8E1,2.7E1],"tree_param":{"num_deleted":"16","num_feature":"9","num_nodes":"27","size_leaf_vector":"0"}},{"base_weights":[6.3687307E-4,6.798791E-2,-2.3330677E-2,4.6945468E-2,4.1275787E-1,1.577436E-2,-9.763393E-2,2.3903662E-2,2.2530401E-1,-1.3610414E-2,9.381905E-2,6.7407526E-2,-1.2642795E-1,6.460945E-2,-1.365192E-1,3.2344047E-2,-2.3165835E-1,2.1657357E-1,-6.6638574E-2,-5.6182384E-2,2.097249E-1,-3.6204177E-1,-8.825355E-2],"categories":[],"categories_nodes":[],"categories_segments":[],"categories_sizes":[],"default_left":[1,1,1,1,1,1,1,1,1,1,1,1,1,1,1,0,0,0,0,1,1,1,1],"id":21,"left_children":[1,-1,5,-1,-1,9,-1,-1,-1,15,17,-1,-1,-1,-1,-1,-1,-1,-1,-1,-1,-1,-1],"loss_changes":[2.2757971E-1,2.4905051E-1,3.0372575E-1,1.4256373E-1,0E0,1.595164E-1,1.796017E-1,2.2431503E-1,0E0,5.1852685E-1,3.886732E-1,1.17316805E-1,2.4687544E-1,0E0,0E0,0E0,0E0,0E0,0E0,0E0,0E0,0E0,0E0],"parents":[2147483647,0,0,1,1,2,2,3,3,5,5,6,6,7,7,9,9,10,10,11,11,12,12],"right_children":[2,-1,6,-1,-1,10,-1,-1,-1,16,18,-1,-1,-1,-1,-1,-1,-1,-1,-1,-1,-1,-1],"split_conditions":[1.1435639E1,1.7721228E-2,5E-1,1.223646E-2,1.0758643E-1,1.7620941E1,-2.544854E-2,6.2305527E-3,5.8726083E-2,1.1738518E1,2.377884E1,1.756995E-2,-3.2953776E-2,1.6840624E-2,-3.558409E-2,8.430561E-3,-6.038236E-2,5.645047E-2,-1.736952E-2,-1.4644086E-2,5.466535E-2,-9.436714E-2,-2.300352E-2],"split_indices":[1,1,0,2147483647,2147483647,7,2,2147483647,2147483647,7,2,2147483647,2147483647,2147483647,2147483647,0,0,0,0,2147483647,2147483647,2147483647,2147483647],"split_type":[0,0,0,0,0,0,0,0,0,0,0,0,0,0,0,0,0,0,0,0,0,0,0],"sum_hessian":[1.39E2,3.6E1,1.03E2,3.5E1,1E0,6.8E1,3.5E1,3.2E1,3E0,5E1,1.8E1,5E0,3E1,2.6E1,6E0,4.2E1,8E0,1E1,8E0,3E0,2E0,3E0,2.7E1],"tree_param":{"num_deleted":"12","num_feature":"9","num_nodes":"23","size_leaf_vector":"0"}},{"base_weights":[1.5710492E-2,-1.6054714E-3,8.2557976E-2,2.3759047E-2,-7.9518415E-2,2.6299542E-1,5.0385665E-2,2.3863623E-3,1.289254E-1,2.883966E-1,-1.0476117E-1,-3.329817E-2,1.08394764E-1,-4.100204E-2,9.283232E-2,-3.4623384E-2,1.441694E-1,-6.177431E-2,-2.7295113E-1,6.2801324E-2,-1.2384796E-1,-3.8752276E-2,1.8584351E-1],"categories":[],"categories_nodes":[],"categories_segments":[],"categories_sizes":[],"default_left":[1,1,1,1,1,1,1,1,1,1,1,1,1,1,1,1,1,1,1,1,1,1,1],"id":22,"left_children":[-1,-1,-1,-1,-1,-1,-1,-1,-1,-1,-1,-1,-1,-1,-1,-1,-1,-1,-1,-1,-1,-1,-1],"loss_changes":[1.5755643E-1,2.1729773E-1,1.4929132E-1,1.8625037E-1,2.8096682E-1,0E0,1.2496995E-1,2.785077E-1,3.989558E-2,0E0,1.7111757E-1,1.0349749E-1,1.7814718E-1,0E0,0E0,0E0,0E0,0E0,0E0,0E0,0E0,0E0,0E0],"parents":[2147483647,0,0,1,1,2,2,3,3,4,4,6,6,7,7,8,8,10,10,11,11,12,12],"right_children":[-1,-1,-1,-1,-1,-1,-1,-1,-1,-1,-1,-1,-1,-1,-1,-1,-1,-1,-1,-1,-1,-1,-1],"split_conditions":[4.094981E-3,-4.1847033E-4,2.1518953E-2,6.192858E-3,-2.0726684E-2,6.8550445E-2,1.3133156E-2,6.220116E-4,3.3604745E-2,7.517133E-2,-2.7306274E-2,-8.679255E-3,2.825338E-2,-1.068729E-2,2.4196988E-2,-9.024676E-3,3.7578136E-2,-1.6101636E-2,-7.114543E-2,1.636933E-2,-3.22813E-2,-1.01008825E-2,4.84406E-2],"split_indices":[7,2147483647,2147483647,2147483647,2147483647,2147483647,2147483647,2147483647,2147483647,2147483647,2147483647,2147483647,2147483647,2147483647,2147483647,2147483647,2147483647,2147483647,2147483647,2147483647,2147483647,2147483647,2147483647],"split_type":[0,0,0,0,0,0,0,0,0,0,0,0,0,0,0,0,0,0,0,0,0,0,0],"sum_hessian":[1.35E2,1.08E2,2.7E1,8.2E1,2.6E1,3E0,2.4E1,6.9E1,1.3E1,1E0,2.5E1,1E1,1.4E1,4.7E1,2.2E1,1E0,1.2E1,2.1E1,4E0,5E0,5E0,5E0,9E0],"tree_param":{"num_deleted":"22","num_feature":"9","num_nodes":"23","size_leaf_vector":"0"}},{"base_weights":[1.4385386E-2,-5.445505E-2,3.1021446E-2,2.4250336E-2,-1.7829522E-1,1.4581166E-1,8.216957E-3,1.4914505E-1,-5.0625782E-2,-2.3205529E-1,4.2416733E-2,-1.4501703E-1,2.094056E-1,1.7491251E-2,-1.6592832E-1,-1.523304E-2,1.7908025E-1,-1.04323566E-1,4.541583E-2,6.46317E-2,-2.7722013E-1,1.7599082E-1,-1.1236572E-1,4.289949E-2,3.3414376E-1,2.2942798E-1,1.0312115E-2,-2.2109067E-1,2.7360559E-2],"categories":[],"categories_nodes":[],"categories_segments":[],"categories_sizes":[],"default_left":[1,1,1,1,1,1,1,1,1,1,1,0,1,1,1,1,1,1,1,1,1,1,1,0,0,1,1,1,1],"id":23,"left_children":[1,-1,5,-1,-1,11,-1,-1,-1,-1,-1,-1,23,-1,-1,-1,-1,-1,-1,-1,-1,-1,-1,-1,-1,-1,-1,-1,-1],"loss_changes":[1.6431245E-1,2.772366E-1,2.9984105E-1,1.7587997E-1,1.4036343E-1,3.8177127E-1,1.5956452E-1,3.7172765E-2,6.6624604E-2,1.3851556E-1,8.180011E-2,0E0,3.1798005E-1,1.3913572E-1,5.936052E-2,0E0,0E0,0E0,0E0,0E0,0E0,0E0,0E0,0E0,0E0,0E0,0E0,0E0,0E0],"parents":[2147483647,0,0,1,1,2,2,3,3,4,4,5,5,6,6,7,7,8,8,9,9,10,10,12,12,13,13,14,14],"right_children":[2,-1,6,-1,-1,12,-1,-1,-1,-1,-1,-1,24,-1,-1,-1,-1,-1,-1,-1,-1,-1,-1,-1,-1,-1,-1,-1,-1],"split_conditions":[1.2395603E1,-1.41938515E-2,1.9096865E1,6.320914E-3,-4.647312E-2,4.845089E0,2.1417714E-3,3.887505E-2,-1.3195744E-2,-6.048582E-2,1.1056033E-2,-3.779907E-2,1.5823261E1,4.5591407E-3,-4.324965E-2,-3.9705317E-3,4.667774E-2,-2.7192213E-2,1.1837755E-2,1.6846422E-2,-7.225816E-2,4.587247E-2,-2.928842E-2,1.1181865E-2,8.709545E-2,5.9801005E-2,2.6878798E-3,-5.7627868E-2,7.1316017E-3],"split_indices":[3,1,3,2147483647,2147483647,7,0,2147483647,2147483647,2147483647,2147483647,0,3,2147483647,2147483647,2147483647,2147483647,2147483647,2147483647,2147483647,2147483647,2147483647,2147483647,0,0,2147483647,2147483647,2147483647,2147483647],"split_type":[0,0,0,0,0,0,0,0,0,0,0,0,0,0,0,0,0,0,0,0,0,0,0,0,0,0,0,0,0],"sum_hessian":[1.41E2,2.7E1,1.14E2,1.7E1,1E1,1.8E1,9.6E1,6E0,1.1E1,8E0,2E0,3E0,1.5E1,9.2E1,4E0,1E0,5E0,7E0,4E0,1E0,7E0,1E0,1E0,7E0,8E0,2E0,9E1,3E0,1E0],"tree_param":{"num_deleted":"20","num_feature":"9","num_nodes":"29","size_leaf_vector":"0"}},{"base_weights":[6.2714578E-3,4.8379578E-2,-8.079661E-3,-1.5807467E-2,1.3361305E-1,-3.1859484E-2,4.765143E-2,3.1131908E-2,-2.3481762E-1,2.119386E-1,-1.5434828E-1,-1.5888851E-2,-2.5865883E-1,1.02679014E-1,-7.17382E-2,1.6131122E-1,-4.1359406E-2,5.652098E-2,3.020095E-1,-2.1944046E-3,-2.0433478E-1,-4.0763587E-2,7.527512E-2,-5.1258087E-2,-2.9769447E-1,-8.024017E-3,2.0482546E-1,-1.9646771E-1,6.494769E-2],"categories":[],"categories_nodes":[],"categories_segments":[],"categories_sizes":[],"default_left":[1,1,1,1,1,1,1,1,1,1,1,1,1,1,1,1,1,1,1,1,1,1,1,1,1,1,1,1,1],"id":24,"left_children":[1,3,-1,-1,9,-1,-1,-1,-1,-1,-1,-1,-1,-1,-1,-1,-1,-1,-1,-1,-1,-1,-1,-1,-1,-1,-1,-1,-1],"loss_changes":[8.8014185E-2,2.0453483E-1,1.4597316E-1,2.3347472E-1,3.9358804E-1,2.747941E-1,2.2416687E-1,1.8597224E-1,0E0,1.6491199E-1,2.9974155E-2,1.6860911E-1,2.5220871E-2,2.617257E-1,2.0029654E-1,0E0,0E0,0E0,0E0,0E0,0E0,0E0,0E0,0E0,0E0,0E0,0E0,0E0,0E0],"parents":[2147483647,0,0,1,1,2,2,3,3,4,4,5,5,6,6,7,7,9,9,10,10,11,11,12,12,13,13,14,14],"right_children":[2,4,-1,-1,10,-1,-1,-1,-1,-1,-1,-1,-1,-1,-1,-1,-1,-1,-1,-1,-1,-1,-1,-1,-1,-1,-1,-1,-1],"split_conditions":[1.1435639E1,1.2949876E1,-2.1059848E-3,-4.1202577E-3,2.5E0,-8.304258E-3,1.242047E-2,8.114614E-3,-6.120583E-2,5.5242356E-2,-4.0231287E-2,-4.141471E-3,-6.74201E-2,2.6763555E-2,-1.869875E-2,4.2046197E-2,-1.0780438E-2,1.4732342E-2,7.871957E-2,-5.7197735E-4,-5.3260397E-2,-1.0625136E-2,1.9620659E-2,-1.3360555E-2,-7.759485E-2,-2.0914811E-3,5.3388294E-2,-5.1209826E-2,1.6928786E-2],"split_indices":[1,3,7,1,5,2147483647,2147483647,2147483647,2147483647,1,1,2147483647,2147483647,2147483647,2147483647,2147483647,2147483647,2147483647,2147483647,2147483647,2147483647,2147483647,2147483647,2147483647,2147483647,2147483647,2147483647,2147483647,2147483647],"split_type":[0,0,0,0,0,0,0,0,0,0,0,0,0,0,0,0,0,0,0,0,0,0,0,0,0,0,0,0,0],"sum_hessian":[1.44E2,3.6E1,1.08E2,2.1E1,1.5E1,7.6E1,3.2E1,1.8E1,3E0,1.2E1,3E0,7.2E1,4E0,2.2E1,1E1,6E0,1.2E1,5E0,7E0,1E0,2E0,5.7E1,1.5E1,1E0,3E0,1.1E1,1.1E1,5E0,5E0],"tree_param":{"num_deleted":"22","num_feature":"9","num_nodes":"29","size_leaf_vector":"0"}},{"base_weights":[4.2595104E-3,4.6361458E-2,-1.1164851E-2,-1.6175244E-2,9.775666E-2,-5.749948E-2,2.5149688E-2,1.3037266E-1,-1.0031358E-1,2.8838873E-1,4.996305E-2,-8.3468035E-2,1.2953556E-1,1.03067696E-1,-1.1572065E-2,-1.1086869E-1,1.8905766E-1,-1.5962029E-1,5.820489E-2,1.0078251E-1,-4.429361E-2,-4.1212328E-2,-1.8215163E-1,2.662139E-1,-5.3570867E-3,-5.4702044E-2,1.4878644E-1,4.0085603E-2,-1.397519E-1],"categories":[],"categories_nodes":[],"categories_segments":[],"categories_sizes":[],"default_left":[1,1,1,1,1,1,1,1,1,1,1,1,1,1,1,1,1,1,1,1,1,1,1,1,1,1,1,1,1],"id":25,"left_children":[-1,-1,-1,-1,-1,-1,-1,-1,-1,-1,-1,-1,-1,-1,-1,-1,-1,-1,-1,-1,-1,-1,-1,-1,-1,-1,-1,-1,-1],"loss_changes":[9.20824E-2,1.23716526E-1,1.7643864E-1,2.350235E-1,1.7692211E-1,2.3423542E-1,1.7000858E-1,1.2006134E-1,1.2210517E-1,0E0,9.068534E-2,1.6346088E-1,1.1204755E-1,1.4518656E-1,2.7708232E-1,0E0,0E0,0E0,0E0,0E0,0E0,0E0,0E0,0E0,0E0,0E0,0E0,0E0,0E0],"parents":[2147483647,0,0,1,1,2,2,3,3,4,4,5,5,6,6,7,7,8,8,10,10,11,11,12,12,13,13,14,14],"right_children":[-1,-1,-1,-1,-1,-1,-1,-1,-1,-1,-1,-1,-1,-1,-1,-1,-1,-1,-1,-1,-1,-1,-1,-1,-1,-1,-1,-1,-1],"split_conditions":[1.1102526E-3,1.2084236E-2,-2.9101477E-3,-4.21612E-3,2.5480531E-2,-1.49873905E-2,6.5553323E-3,3.3981975E-2,-2.6146999E-2,7.516928E-2,1.3023E-2,-2.1756163E-2,3.3763785E-2,2.6864866E-2,-3.016289E-3,-2.8898217E-2,4.927838E-2,-4.1605446E-2,1.5171258E-2,2.6269227E-2,-1.1545246E-2,-1.0742102E-2,-4.7478303E-2,6.938935E-2,-1.3963387E-3,-1.4258232E-2,3.8781576E-2,1.0448418E-2,-3.64267E-2],"split_indices":[8,2147483647,2147483647,2147483647,2147483647,2147483647,2147483647,2147483647,2147483647,2147483647,2147483647,2147483647,2147483647,2147483647,2147483647,2147483647,2147483647,2147483647,2147483647,2147483647,2147483647,2147483647,2147483647,2147483647,2147483647,2147483647,2147483647,2147483647,2147483647],"split_type":[0,0,0,0,0,0,0,0,0,0,0,0,0,0,0,0,0,0,0,0,0,0,0,0,0,0,0,0,0],"sum_hessian":[1.4E2,3.7E1,1.03E2,1.7E1,2E1,4.5E1,5.8E1,6E0,1.1E1,3E0,1.7E1,4E1,5E0,1.8E1,4E1,1E0,5E0,8E0,3E0,1.1E1,6E0,2.9E1,1.1E1,2E0,3E0,4E0,1.4E1,2.9E1,1.1E1],"tree_param":{"num_deleted":"28","num_feature":"9","num_nodes":"29","size_leaf_vector":"0"}},{"base_weights":[1.8979091E-3,-3.1932374E-3,1.2122353E-1,3.755051E-3,-1.9293769E-1,1.4971809E-1,-1.0624647E-2,-3.541217E-4,2.8130126E-1,1.656106E-2,-4.7800764E-2],"categories":[],"categories_nodes":[],"categories_segments":[],"categories_sizes":[],"default_left":[1,1,1,1,1,1,1,1,1,1,1],"id":26,"left_children":[-1,-1,-1,-1,-1,-1,-1,-1,-1,-1,-1],"loss_changes":[8.908271E-2,1.8661878E-1,2.4132445E-2,1.563461E-1,0E0,0E0,0E0,1.0994096E-1,0E0,0E0,0E0],"parents":[2147483647,0,0,1,1,2,2,3,3,7,7],"right_children":[-1,-1,-1,-1,-1,-1,-1,-1,-1,-1,-1],"split_conditions":[4.94695E-4,-8.323257E-4,3.1597234E-2,9.787639E-4,-5.0289717E-2,3.9024413E-2,-2.7693422E-3,-9.2302755E-5,7.3321916E-2,4.316684E-3,-1.2459395E-2],"split_indices":[7,2147483647,2147483647,2147483647,2147483647,2147483647,2147483647,2147483647,2147483647,2147483647,2147483647],"split_type":[0,0,0,0,0,0,0,0,0,0,0],"sum_hessian":[1.45E2,1.4E2,5E0,1.36E2,4E0,4E0,1E0,1.35E2,1E0,1E2,3.5E1],"tree_param":{"num_deleted":"10","num_feature":"9","num_nodes":"11","size_leaf_vector":"0"}},{"base_weights":[-4.2971526E-3,5.9855293E-2,-2.250292E-2,9.454789E-2,-1.394558E-1,-4.6806026E-2,4.947414E-2,1.2192921E-1,-5.031576E-2,-1.8972142E-1,-4.27049E-2,1.6278468E-2,-9.183001E-2,-9.44345E-3,1.7490499E-1,2.9064456E-2,2.0463319E-1,-1.4255905E-1,5.8699448E-2,-3.1175336E-2,1.8033198E-1,1.3210416E-2,-1.23415284E-1,1.1350123E-1,-5.7991758E-2,3.2552528E-1,4.5340616E-2],"categories":[],"categories_nodes":[],"categories_segments":[],"categories_sizes":[],"default_left":[1,1,1,1,1,1,1,1,1,1,1,1,1,1,1,1,1,1,1,1,1,1,1,1,1,1,1],"id":27,"left_children":[-1,-1,-1,-1,-1,-1,-1,-1,-1,-1,-1,-1,-1,-1,-1,-1,-1,-1,-1,-1,-1,-1,-1,-1,-1,-1,-1],"loss_changes":[1.636912E-1,2.2753845E-1,1.9298568E-1,1.1323202E-1,1.6214192E-2,2.3440072E-1,2.0857403E-1,1.7069903E-1,5.8647744E-2,0E0,0E0,2.780956E-1,1.6088146E-1,1.2595725E-1,1.6087568E-1,0E0,0E0,0E0,0E0,0E0,0E0,0E0,0E0,0E0,0E0,0E0,0E0],"parents":[2147483647,0,0,1,1,2,2,3,3,4,4,5,5,6,6,7,7,8,8,11,11,12,12,13,13,14,14],"right_children":[-1,-1,-1,-1,-1,-1,-1,-1,-1,-1,-1,-1,-1,-1,-1,-1,-1,-1,-1,-1,-1,-1,-1,-1,-1,-1,-1],"split_conditions":[-1.1200642E-3,1.5601439E-2,-5.8654454E-3,2.4644157E-2,-3.634952E-2,-1.2200114E-2,1.2895565E-2,3.178117E-2,-1.3114936E-2,-4.945139E-2,-1.1131144E-2,4.2430256E-3,-2.3935733E-2,-2.46146E-3,4.5589447E-2,7.575727E-3,5.333818E-2,-3.7158392E-2,1.5300166E-2,-8.125933E-3,4.7004003E-2,3.4433296E-3,-3.216852E-2,2.9584395E-2,-1.5115704E-2,8.484902E-2,1.1818151E-2],"split_indices":[8,2147483647,2147483647,2147483647,2147483647,2147483647,2147483647,2147483647,2147483647,2147483647,2147483647,2147483647,2147483647,2147483647,2147483647,2147483647,2147483647,2147483647,2147483647,2147483647,2147483647,2147483647,2147483647,2147483647,2147483647,2147483647,2147483647],"split_type":[0,0,0,0,0,0,0,0,0,0,0,0,0,0,0,0,0,0,0,0,0,0,0,0,0,0,0],"sum_hessian":[1.38E2,3E1,1.08E2,2.6E1,4E0,8.1E1,2.7E1,2.2E1,4E0,2E0,2E0,3.4E1,4.7E1,1.9E1,8E0,1.1E1,1.1E1,2E0,2E0,2.7E1,7E0,1.1E1,3.6E1,5E0,1.4E1,3E0,5E0],"tree_param":{"num_deleted":"26","num_feature":"9","num_nodes":"27","size_leaf_vector":"0"}},{"base_weights":[6.8020727E-3,1.6768022E-3,1.4894924E-1,-1.5677577E-2,5.2247163E-2,2.3504233E-1,-9.771156E-2,-4.0115104E-3,-2.481966E-1,2.8631687E-1,3.0057272E-2,9.309769E-2,3.3043814E-1,6.7279674E-2,-2.589583E-2,-5.0447583E-2,-2.8502196E-1,-2.2340292E-2,1.2798117E-1],"categories":[],"categories_nodes":[],"categories_segments":[],"categories_sizes":[],"default_left":[1,1,1,1,1,1,1,1,1,1,1,1,1,1,1,1,1,1,1],"id":28,"left_children":[-1,-1,-1,-1,-1,-1,-1,-1,-1,-1,-1,-1,-1,-1,-1,-1,-1,-1,-1],"loss_changes":[1.046604E-1,1.2368552E-1,1.2914531E-1,2.8382552E-1,1.7837742E-1,2.3400664E-2,0E0,1.5931834E-1,2.2032201E-2,0E0,1.7731223E-1,0E0,0E0,0E0,0E0,0E0,0E0,0E0,0E0],"parents":[2147483647,0,0,1,1,2,2,3,3,4,4,5,5,7,7,8,8,10,10],"right_children":[-1,-1,-1,-1,-1,-1,-1,-1,-1,-1,-1,-1,-1,-1,-1,-1,-1,-1,-1],"split_conditions":[1.7729781E-3,4.370629E-4,3.882401E-2,-4.086402E-3,1.361836E-2,6.1264403E-2,-2.5468776E-2,-1.0456108E-3,-6.46931E-2,7.462925E-2,7.834507E-3,2.4266157E-2,8.612957E-2,1.7536623E-2,-6.7498162E-3,-1.3149295E-2,-7.429172E-2,-5.8230557E-3,3.335863E-2],"split_indices":[6,2147483647,2147483647,2147483647,2147483647,2147483647,2147483647,2147483647,2147483647,2147483647,2147483647,2147483647,2147483647,2147483647,2147483647,2147483647,2147483647,2147483647,2147483647],"split_type":[0,0,0,0,0,0,0,0,0,0,0,0,0,0,0,0,0,0,0],"sum_hessian":[1.43E2,1.39E2,4E0,1.04E2,3.5E1,3E0,1E0,1E2,4E0,2E0,3.3E1,2E0,1E0,2.3E1,7.7E1,1E0,3E0,2.2E1,1.1E1],"tree_param":{"num_deleted":"18","num_feature":"9","num_nodes":"19","size_leaf_vector":"0"}},{"base_weights":[3.1430027E-3,-7.262461E-3,1.0615545E-1,-3.5060048E-2,3.199456E-2,1.8996365E-1,-6.593041E-2,1.6877195E-2,-1.1981617E-1,1.437452E-1,-1.884111E-2,-2.003193E-3,2.8628096E-1,-1.5624984E-1,4.6365816E-2,-3.332049E-2,1.0239114E-1,1.8842442E-2,-1.5680721E-1,-7.183647E-2,2.156039E-1,1.9403374E-1,-4.2631347E-2,-2.687645E-2,3.630829E-2,3.6330736E-1,8.815209E-2],"categories":[],"categories_nodes":[],"categories_segments":[],"categories_sizes":[],"default_left":[1,1,1,1,1,1,1,1,1,1,1,1,1,1,1,1,1,1,1,1,1,1,1,1,1,1,1],"id":29,"left_children":[1,3,-1,7,9,-1,-1,-1,-1,-1,-1,-1,-1,-1,-1,-1,-1,-1,-1,-1,-1,-1,-1,-1,-1,-1,-1],"loss_changes":[1.5190776E-1,1.4189304E-1,2.0001307E-1,3.365741E-1,3.094779E-1,1.6698104E-1,5.7957307E-2,2.0945661E-1,1.5169933E-1,2.7884236E-1,2.0071697E-1,4.787563E-3,5.954063E-2,0E0,0E0,0E0,0E0,0E0,0E0,0E0,0E0,0E0,0E0,0E0,0E0,0E0,0E0],"parents":[2147483647,0,0,1,1,2,2,3,3,4,4,5,5,6,6,7,7,8,8,9,9,10,10,11,11,12,12],"right_children":[2,4,-1,8,10,-1,-1,-1,-1,-1,-1,-1,-1,-1,-1,-1,-1,-1,-1,-1,-1,-1,-1,-1,-1,-1,-1],"split_conditions":[3.5E0,2.465E2,2.7669696E-2,1.555E2,2.605E2,4.9514525E-2,-1.7184936E-2,4.3990854E-3,-3.12304E-2,3.7467565E-2,-4.910985E-3,-5.221375E-4,7.461989E-2,-4.072693E-2,1.2085372E-2,-8.685074E-3,2.668852E-2,4.911332E-3,-4.0872212E-2,-1.8724365E-2,5.6197725E-2,5.0575405E-2,-1.1111973E-2,-7.0054173E-3,9.463851E-3,9.469702E-2,2.2977075E-2],"split_indices":[0,8,3,8,8,2147483647,2147483647,3,1,3,1,2147483647,2147483647,2147483647,2147483647,2147483647,2147483647,2147483647,2147483647,2147483647,2147483647,2147483647,2147483647,2147483647,2147483647,2147483647,2147483647],"split_type":[0,0,0,0,0,0,0,0,0,0,0,0,0,0,0,0,0,0,0,0,0,0,0,0,0,0,0],"sum_hessian":[1.4E2,1.28E2,1.2E1,7.5E1,5.3E1,8E0,4E0,4.7E1,2.8E1,1.6E1,3.7E1,3E0,5E0,2E0,2E0,3E1,1.7E1,6E0,2.2E1,4E0,1.2E1,3E0,3.4E1,2E0,1E0,3E0,2E0],"tree_param":{"num_deleted":"18","num_feature":"9","num_nodes":"27","size_leaf_vector":"0"}},{"base_weights":[1.9557783E-3,-3.0574799E-3,1.449438E-1,4.2762317E-2,-1.94546E-2,2.2925091E-1,-9.614229E-2,2.8073323E-1,1.43438615E-2,-1.0241569E-1,3.492537E-3,9.519005E-2,3.1571674E-1,-1.4517472E-2,1.3186312E-1,-1.8908331E-1,5.3409867E-2,1.4642079E-1,-1.3479132E-2],"categories":[],"categories_nodes":[],"categories_segments":[],"categories_sizes":[],"default_left":[1,1,1,1,1,1,1,1,1,1,1,1,1,1,1,0,0,1,1],"id":30,"left_children":[1,3,-1,-1,9,-1,-1,-1,-1,15,-1,-1,-1,-1,-1,-1,-1,-1,-1],"loss_changes":[1.0581804E-1,1.0826965E-1,1.23667054E-1,2.5295833E-1,2.0215195E-1,1.6313642E-2,0E0,0E0,1.20626E-1,3.2071456E-1,2.0573504E-1,0E0,0E0,0E0,0E0,0E0,0E0,0E0,0E0],"parents":[2147483647,0,0,1,1,2,2,3,3,4,4,5,5,8,8,9,9,10,10],"right_children":[2,4,-1,-1,10,-1,-1,-1,-1,16,-1,-1,-1,-1,-1,-1,-1,-1,-1],"split_conditions":[1.8499441E1,5.269165E-1,3.7779983E-2,1.11461105E-2,6.8050003E-1,5.9754852E-2,-2.5059741E-2,7.317386E-2,3.7387651E-3,4.1319263E1,9.1033895E-4,2.4811536E-2,8.22924E-2,-3.7840174E-3,3.4370467E-2,-4.928506E-2,1.3921422E-2,3.8164966E-2,-3.5133713E-3],"split_indices":[6,6,1,7,6,2147483647,2147483647,2147483647,2147483647,3,1,2147483647,2147483647,2147483647,2147483647,0,0,2147483647,2147483647],"split_type":[0,0,0,0,0,0,0,0,0,0,0,0,0,0,0,0,0,0,0],"sum_hessian":[1.46E2,1.42E2,4E0,3.7E1,1.05E2,3E0,1E0,3E0,3.4E1,2.2E1,8.3E1,2E0,1E0,2.8E1,6E0,1.4E1,8E0,8E0,7.5E1],"tree_param":{"num_deleted":"10","num_feature":"9","num_nodes":"19","size_leaf_vector":"0"}},{"base_weights":[-2.156763E-3,-1.8090487E-1,1.688959E-3,7.923489E-2,-6.199995E-3,-9.456832E-2,2.4171884E-1,-8.115535E-2,6.8032024E-3,-1.4120865E-1,9.263682E-2,3.217601E-1,2.7743816E-2,6.121245E-2,-1.6930427E-1,-1.7033252E-1,1.50944805E-2],"categories":[],"categories_nodes":[],"categories_segments":[],"categories_sizes":[],"default_left":[1,0,1,1,1,1,1,1,1,1,1,1,1,1,1,1,1],"id":31,"left_children":[1,-1,3,5,-1,-1,-1,-1,-1,-1,-1,-1,-1,-1,-1,-1,-1],"loss_changes":[9.791854E-2,0E0,8.613714E-2,3.8998196E-1,1.253085E-1,7.420028E-2,1.109609E-1,2.4880531E-1,1.6412605E-1,0E0,0E0,0E0,0E0,0E0,0E0,0E0,0E0],"parents":[2147483647,0,0,2,2,3,3,4,4,5,5,6,6,7,7,8,8],"right_children":[2,-1,4,6,-1,-1,-1,-1,-1,-1,-1,-1,-1,-1,-1,-1,-1],"split_conditions":[1.475E-1,-4.7153328E-2,5.2701235E0,1.5E0,-1.616045E-3,-2.4649482E-2,6.300465E-2,-2.1153357E-2,1.7732726E-3,-3.6806405E-2,2.4146032E-2,8.386762E-2,7.2314986E-3,1.5955186E-2,-4.4129603E-2,-4.439762E-2,3.934416E-3],"split_indices":[6,0,1,5,3,3,0,2147483647,2147483647,2147483647,2147483647,2147483647,2147483647,2147483647,2147483647,2147483647,2147483647],"split_type":[0,0,0,0,0,0,0,0,0,0,0,0,0,0,0,0,0],"sum_hessian":[1.41E2,2E0,1.39E2,1.2E1,1.27E2,6E0,6E0,1.8E1,1.09E2,5E0,1E0,4E0,2E0,7E0,1.1E1,4E0,1.05E2],"tree_param":{"num_deleted":"10","num_feature":"9","num_nodes":"17","size_leaf_vector":"0"}},{"base_weights":[2.8257445E-3,1.8377264E-1,-1.016977E-3,2.1822E-1,5.743897E-2,-9.249172E-3,7.490946E-2,1.035374E-2,-8.368809E-2,5.125182E-3,1.2660703E-1,-1.3618745E-2,1.2431374E-1,-1.1471316E-1,1.2338436E-1,-2.6256943E-2,5.572033E-2,1.4512655E-1,-1.5147924E-3],"categories":[],"categories_nodes":[],"categories_segments":[],"categories_sizes":[],"default_left":[1,1,1,1,1,1,1,1,1,1,1,1,1,1,1,1,1,1,1],"id":32,"left_children":[-1,-1,-1,-1,-1,-1,-1,-1,-1,-1,-1,-1,-1,-1,-1,-1,-1,-1,-1],"loss_changes":[1.003142E-1,5.2125007E-4,8.944872E-2,0E0,0E0,1.8910581E-1,4.9858585E-2,2.8307915E-1,1.8761362E-1,1.2577527E-2,1.9201875E-2,0E0,0E0,0E0,0E0,0E0,0E0,0E0,0E0],"parents":[2147483647,0,0,1,1,2,2,5,5,6,6,7,7,8,8,9,9,10,10],"right_children":[-1,-1,-1,-1,-1,-1,-1,-1,-1,-1,-1,-1,-1,-1,-1,-1,-1,-1,-1],"split_conditions":[7.3653774E-4,4.7900822E-2,-2.6507775E-4,5.6879617E-2,1.4971619E-2,-2.4108212E-3,1.952535E-2,2.6987297E-3,-2.1813521E-2,1.3358922E-3,3.3000454E-2,-3.5497616E-3,3.2402705E-2,-2.9900288E-2,3.2160457E-2,-6.8439413E-3,1.45236505E-2,3.782762E-2,-3.9483464E-4],"split_indices":[6,2147483647,2147483647,2147483647,2147483647,2147483647,2147483647,2147483647,2147483647,2147483647,2147483647,2147483647,2147483647,2147483647,2147483647,2147483647,2147483647,2147483647,2147483647],"split_type":[0,0,0,0,0,0,0,0,0,0,0,0,0,0,0,0,0,0,0],"sum_hessian":[1.43E2,2E0,1.41E2,1E0,1E0,1.28E2,1.3E1,1.02E2,2.6E1,6E0,7E0,8.5E1,1.7E1,2.3E1,3E0,4E0,2E0,6E0,1E0],"tree_param":{"num_deleted":"18","num_feature":"9","num_nodes":"19","size_leaf_vector":"0"}},{"base_weights":[2.8864283E-3,-3.022058E-3,2.0157623E-1,3.4299113E-2,-2.5379207E-2,7.059034E-2,2.9726696E-1,1.5761131E-1,-7.6844203E-3,-4.1528076E-2,7.632043E-2,2.0393163E-2,3.143003E-1,-7.2505705E-2,8.0466986E-2,-5.593522E-3,-1.616855E-1,1.2345669E-1,-1.4361667E-2],"categories":[],"categories_nodes":[],"categories_segments":[],"categories_sizes":[],"default_left":[1,1,1,1,1,1,1,1,1,1,1,1,1,1,1,0,0,1,1],"id":33,"left_children":[1,3,-1,-1,9,-1,-1,-1,-1,15,-1,-1,-1,-1,-1,-1,-1,-1,-1],"loss_changes":[1.626151E-1,1.13513805E-1,2.9152378E-2,2.6524234E-1,1.4276785E-1,0E0,0E0,2.7309787E-1,2.2868372E-1,3.1861305E-1,5.3066015E-2,0E0,0E0,0E0,0E0,0E0,0E0,0E0,0E0],"parents":[2147483647,0,0,1,1,2,2,3,3,4,4,7,7,8,8,9,9,10,10],"right_children":[2,4,-1,-1,10,-1,-1,-1,-1,16,-1,-1,-1,-1,-1,-1,-1,-1,-1],"split_conditions":[1.8499441E1,1.555E2,5.2541375E-2,8.940154E-3,7.05E1,1.8399557E-2,7.7483416E-2,4.10818E-2,-2.0029645E-3,5.55E1,1.9893121E-2,5.3155315E-3,8.19232E-2,-1.8898804E-2,2.0973932E-2,-1.4579663E-3,-4.214375E-2,3.217931E-2,-3.7434064E-3],"split_indices":[6,8,0,4,4,2147483647,2147483647,2147483647,2147483647,4,3,2147483647,2147483647,2147483647,2147483647,0,0,2147483647,2147483647],"split_type":[0,0,0,0,0,0,0,0,0,0,0,0,0,0,0,0,0,0,0],"sum_hessian":[1.37E2,1.34E2,3E0,5E1,8.4E1,2E0,1E0,1.2E1,3.8E1,7.3E1,1.1E1,7E0,5E0,2.2E1,1.6E1,5.7E1,1.6E1,7E0,4E0],"tree_param":{"num_deleted":"10","num_feature":"9","num_nodes":"19","size_leaf_vector":"0"}},{"base_weights":[-4.6053197E-4,1.8425362E-1,-4.3597003E-3,5.7799697E-2,2.1858072E-1,-1.9641511E-2,3.7981085E-2,-4.624116E-4,-2.241672E-1,2.674853E-1,1.7800706E-2,-1.985676E-2,5.3262804E-2,1.6477263E-1,-2.9338127E-1,-3.0708069E-2,1.1737726E-1],"categories":[],"categories_nodes":[],"categories_segments":[],"categories_sizes":[],"default_left":[1,1,1,1,1,1,1,1,1,1,1,1,1,1,1,1,1],"id":34,"left_children":[1,-1,5,-1,-1,7,-1,-1,-1,-1,-1,-1,-1,-1,-1,-1,-1],"loss_changes":[1.0451664E-1,3.8848817E-4,9.262624E-2,0E0,0E0,4.117713E-1,1.7123492E-1,1.0212828E-1,2.9062217E-1,0E0,1.7749655E-1,0E0,0E0,0E0,0E0,0E0,0E0],"parents":[2147483647,0,0,1,1,2,2,5,5,6,6,7,7,8,8,10,10],"right_children":[2,-1,6,-1,-1,8,-1,-1,-1,-1,-1,-1,-1,-1,-1,-1,-1],"split_conditions":[1.363395E-1,4.802619E-2,1.7620941E1,1.5065643E-2,5.697364E-2,1.4878778E1,9.89987E-3,-1.20528806E-4,-5.842977E-2,6.9720745E-2,4.6398006E-3,-5.1757167E-3,1.388309E-2,4.294842E-2,-7.64706E-2,-8.004139E-3,3.0594692E-2],"split_indices":[6,0,7,2147483647,2147483647,7,7,7,3,2147483647,2147483647,2147483647,2147483647,2147483647,2147483647,2147483647,2147483647],"split_type":[0,0,0,0,0,0,0,0,0,0,0,0,0,0,0,0,0],"sum_hessian":[1.43E2,2E0,1.41E2,1E0,1E0,1.04E2,3.7E1,9.6E1,8E0,2E0,3.5E1,7.1E1,2.5E1,1E0,7E0,2.4E1,1.1E1],"tree_param":{"num_deleted":"10","num_feature":"9","num_nodes":"17","size_leaf_vector":"0"}},{"base_weights":[3.7573474E-3,-2.1122646E-2,3.3632383E-2,-1.34526035E-2,-3.0202293E-1,1.11903235E-1,2.9407258E-3,-1.7053969E-1,1.18353E-5,3.352086E-2,3.0899325E-1,-4.0956575E-2,9.931874E-2,-2.8223991E-2,-2.3464155E-1,7.558834E-2,-3.324206E-2,1.6337743E-1,-3.475951E-2,3.6604106E-1,4.0400982E-2,-1.6683087E-2,-2.7813044E-1,-2.7858814E-2,1.656934E-1],"categories":[],"categories_nodes":[],"categories_segments":[],"categories_sizes":[],"default_left":[1,1,1,1,1,1,1,1,1,1,1,1,1,1,1,1,1,1,1,1,1,1,1,1,1],"id":35,"left_children":[-1,-1,-1,-1,-1,-1,-1,-1,-1,-1,-1,-1,-1,-1,-1,-1,-1,-1,-1,-1,-1,-1,-1,-1,-1],"loss_changes":[1.0477109E-1,1.6183482E-1,1.5341571E-1,1.6074884E-1,0E0,2.6771316E-1,2.0291232E-1,4.8113674E-2,1.8095084E-1,1.2981209E-1,6.182459E-2,1.8534216E-1,1.3123652E-1,0E0,0E0,0E0,0E0,0E0,0E0,0E0,0E0,0E0,0E0,0E0,0E0],"parents":[2147483647,0,0,1,1,2,2,3,3,5,5,6,6,7,7,8,8,9,9,10,10,11,11,12,12],"right_children":[-1,-1,-1,-1,-1,-1,-1,-1,-1,-1,-1,-1,-1,-1,-1,-1,-1,-1,-1,-1,-1,-1,-1,-1,-1],"split_conditions":[9.793625E-4,-5.505673E-3,8.766369E-3,-3.5064565E-3,-7.872307E-2,2.9167872E-2,7.6650793E-4,-4.445162E-2,3.0849021E-6,8.7373E-3,8.0539905E-2,-1.067544E-2,2.5887692E-2,-7.3566576E-3,-6.115994E-2,1.9702299E-2,-8.664631E-3,4.258476E-2,-9.060157E-3,9.5409565E-2,1.0530623E-2,-4.3484904E-3,-7.249543E-2,-7.261473E-3,4.3188423E-2],"split_indices":[3,2147483647,2147483647,2147483647,2147483647,2147483647,2147483647,2147483647,2147483647,2147483647,2147483647,2147483647,2147483647,2147483647,2147483647,2147483647,2147483647,2147483647,2147483647,2147483647,2147483647,2147483647,2147483647,2147483647,2147483647],"split_type":[0,0,0,0,0,0,0,0,0,0,0,0,0,0,0,0,0,0,0,0,0,0,0,0,0],"sum_hessian":[1.39E2,7.6E1,6.3E1,7.5E1,1E0,1.7E1,4.6E1,5E0,7E1,1.3E1,4E0,3.2E1,1.4E1,2E0,3E0,2.1E1,4.9E1,4E0,9E0,3E0,1E0,3E1,2E0,5E0,9E0],"tree_param":{"num_deleted":"24","num_feature":"9","num_nodes":"25","size_leaf_vector":"0"}},{"base_weights":[3.866941E-4,-4.6271384E-2,1.1645655E-2,4.9365778E-2,-1.21084616E-1,7.85562E-2,-2.2703926E-3,2.210582E-1,-1.9472296E-3,-3.0344427E-2,-1.8828872E-1,-3.1506825E-2,1.7147203E-1,1.9473363E-2,-6.2396545E-2,-1.4160323E-1,6.8124175E-2,-8.808664E-2,9.5254816E-2,-2.6191506E-1,4.626902E-2,-7.270108E-2,1.6962075E-1,-1.7058516E-1,2.2273627E-1,2.9752348E-3,1.3462967E-1,-1.0983935E-1,1.1405269E-1],"categories":[],"categories_nodes":[],"categories_segments":[],"categories_sizes":[],"default_left":[1,1,1,1,1,1,1,1,1,1,1,1,1,1,1,1,1,1,1,1,1,1,1,1,1,1,1,1,1],"id":36,"left_children":[-1,-1,-1,-1,-1,-1,-1,-1,-1,-1,-1,-1,-1,-1,-1,-1,-1,-1,-1,-1,-1,-1,-1,-1,-1,-1,-1,-1,-1],"loss_changes":[7.5659834E-2,2.0631535E-1,1.0818948E-1,1.1496117E-1,9.1856286E-2,2.0993447E-1,1.280298E-1,0E0,1.1729142E-1,6.640971E-2,1.6754523E-1,9.5184624E-2,2.3088378E-1,1.3638961E-1,2.301799E-1,0E0,0E0,0E0,0E0,0E0,0E0,0E0,0E0,0E0,0E0,0E0,0E0,0E0,0E0],"parents":[2147483647,0,0,1,1,2,2,3,3,4,4,5,5,6,6,8,8,9,9,10,10,11,11,12,12,13,13,14,14],"right_children":[-1,-1,-1,-1,-1,-1,-1,-1,-1,-1,-1,-1,-1,-1,-1,-1,-1,-1,-1,-1,-1,-1,-1,-1,-1,-1,-1,-1,-1],"split_conditions":[1.0079284E-4,-1.2060758E-2,3.0354706E-3,1.2867319E-2,-3.1561024E-2,2.0475881E-2,-5.917838E-4,5.7619404E-2,-5.0755055E-4,-7.909355E-3,-4.907795E-2,-8.212337E-3,4.4694636E-2,5.0757835E-3,-1.6263824E-2,-3.6909256E-2,1.7756745E-2,-2.2960015E-2,2.482842E-2,-6.826885E-2,1.2060141E-2,-1.8949728E-2,4.4212095E-2,-4.446347E-2,5.8056794E-2,7.7550276E-4,3.5091575E-2,-2.8629916E-2,2.9728133E-2],"split_indices":[3,2147483647,2147483647,2147483647,2147483647,2147483647,2147483647,2147483647,2147483647,2147483647,2147483647,2147483647,2147483647,2147483647,2147483647,2147483647,2147483647,2147483647,2147483647,2147483647,2147483647,2147483647,2147483647,2147483647,2147483647,2147483647,2147483647,2147483647,2147483647],"split_type":[0,0,0,0,0,0,0,0,0,0,0,0,0,0,0,0,0,0,0,0,0,0,0,0,0,0,0,0,0],"sum_hessian":[1.42E2,2.7E1,1.15E2,1.2E1,1.5E1,1.9E1,9.6E1,2E0,1E1,7E0,8E0,9E0,1E1,7.1E1,2.5E1,3E0,7E0,5E0,2E0,6E0,2E0,8E0,1E0,1E0,9E0,6.3E1,8E0,2E1,5E0],"tree_param":{"num_deleted":"28","num_feature":"9","num_nodes":"29","size_leaf_vector":"0"}},{"base_weights":[-2.0012576E-3,-4.775053E-2,9.757416E-3,3.9578557E-2,-1.21179074E-1,7.846049E-2,-4.964061E-3,2.2099113E-1,-9.0728E-3,-3.0432582E-2,-1.8837827E-1,-3.1597473E-2,1.7138042E-1,2.4645306E-2,-7.563776E-2,-1.4167869E-1,5.0871238E-2,-8.817061E-2,9.5187664E-2,-2.6200145E-1,4.6201866E-2,-7.279062E-2,1.6957045E-1,-1.7063546E-1,2.2264555E-1,-1.8658165E-2,6.477014E-2,-1.7090017E-1,-1.321974E-2],"categories":[],"categories_nodes":[],"categories_segments":[],"categories_sizes":[],"default_left":[1,1,1,1,1,1,1,1,1,1,1,1,1,1,1,1,1,1,1,1,1,1,1,1,1,1,1,1,1],"id":37,"left_children":[-1,-1,-1,-1,-1,-1,-1,-1,-1,-1,-1,-1,-1,-1,-1,-1,-1,-1,-1,-1,-1,-1,-1,-1,-1,-1,-1,-1,-1],"loss_changes":[7.631698E-2,1.9075707E-1,1.1467889E-1,1.2556855E-1,9.183663E-2,2.0994675E-1,1.9856884E-1,0E0,1.0259456E-1,6.641728E-2,1.6753975E-1,9.521054E-2,2.3085958E-1,1.17623985E-1,1.6423129E-1,0E0,0E0,0E0,0E0,0E0,0E0,0E0,0E0,0E0,0E0,0E0,0E0,0E0,0E0],"parents":[2147483647,0,0,1,1,2,2,3,3,4,4,5,5,6,6,8,8,9,9,10,10,11,11,12,12,13,13,14,14],"right_children":[-1,-1,-1,-1,-1,-1,-1,-1,-1,-1,-1,-1,-1,-1,-1,-1,-1,-1,-1,-1,-1,-1,-1,-1,-1,-1,-1,-1,-1],"split_conditions":[-5.216331E-4,-1.2446301E-2,2.5432962E-3,1.03162555E-2,-3.1585645E-2,2.0450933E-2,-1.2938955E-3,5.760192E-2,-2.3648492E-3,-7.932332E-3,-4.9101293E-2,-8.235964E-3,4.4670757E-2,6.423864E-3,-1.971518E-2,-3.6928922E-2,1.3259722E-2,-2.29819E-2,2.4810916E-2,-6.8291366E-2,1.2042638E-2,-1.8973067E-2,4.4198982E-2,-4.4476584E-2,5.803315E-2,-4.8633E-3,1.6882507E-2,-4.454558E-2,-3.44576E-3],"split_indices":[3,2147483647,2147483647,2147483647,2147483647,2147483647,2147483647,2147483647,2147483647,2147483647,2147483647,2147483647,2147483647,2147483647,2147483647,2147483647,2147483647,2147483647,2147483647,2147483647,2147483647,2147483647,2147483647,2147483647,2147483647,2147483647,2147483647,2147483647,2147483647],"split_type":[0,0,0,0,0,0,0,0,0,0,0,0,0,0,0,0,0,0,0,0,0,0,0,0,0,0,0,0,0],"sum_hessian":[1.4E2,2.8E1,1.12E2,1.3E1,1.5E1,1.9E1,9.3E1,2E0,1.1E1,7E0,8E0,9E0,1E1,6.6E1,2.7E1,3E0,8E0,5E0,2E0,6E0,2E0,8E0,1E0,1E0,9E0,3.2E1,3.4E1,1E1,1.7E1],"tree_param":{"num_deleted":"28","num_feature":"9","num_nodes":"29","size_leaf_vector":"0"}},{"base_weights":[2.891389E-3,-8.915144E-2,8.245048E-3,1.280222E-1,-1.8287969E-1,1.8654744E-1,4.2216983E-3,1.0260344E-2,1.8177295E-1,-2.3506033E-1,-5.2345593E-2,1.5186381E-1,8.5968274E-4,3.3507347E-2,1.9428837E-1,-8.957787E-3,4.8202273E-2],"categories":[],"categories_nodes":[],"categories_segments":[],"categories_sizes":[],"default_left":[1,1,1,1,1,1,1,1,1,1,1,1,1,1,1,1,1],"id":38,"left_children":[-1,-1,-1,-1,-1,-1,-1,-1,-1,-1,-1,-1,-1,-1,-1,-1,-1],"loss_changes":[7.169335E-2,1.862551E-1,9.749253E-2,1.7124306E-2,2.8563738E-2,0E0,6.688008E-2,0E0,0E0,0E0,0E0,8.553579E-3,6.2248114E-2,0E0,0E0,0E0,0E0],"parents":[2147483647,0,0,1,1,2,2,3,3,4,4,6,6,11,11,12,12],"right_children":[-1,-1,-1,-1,-1,-1,-1,-1,-1,-1,-1,-1,-1,-1,-1,-1,-1],"split_conditions":[7.536481E-4,-2.3237558E-2,2.1490934E-3,3.336932E-2,-4.7668073E-2,4.8624083E-2,1.1003967E-3,2.6743854E-3,4.7379598E-2,-6.1269093E-2,-1.3644016E-2,3.95837E-2,2.2407857E-4,8.733778E-3,5.0641775E-2,-2.3348709E-3,1.2564049E-2],"split_indices":[7,2147483647,2147483647,2147483647,2147483647,2147483647,2147483647,2147483647,2147483647,2147483647,2147483647,2147483647,2147483647,2147483647,2147483647,2147483647,2147483647],"split_type":[0,0,0,0,0,0,0,0,0,0,0,0,0,0,0,0,0],"sum_hessian":[1.43E2,7E0,1.36E2,2E0,5E0,2E0,1.34E2,1E0,1E0,3E0,2E0,2E0,1.32E2,1E0,1E0,1.1E2,2.2E1],"tree_param":{"num_deleted":"16","num_feature":"9","num_nodes":"17","size_leaf_vector":"0"}},{"base_weights":[3.309576E-3,-6.0000744E-2,1.89678E-2,-2.534025E-2,-2.1437097E-1,8.1537366E-2,2.0718297E-3,1.2290688E-1,-6.1135016E-2,-2.5107515E-1,-3.3777118E-2,-7.430363E-2,1.2645887E-1,1.278827E-1,-1.892321E-2,1.7860228E-1,-4.9937367E-2,-1.9500335E-1,-3.512017E-3,-1.2770283E-1,2.1663189E-2,2.0498957E-1,1.6425928E-2,2.9263514E-1,2.214437E-2,-1.1345625E-1,-1.6351541E-5],"categories":[],"categories_nodes":[],"categories_segments":[],"categories_sizes":[],"default_left":[1,1,1,1,1,1,1,1,1,1,1,1,1,1,1,1,1,1,1,1,1,1,1,1,1,1,1],"id":39,"left_children":[-1,-1,-1,-1,-1,-1,-1,-1,-1,-1,-1,-1,-1,-1,-1,-1,-1,-1,-1,-1,-1,-1,-1,-1,-1,-1,-1],"loss_changes":[1.3992389E-1,1.4438313E-1,1.1929168E-1,1.3486922E-1,2.4662152E-2,1.7741105E-1,2.4014634E-1,5.7052076E-2,1.5359303E-1,0E0,0E0,3.3513762E-2,1.6081116E-1,2.1998823E-1,1.3940932E-1,0E0,0E0,0E0,0E0,0E0,0E0,0E0,0E0,0E0,0E0,0E0,0E0],"parents":[2147483647,0,0,1,1,2,2,3,3,4,4,5,5,6,6,7,7,8,8,11,11,12,12,13,13,14,14],"right_children":[-1,-1,-1,-1,-1,-1,-1,-1,-1,-1,-1,-1,-1,-1,-1,-1,-1,-1,-1,-1,-1,-1,-1,-1,-1,-1,-1],"split_conditions":[8.626497E-4,-1.5639352E-2,4.944007E-3,-6.6050026E-3,-5.5876356E-2,2.1252928E-2,5.4002786E-4,3.2036003E-2,-1.5935004E-2,-6.54434E-2,-8.804095E-3,-1.9367436E-2,3.2961838E-2,3.3332963E-2,-4.9323845E-3,4.6553154E-2,-1.3016306E-2,-5.0828137E-2,-9.1541646E-4,-3.328608E-2,5.6465673E-3,5.343107E-2,4.2814612E-3,7.627612E-2,5.771988E-3,-2.957267E-2,-4.2620723E-6],"split_indices":[3,2147483647,2147483647,2147483647,2147483647,2147483647,2147483647,2147483647,2147483647,2147483647,2147483647,2147483647,2147483647,2147483647,2147483647,2147483647,2147483647,2147483647,2147483647,2147483647,2147483647,2147483647,2147483647,2147483647,2147483647,2147483647,2147483647],"split_type":[0,0,0,0,0,0,0,0,0,0,0,0,0,0,0,0,0,0,0,0,0,0,0,0,0,0,0],"sum_hessian":[1.39E2,2.7E1,1.12E2,2.3E1,4E0,2.3E1,8.9E1,4E0,1.9E1,3E0,1E0,5E0,1.8E1,1.2E1,7.7E1,3E0,1E0,5E0,1.4E1,3E0,2E0,1E1,8E0,4E0,8E0,1.2E1,6.5E1],"tree_param":{"num_deleted":"26","num_feature":"9","num_nodes":"27","size_leaf_vector":"0"}},{"base_weights":[4.096073E-4,-5.529656E-2,1.3969285E-2,4.002591E-2,-1.19330265E-1,7.742045E-2,6.0477975E-4,-5.8664117E-2,1.4849329E-1,-4.65333E-2,-2.166783E-1,-1.2834978E-1,1.2128283E-1,-1.7055022E-2,7.3071085E-2,-1.6533644E-1,1.7072106E-2,-4.053815E-2,2.5314355E-1,-1.1725077E-1,1.0653496E-1,-3.4208417E-2,-2.4138856E-1,-1.7118287E-1,1.5026087E-1,1.7209084E-1,-2.4296898E-2,-6.1367087E-2,1.3984002E-1],"categories":[],"categories_nodes":[],"categories_segments":[],"categories_sizes":[],"default_left":[1,1,1,1,1,1,1,1,1,1,1,1,1,1,1,1,1,1,1,1,1,1,1,1,1,1,1,1,1],"id":40,"left_children":[-1,-1,-1,-1,-1,-1,-1,-1,-1,-1,-1,-1,-1,-1,-1,-1,-1,-1,-1,-1,-1,-1,-1,-1,-1,-1,-1,-1,-1],"loss_changes":[1.0803324E-1,1.7568414E-1,9.747242E-2,1.37167E-1,1.1039016E-1,1.9607808E-1,1.24101326E-1,5.9375353E-2,1.289551E-1,1.315619E-1,2.3304611E-2,0E0,1.6979846E-1,1.1102342E-1,1.7913114E-1,0E0,0E0,0E0,0E0,0E0,0E0,0E0,0E0,0E0,0E0,0E0,0E0,0E0,0E0],"parents":[2147483647,0,0,1,1,2,2,3,3,4,4,5,5,6,6,7,7,8,8,9,9,10,10,12,12,13,13,14,14],"right_children":[-1,-1,-1,-1,-1,-1,-1,-1,-1,-1,-1,-1,-1,-1,-1,-1,-1,-1,-1,-1,-1,-1,-1,-1,-1,-1,-1,-1,-1],"split_conditions":[1.0676523E-4,-1.4413194E-2,3.641131E-3,1.0432858E-2,-3.1103747E-2,2.0179844E-2,1.5763743E-4,-1.5290956E-2,3.8705166E-2,-1.2129027E-2,-5.647777E-2,-3.345471E-2,3.161269E-2,-4.4454364E-3,1.904617E-2,-4.309538E-2,4.4498895E-3,-1.0566376E-2,6.5982535E-2,-3.0561721E-2,2.7768617E-2,-8.916514E-3,-6.2918566E-2,-4.4619266E-2,3.916589E-2,4.485593E-2,-6.3330503E-3,-1.5995493E-2,3.644967E-2],"split_indices":[3,2147483647,2147483647,2147483647,2147483647,2147483647,2147483647,2147483647,2147483647,2147483647,2147483647,2147483647,2147483647,2147483647,2147483647,2147483647,2147483647,2147483647,2147483647,2147483647,2147483647,2147483647,2147483647,2147483647,2147483647,2147483647,2147483647,2147483647,2147483647],"split_type":[0,0,0,0,0,0,0,0,0,0,0,0,0,0,0,0,0,0,0,0,0,0,0,0,0,0,0,0,0],"sum_hessian":[1.41E2,2.7E1,1.14E2,1.1E1,1.6E1,1.9E1,9.5E1,6E0,5E0,1E1,6E0,3E0,1.6E1,7.7E1,1.8E1,2E0,4E0,2E0,3E0,7E0,3E0,1E0,5E0,1E0,1.5E1,2E0,7.5E1,6E0,1.2E1],"tree_param":{"num_deleted":"28","num_feature":"9","num_nodes":"29","size_leaf_vector":"0"}},{"base_weights":[-1.3754517E-4,-4.8910685E-2,1.2056925E-2,3.8462758E-2,-1.2230553E-1,7.731898E-2,-1.5234664E-3,-1.2563372E-1,7.6281644E-2,3.4921647E-3,-1.645291E-1,-1.2842989E-1,1.211823E-1,-5.618001E-2,2.261212E-2,-1.6496277E-1,-2.3487806E-2,1.3876486E-1,-9.329041E-3,-8.35557E-2,1.7584181E-1,-2.2330086E-1,8.839607E-3,3.6347866E-2,2.371818E-1,1.0556583E-1,-8.512421E-2,1.097483E-1,-8.585201E-3],"categories":[],"categories_nodes":[],"categories_segments":[],"categories_sizes":[],"default_left":[1,1,1,1,1,1,1,1,1,1,1,1,1,1,1,1,1,1,1,1,1,1,1,1,1,1,1,1,1],"id":41,"left_children":[-1,-1,-1,-1,-1,-1,-1,-1,-1,-1,-1,-1,-1,-1,-1,-1,-1,-1,-1,-1,-1,-1,-1,-1,-1,-1,-1,-1,-1],"loss_changes":[8.623552E-2,1.9067425E-1,1.0292677E-1,9.6466795E-2,8.556062E-2,1.9606002E-1,1.2922964E-1,8.177292E-3,6.54853E-2,8.970593E-2,1.24244094E-1,0E0,1.586717E-1,1.4943433E-1,1.8579444E-1,0E0,0E0,0E0,0E0,0E0,0E0,0E0,0E0,0E0,0E0,0E0,0E0,0E0,0E0],"parents":[2147483647,0,0,1,1,2,2,3,3,4,4,5,5,6,6,7,7,8,8,9,9,10,10,12,12,13,13,14,14],"right_children":[-1,-1,-1,-1,-1,-1,-1,-1,-1,-1,-1,-1,-1,-1,-1,-1,-1,-1,-1,-1,-1,-1,-1,-1,-1,-1,-1,-1,-1],"split_conditions":[-3.585151E-5,-1.2748699E-2,3.1426693E-3,1.0025419E-2,-3.1879257E-2,2.0153396E-2,-3.9709554E-4,-3.274676E-2,1.988301E-2,9.102419E-4,-4.2884942E-2,-3.347559E-2,3.1586487E-2,-1.4643468E-2,5.8939084E-3,-4.299798E-2,-6.1221584E-3,3.6169425E-2,-2.431639E-3,-2.1779012E-2,4.583363E-2,-5.8203958E-2,2.304067E-3,9.474167E-3,6.182206E-2,2.7516011E-2,-2.218785E-2,2.8606182E-2,-2.237755E-3],"split_indices":[3,2147483647,2147483647,2147483647,2147483647,2147483647,2147483647,2147483647,2147483647,2147483647,2147483647,2147483647,2147483647,2147483647,2147483647,2147483647,2147483647,2147483647,2147483647,2147483647,2147483647,2147483647,2147483647,2147483647,2147483647,2147483647,2147483647,2147483647,2147483647],"split_type":[0,0,0,0,0,0,0,0,0,0,0,0,0,0,0,0,0,0,0,0,0,0,0,0,0,0,0,0,0],"sum_hessian":[1.43E2,2.8E1,1.15E2,1.3E1,1.5E1,1.9E1,9.6E1,2E0,1.1E1,4E0,1.1E1,3E0,1.6E1,2.9E1,6.7E1,1E0,1E0,6E0,5E0,3E0,1E0,8E0,3E0,1E1,6E0,4E0,2.5E1,1.7E1,5E1],"tree_param":{"num_deleted":"28","num_feature":"9","num_nodes":"29","size_leaf_vector":"0"}},{"base_weights":[1.8890242E-3,-1.922977E-2,3.334882E-2,2.939179E-2,-5.0650988E-2,1.00938834E-1,-8.882542E-3,4.102269E-2,-1.772139E-1,-8.691312E-2,2.2672653E-2,-1.2543245E-1,1.2984759E-1,1.671401E-1,-3.61085E-2,-2.644387E-4,1.13297194E-1,-5.9899308E-2,-2.812953E-1,1.1041149E-1,-5.855956E-2,-1.5302604E-1,-3.5122633E-2,1.5392488E-1,-5.789868E-2,7.043648E-2,2.769773E-1,5.8734935E-4,-1.16898105E-1],"categories":[],"categories_nodes":[],"categories_segments":[],"categories_sizes":[],"default_left":[1,1,1,1,1,1,1,1,1,1,1,1,1,1,1,1,1,1,1,1,1,1,1,1,1,1,1,1,1],"id":42,"left_children":[-1,-1,-1,-1,-1,-1,-1,-1,-1,-1,-1,-1,-1,-1,-1,-1,-1,-1,-1,-1,-1,-1,-1,-1,-1,-1,-1,-1,-1],"loss_changes":[9.43207E-2,1.3134734E-1,1.6359845E-1,8.8972114E-2,1.4023186E-1,1.6025755E-1,1.7856105E-1,9.8502174E-2,0E0,1.6693568E-1,1.347556E-1,2.1012388E-3,9.932047E-2,3.359896E-2,9.493724E-2,0E0,0E0,0E0,0E0,0E0,0E0,0E0,0E0,0E0,0E0,0E0,0E0,0E0,0E0],"parents":[2147483647,0,0,1,1,2,2,3,3,4,4,5,5,6,6,7,7,9,9,10,10,11,11,12,12,13,13,14,14],"right_children":[-1,-1,-1,-1,-1,-1,-1,-1,-1,-1,-1,-1,-1,-1,-1,-1,-1,-1,-1,-1,-1,-1,-1,-1,-1,-1,-1,-1,-1],"split_conditions":[4.923791E-4,-5.01229E-3,8.692458E-3,7.6610474E-3,-1.3202313E-2,2.6309973E-2,-2.315258E-3,1.0692672E-2,-4.619127E-2,-2.2654133E-2,5.909687E-3,-3.26943E-2,3.3845115E-2,4.3565504E-2,-9.4117755E-3,-6.8926645E-5,2.9531213E-2,-1.5612912E-2,-7.332036E-2,2.8779045E-2,-1.5263704E-2,-3.9886642E-2,-9.154807E-3,4.0120926E-2,-1.5091443E-2,1.8359452E-2,7.219486E-2,1.5309415E-4,-3.04698E-2],"split_indices":[3,2147483647,2147483647,2147483647,2147483647,2147483647,2147483647,2147483647,2147483647,2147483647,2147483647,2147483647,2147483647,2147483647,2147483647,2147483647,2147483647,2147483647,2147483647,2147483647,2147483647,2147483647,2147483647,2147483647,2147483647,2147483647,2147483647,2147483647,2147483647],"split_type":[0,0,0,0,0,0,0,0,0,0,0,0,0,0,0,0,0,0,0,0,0,0,0,0,0,0,0,0,0],"sum_hessian":[1.4E2,8.4E1,5.6E1,3.3E1,5.1E1,2.1E1,3.5E1,3.2E1,1E0,3.4E1,1.7E1,2E0,1.9E1,4E0,3.1E1,2.1E1,1.1E1,3.1E1,3E0,8E0,9E0,1E0,1E0,1.7E1,2E0,3E0,1E0,2.2E1,9E0],"tree_param":{"num_deleted":"28","num_feature":"9","num_nodes":"29","size_leaf_vector":"0"}}]},"name":"gbtree"},"learner_model_param":{"base_score":"5E-1","num_class":"0","num_feature":"9","num_target":"1"},"objective":{"name":"reg:squarederror","reg_loss_param":{"scale_pos_weight":"1"}}},"version":[1,6,1]}