{"learner":{"attributes":{"best_iteration":"58","best_ntree_limit":"59","best_score":"0.7970656474069708","scikit_learn":"{\"n_estimators\": 59, \"objective\": \"reg:squarederror\", \"max_depth\": 3, \"max_leaves\": null, \"max_bin\": null, \"grow_policy\": null, \"learning_rate\": 0.02424561467798947, \"verbosity\": null, \"booster\": null, \"tree_method\": null, \"gamma\": 0.14283253781452027, \"min_child_weight\": null, \"max_delta_step\": null, \"subsample\": 0.49943035086288745, \"sampling_method\": null, \"colsample_bytree\": 0.6121347432766997, \"colsample_bylevel\": null, \"colsample_bynode\": null, \"reg_alpha\": null, \"reg_lambda\": null, \"scale_pos_weight\": null, \"base_score\": null, \"missing\": NaN, \"num_parallel_tree\": null, \"random_state\": null, \"n_jobs\": null, \"monotone_constraints\": null, \"interaction_constraints\": null, \"importance_type\": null, \"gpu_id\": null, \"validate_parameters\": null, \"predictor\": null, \"enable_categorical\": false, \"max_cat_to_onehot\": null, \"eval_metric\": [\"rmse\"], \"early_stopping_rounds\": null, \"callbacks\": null, \"evals_result_\": {\"validation_0\": {\"rmse\": [1.3181863086799992, 1.3039346793129416, 1.296599026329097, 1.2822024149632183, 1.2655814859257795, 1.2517159329573275, 1.2360042921309946, 1.2266984992324124, 1.2152316086005965, 1.201339308716373, 1.18976811958287, 1.1789339071335212, 1.167833097156286, 1.152254279026049, 1.1388826525824898, 1.126600058415346, 1.119863537715482, 1.1116317036256527, 1.103612389744006, 1.092821305592919, 1.0826249887569597, 1.0731914474378683, 1.0612273542702555, 1.0526449799891717, 1.0418436002870626, 1.031710216587755, 1.0208337486051526, 1.0113675899768186, 0.9993258055311116, 0.9869311822631499, 0.9835443608100505, 0.9793770893635163, 0.9708954958821137, 0.9657163384483902, 0.956540255984799, 0.9463995887426562, 0.9374659908351691, 0.930824419045411, 0.925861421907825, 0.9211317096469558, 0.9127257152502892, 0.9051902506430862, 0.9014315466413984, 0.8926290035510068, 0.8853699106438316, 0.8760740159375875, 0.8676255211976653, 0.8641892437662821, 0.8593041817581383, 0.8495374708296607, 0.8421521590663864, 0.8364615488321238, 0.8310004212572287, 0.8256592842178432, 0.8207136776648508, 0.814035647209642, 0.8071691821674781, 0.8008157026026348, 0.7970656474069708]}}, \"_estimator_type\": \"regressor\"}"},"feature_names":["mf_chm_MIN","r_MIN","b_STD","contr_r_STD","corr_r_Q25","corr_r_MIN"],"feature_types":["float","int","float","float","float","float"],"gradient_booster":{"model":{"gbtree_model_param":{"num_parallel_tree":"1","num_trees":"59","size_leaf_vector":"0"},"tree_info":[0,0,0,0,0,0,0,0,0,0,0,0,0,0,0,0,0,0,0,0,0,0,0,0,0,0,0,0,0,0,0,0,0,0,0,0,0,0,0,0,0,0,0,0,0,0,0,0,0,0,0,0,0,0,0,0,0,0,0],"trees":[{"base_weights":[-5.707547E-1,-1.0808334E-1,-9.2186666E-1,-2.234E-1,3.748E-1,-5.9086365E-1,-1.6285555E0,-9.661111E-2,-9.096667E-1,2.9500008E-2,4.5375E-1,-7.3516667E-1,4.68E-2,-1.4533333E-1,-2.0315714E0],"categories":[],"categories_nodes":[],"categories_segments":[],"categories_sizes":[],"default_left":[1,1,1,1,1,1,1,0,0,1,1,0,0,0,0],"id":0,"left_children":[1,3,5,7,-1,11,13,-1,-1,-1,-1,-1,-1,-1,-1],"loss_changes":[8.510183E0,1.4201583E0,6.055229E0,1.6523359E0,1.2292153E-1,2.058775E0,5.0846043E0,0E0,0E0,0E0,0E0,0E0,0E0,0E0,0E0],"parents":[2147483647,0,0,1,1,2,2,3,3,4,4,5,5,6,6],"right_children":[2,4,6,8,-1,12,14,-1,-1,-1,-1,-1,-1,-1,-1],"split_conditions":[4.3443203E-1,4.2086232E-1,4.532691E2,4.153551E-1,9.087256E-3,4.0157788E2,3.5E0,-2.3423957E-3,-2.2055428E-2,7.152458E-4,1.1001448E-2,-1.7824568E-2,1.1346947E-3,-3.523696E-3,-4.9256697E-2],"split_indices":[4,4,3,4,3,3,1,0,0,2147483647,2147483647,0,0,0,0],"split_type":[0,0,0,0,0,0,0,0,0,0,0,0,0,0,0],"sum_hessian":[5.2E1,2.3E1,2.9E1,1.9E1,4E0,2.1E1,8E0,1.7E1,2E0,1E0,3E0,1.7E1,4E0,2E0,6E0],"tree_param":{"num_deleted":"2","num_feature":"6","num_nodes":"15","size_leaf_vector":"0"}},{"base_weights":[-6.7693895E-1,-2.1899776E-1,-1.0483731E0,-6.674614E-1,2.4631186E-1,-7.7059674E-1,-1.9847499E0,-3.1805393E-1,-8.460843E-1,5.171767E-1,-1.5589324E-1,-1.2173175E0,-5.5406106E-1,-8.606735E-2,-2.3472729E0],"categories":[],"categories_nodes":[],"categories_segments":[],"categories_sizes":[],"default_left":[1,1,1,1,1,1,1,0,0,0,0,0,0,0,0],"id":1,"left_children":[1,3,5,7,9,11,13,-1,-1,-1,-1,-1,-1,-1,-1],"loss_changes":[8.785444E0,5.3812647E0,6.0135574E0,5.4225826E-1,1.4968863E0,1.6470757E0,3.9278717E0,0E0,0E0,0E0,0E0,0E0,0E0,0E0,0E0],"parents":[2147483647,0,0,1,1,2,2,3,3,4,4,5,5,6,6],"right_children":[2,4,6,8,10,12,14,-1,-1,-1,-1,-1,-1,-1,-1],"split_conditions":[3.748385E2,3.1951122E1,1.13364026E-1,2.7874846E1,3.581859E1,4.0977612E2,4.1090723E2,-7.711413E-3,-2.0513833E-2,1.2539267E-2,-3.7797273E-3,-2.9514609E-2,-1.34335505E-2,-2.0867558E-3,-5.6911074E-2],"split_indices":[3,2,5,2,2,3,3,0,0,0,0,0,0,0,0],"split_type":[0,0,0,0,0,0,0,0,0,0,0,0,0,0,0],"sum_hessian":[5.2E1,2.4E1,2.8E1,1.2E1,1.2E1,2.3E1,5E0,5E0,7E0,7E0,5E0,6E0,1.7E1,1E0,4E0],"tree_param":{"num_deleted":"0","num_feature":"6","num_nodes":"15","size_leaf_vector":"0"}},{"base_weights":[-5.7442665E-1,-1.1314236E0,-3.7904203E-1,-7.0074034E-1,-1.6803687E0,-1.3011024E0,-2.6911542E-1,-9.459272E-1,-1.5777501E-1,-3.110214E-1,-1.5274557E0,-3.836331E-1,7.844562E-2],"categories":[],"categories_nodes":[],"categories_segments":[],"categories_sizes":[],"default_left":[1,1,1,1,0,1,1,0,0,0,0,0,0],"id":2,"left_children":[1,3,5,7,-1,9,11,-1,-1,-1,-1,-1,-1],"loss_changes":[5.230234E0,1.895977E0,3.7042112E0,1.0489078E0,0E0,4.2136097E-1,1.502764E0,0E0,0E0,0E0,0E0,0E0,0E0],"parents":[2147483647,0,0,1,1,2,2,3,3,5,5,6,6],"right_children":[2,4,6,8,-1,10,12,-1,-1,-1,-1,-1,-1],"split_conditions":[4.8937333E-1,4.589815E-1,8.187323E-3,4.4848907E-1,-4.074157E-2,1.197851E0,9.394351E-2,-2.2934586E-2,-3.825352E-3,-7.5409045E-3,-3.70341E-2,-9.30142E-3,1.9019622E-3],"split_indices":[0,0,5,4,0,0,5,0,0,0,0,0,0],"split_type":[0,0,0,0,0,0,0,0,0,0,0,0,0],"sum_hessian":[5.1E1,1.2E1,3.9E1,8E0,4E0,3E0,3.6E1,5E0,3E0,1E0,2E0,2.7E1,9E0],"tree_param":{"num_deleted":"0","num_feature":"6","num_nodes":"13","size_leaf_vector":"0"}},{"base_weights":[-7.9369086E-1,-1.064969E0,-4.2152283E-1,-5.055011E-1,-1.2454345E0,-5.370024E-1,2.9012543E-1,-1.31095E0,4.01048E-1,-1.3153973E0,1.11891314E-1,-1.9257417E-2,-5.9048826E-1,3.8900793E-1,-3.2610148E-3],"categories":[],"categories_nodes":[],"categories_segments":[],"categories_sizes":[],"default_left":[1,1,1,1,1,1,1,0,0,0,0,0,0,1,1],"id":3,"left_children":[1,3,5,7,9,11,-1,-1,-1,-1,-1,-1,-1,-1,-1],"loss_changes":[4.902027E0,2.3993683E0,2.1281376E0,7.097365E0,2.236351E0,5.701618E-1,1.17311716E-1,0E0,0E0,0E0,0E0,0E0,0E0,0E0,0E0],"parents":[2147483647,0,0,1,1,2,2,3,3,4,4,5,5,6,6],"right_children":[2,4,6,8,10,12,-1,-1,-1,-1,-1,-1,-1,-1,-1],"split_conditions":[7.5E0,3.7104458E1,3.856471E1,5.949526E-1,4.4302475E1,1E1,7.034269E-3,-3.1784788E-2,9.723655E-3,-3.1892616E-2,2.7128737E-3,-4.669079E-4,-1.4316751E-2,9.431737E-3,-7.906531E-5],"split_indices":[1,2,2,0,2,1,0,0,0,0,0,0,0,2147483647,2147483647],"split_type":[0,0,0,0,0,0,0,0,0,0,0,0,0,0,0],"sum_hessian":[5.2E1,2.9E1,2.3E1,8E0,2.1E1,2E1,3E0,4E0,4E0,2E1,1E0,2E0,1.8E1,2E0,1E0],"tree_param":{"num_deleted":"2","num_feature":"6","num_nodes":"15","size_leaf_vector":"0"}},{"base_weights":[-8.5191095E-1,-1.2518389E0,-4.769097E-1,-6.027984E-1,-1.8545104E0,-7.13923E-1,-1.9230159E-1,3.6443114E-2,-7.123756E-1,-2.1561973E0,-1.3015442E-1,-3.9769104E-1,-9.156932E-1,-6.9060236E-2,-6.6224694E-1],"categories":[],"categories_nodes":[],"categories_segments":[],"categories_sizes":[],"default_left":[1,1,1,1,1,1,1,0,0,0,0,0,0,0,0],"id":4,"left_children":[1,3,5,7,9,11,13,-1,-1,-1,-1,-1,-1,-1,-1],"loss_changes":[7.6515236E0,9.052219E0,1.8863888E0,1.0066094E0,6.4821663E0,6.567354E-1,8.2301563E-1,0E0,0E0,0E0,0E0,0E0,0E0,0E0,0E0],"parents":[2147483647,0,0,1,1,2,2,3,3,4,4,5,5,6,6],"right_children":[2,4,6,8,10,12,14,-1,-1,-1,-1,-1,-1,-1,-1],"split_conditions":[7.5E0,6.63554E-2,7.384293E-2,3.5168972E1,1.7037192E-1,2.9326921E1,2.45E1,8.835857E-4,-1.7271984E-2,-5.227833E-2,-3.1556739E-3,-9.642264E-3,-2.2201546E-2,-1.6744079E-3,-1.6056584E-2],"split_indices":[1,5,5,2,5,2,1,0,0,0,0,0,0,0,0],"split_type":[0,0,0,0,0,0,0,0,0,0,0,0,0,0,0],"sum_hessian":[5.4E1,2.5E1,2.9E1,1.3E1,1.2E1,1.5E1,1.4E1,2E0,1.1E1,1E1,2E0,7E0,8E0,1.2E1,2E0],"tree_param":{"num_deleted":"0","num_feature":"6","num_nodes":"15","size_leaf_vector":"0"}},{"base_weights":[-6.761058E-1,-1.3038374E0,-3.238918E-1,-5.0406694E-1,-1.4301871E0,-3.5520107E-1,3.546571E-1,-6.9809794E-1,3.9013088E-2,-6.876723E-1,-1.5585098E0,-4.6188813E-1,-6.363201E-2],"categories":[],"categories_nodes":[],"categories_segments":[],"categories_sizes":[],"default_left":[1,1,1,1,1,1,0,0,0,0,0,0,0],"id":5,"left_children":[1,3,5,7,9,11,-1,-1,-1,-1,-1,-1,-1],"loss_changes":[1.085359E1,1.0980034E0,8.4830046E-1,4.487325E-1,3.574772E-1,9.97128E-1,0E0,0E0,0E0,0E0,0E0,0E0,0E0],"parents":[2147483647,0,0,1,1,2,2,3,3,4,4,5,5],"right_children":[2,4,6,8,10,12,-1,-1,-1,-1,-1,-1,-1],"split_conditions":[7.5E0,3.701883E1,5.25E1,4.2699885E0,2.5E0,3.580279E1,8.59888E-3,-1.6925814E-2,9.4589626E-4,-1.6673038E-2,-3.7787028E-2,-1.1198762E-2,-1.5427972E-3],"split_indices":[1,2,1,0,1,2,0,0,0,0,0,0,0],"split_type":[0,0,0,0,0,0,0,0,0,0,0,0,0],"sum_hessian":[5E1,1.7E1,3.3E1,3E0,1.4E1,3.2E1,1E0,2E0,1E0,3E0,1.1E1,2.3E1,9E0],"tree_param":{"num_deleted":"0","num_feature":"6","num_nodes":"13","size_leaf_vector":"0"}},{"base_weights":[-8.2906467E-1,-5.6012946E-1,-1.7908942E0,-7.914019E-1,2.4768311E-1,-4.2225912E-2,-1.9460253E0,-3.3132958E-1,-1.0370371E0,5.8190554E-1,-2.6430504E-2],"categories":[],"categories_nodes":[],"categories_segments":[],"categories_sizes":[],"default_left":[1,1,1,1,1,0,0,0,0,0,0],"id":6,"left_children":[1,3,5,7,9,-1,-1,-1,-1,-1,-1],"loss_changes":[1.3741043E1,8.789957E0,3.1731033E0,3.72476E0,1.0231441E0,0E0,0E0,0E0,0E0,0E0,0E0],"parents":[2147483647,0,0,1,1,2,2,3,3,4,4],"right_children":[2,4,6,8,10,-1,-1,-1,-1,-1,-1],"split_conditions":[5.0644284E2,7.881873E0,2.5E0,3.0377893E2,7.5E0,-1.0237931E-3,-4.718258E-2,-8.03329E-3,-2.5143603E-2,1.4108657E-2,-6.408238E-4],"split_indices":[3,0,1,3,1,0,0,0,0,0,0],"split_type":[0,0,0,0,0,0,0,0,0,0,0],"sum_hessian":[5.6E1,4.5E1,1.1E1,3.5E1,1E1,1E0,1E1,1.3E1,2.2E1,4E0,6E0],"tree_param":{"num_deleted":"0","num_feature":"6","num_nodes":"11","size_leaf_vector":"0"}},{"base_weights":[-6.3115734E-1,-5.060719E-1,-1.6306947E0,6.0187644E-1,-5.716015E-1,-7.4146956E-1,-1.2256214E-1],"categories":[],"categories_nodes":[],"categories_segments":[],"categories_sizes":[],"default_left":[1,1,0,0,1,0,0],"id":7,"left_children":[1,3,-1,-1,5,-1,-1],"loss_changes":[5.3011017E0,3.611187E0,0E0,0E0,3.1890545E0,0E0,0E0],"parents":[2147483647,0,0,1,1,4,4],"right_children":[2,4,-1,-1,6,-1,-1],"split_conditions":[5.193014E2,1.0759245E-1,-3.9537195E-2,1.4592864E-2,4.023133E2,-1.7977385E-2,-2.9715945E-3],"split_indices":[3,3,0,0,3,0,0],"split_type":[0,0,0,0,0,0,0],"sum_hessian":[4.8E1,4.4E1,4E0,2E0,4.2E1,3E1,1.2E1],"tree_param":{"num_deleted":"0","num_feature":"6","num_nodes":"7","size_leaf_vector":"0"}},{"base_weights":[-5.8078027E-1,2.5010286E-2,-8.205663E-1,4.6211058E-1,-1.5919903E-1,-6.39154E-1,-1.4209682E0,5.921479E-1,1.780364E-1,3.5670978E-1,-2.9805174E-1,-9.8184997E-1,-3.3710417E-1,-2.2371466E0,-4.838318E-1],"categories":[],"categories_nodes":[],"categories_segments":[],"categories_sizes":[],"default_left":[1,1,1,1,1,1,1,1,1,0,0,0,0,0,0],"id":8,"left_children":[1,3,5,-1,9,11,13,-1,-1,-1,-1,-1,-1,-1,-1],"loss_changes":[7.719307E0,1.3618547E0,3.230753E0,7.927728E-2,9.6594214E-1,2.877863E0,5.036562E0,0E0,0E0,0E0,0E0,0E0,0E0,0E0,0E0],"parents":[2147483647,0,0,1,1,2,2,3,3,4,4,5,5,6,6],"right_children":[2,4,6,-1,10,12,14,-1,-1,-1,-1,-1,-1,-1,-1],"split_conditions":[3.0049323E2,1.0759245E-1,5.0644284E2,1.1204155E-2,1.6528577E-2,6.5E0,5.2142126E2,1.4356989E-2,4.316602E-3,8.648648E-3,-7.2264476E-3,-2.3805555E-2,-8.173298E-3,-5.4240994E-2,-1.17307985E-2],"split_indices":[3,3,3,1,5,1,3,2147483647,2147483647,0,0,0,0,0,0],"split_type":[0,0,0,0,0,0,0,0,0,0,0,0,0,0,0],"sum_hessian":[5.2E1,1.5E1,3.7E1,4E0,1.1E1,3E1,7E0,2E0,2E0,2E0,9E0,1.3E1,1.7E1,3E0,4E0],"tree_param":{"num_deleted":"2","num_feature":"6","num_nodes":"15","size_leaf_vector":"0"}},{"base_weights":[-6.5368646E-1,-3.04305E-1,-1.4426122E0,-7.006371E-2,-5.348587E-1,-8.214363E-1,-2.3409991E0,1.7960358E-1,-2.183156E-1,-3.516493E-1,-1.1339816E0,2.3750034E-1,-1.2482251E0],"categories":[],"categories_nodes":[],"categories_segments":[],"categories_sizes":[],"default_left":[1,1,1,1,1,1,0,0,0,0,0,0,0],"id":9,"left_children":[1,3,5,7,9,11,-1,-1,-1,-1,-1,-1,-1],"loss_changes":[1.4169714E1,2.0147233E0,7.0059166E0,7.794832E-1,1.6867695E0,5.2678194E0,0E0,0E0,0E0,0E0,0E0,0E0,0E0],"parents":[2147483647,0,0,1,1,2,2,3,3,4,4,5,5],"right_children":[2,4,6,8,10,12,-1,-1,-1,-1,-1,-1,-1],"split_conditions":[4.5735757E2,4.466443E-1,4.5766455E-1,8.5E0,4.052351E2,3.5E0,-5.6758963E-2,4.354599E-3,-5.293196E-3,-8.525954E-3,-2.749408E-2,5.7583414E-3,-3.0263985E-2],"split_indices":[3,4,4,1,3,1,0,0,0,0,0,0,0],"split_type":[0,0,0,0,0,0,0,0,0,0,0,0,0],"sum_hessian":[5.2E1,3.7E1,1.5E1,1.9E1,1.8E1,1E1,5E0,7E0,1.2E1,1.5E1,3E0,3E0,7E0],"tree_param":{"num_deleted":"0","num_feature":"6","num_nodes":"13","size_leaf_vector":"0"}},{"base_weights":[-3.793368E-1,-5.2975826E-2,-8.219665E-1,-8.6850137E-1,3.321564E-2,-1.3678552E0,-4.1232622E-1,5.028371E-1,-2.0194735E-2,-2.3893182E-1,-1.6562716E0,-7.8884804E-1,7.6888196E-2],"categories":[],"categories_nodes":[],"categories_segments":[],"categories_sizes":[],"default_left":[1,1,1,0,1,1,1,0,0,0,0,0,0],"id":10,"left_children":[1,3,5,-1,7,9,11,-1,-1,-1,-1,-1,-1],"loss_changes":[7.4682236E0,2.2078793E0,4.3555937E0,0E0,7.375518E-1,2.5346642E0,2.6394522E0,0E0,0E0,0E0,0E0,0E0,0E0],"parents":[2147483647,0,0,1,1,2,2,4,4,5,5,6,6],"right_children":[2,4,6,-1,8,10,12,-1,-1,-1,-1,-1,-1],"split_conditions":[4.5831847E-1,-1.6906634E-2,4.8163232E-1,-2.1057349E-2,3.8144507E-2,3.1896217E1,7.758148E-2,1.2191595E-2,-4.8963376E-4,-5.7930485E-3,-4.015732E-2,-1.9126106E-2,1.8642015E-3],"split_indices":[4,5,4,0,4,2,5,0,0,0,0,0,0],"split_type":[0,0,0,0,0,0,0,0,0,0,0,0,0],"sum_hessian":[5.1E1,3E1,2.1E1,2E0,2.8E1,8E0,1.3E1,2E0,2.6E1,2E0,6E0,7E0,6E0],"tree_param":{"num_deleted":"0","num_feature":"6","num_nodes":"13","size_leaf_vector":"0"}},{"base_weights":[-5.276699E-1,-3.7668338E-1,-1.7508172E0,1.1856074E-1,-4.5799983E-1,-2.0868084E0,-2.0342624E-1,3.956901E-1,-1.8820882E-1,-5.5537325E-1,-1.6850385E-1],"categories":[],"categories_nodes":[],"categories_segments":[],"categories_sizes":[],"default_left":[1,1,1,1,1,0,0,0,0,0,0],"id":11,"left_children":[1,3,5,7,9,-1,-1,-1,-1,-1,-1],"loss_changes":[8.205076E0,1.8262467E0,2.1750364E0,6.695764E-1,9.776082E-1,0E0,0E0,0E0,0E0,0E0,0E0],"parents":[2147483647,0,0,1,1,2,2,3,3,4,4],"right_children":[2,4,6,8,10,-1,-1,-1,-1,-1,-1],"split_conditions":[4.7226398E2,6.133808E-2,5.350084E2,1.0759245E-1,4.023133E2,-5.0595954E-2,-4.932194E-3,9.593749E-3,-4.5632385E-3,-1.3465365E-2,-4.0854793E-3],"split_indices":[3,4,3,3,3,0,0,0,0,0,0],"split_type":[0,0,0,0,0,0,0,0,0,0,0],"sum_hessian":[4.7E1,4.3E1,4E0,6E0,3.7E1,3E0,1E0,3E0,3E0,2.7E1,1E1],"tree_param":{"num_deleted":"0","num_feature":"6","num_nodes":"11","size_leaf_vector":"0"}},{"base_weights":[-6.524634E-1,-9.2504764E-1,-1.0014196E-1,-3.7087575E-1,-1.2123166E0,3.6325533E-2,-1.0053434E0,1.708432E-1,-4.4213197E-1,-1.3056437E0,1.871214E-1,-6.2391824E-1,1.9835936E-1],"categories":[],"categories_nodes":[],"categories_segments":[],"categories_sizes":[],"default_left":[1,1,1,1,1,1,0,0,0,0,0,0,0],"id":12,"left_children":[1,3,5,7,9,11,-1,-1,-1,-1,-1,-1,-1],"loss_changes":[6.2306366E0,4.007881E0,1.8894784E0,5.0014436E-1,2.595211E0,1.6215055E0,0E0,0E0,0E0,0E0,0E0,0E0,0E0],"parents":[2147483647,0,0,1,1,2,2,3,3,4,4,5,5],"right_children":[2,4,6,8,10,12,-1,-1,-1,-1,-1,-1,-1],"split_conditions":[1.8574326E0,3.3349316E2,1.57482815E1,4.480847E-1,4.4249626E1,3.2859657E1,-2.4375169E-2,4.1421982E-3,-1.0719761E-2,-3.165613E-2,4.536873E-3,-1.5127281E-2,4.809344E-3],"split_indices":[0,3,0,0,2,2,0,0,0,0,0,0,0],"split_type":[0,0,0,0,0,0,0,0,0,0,0,0,0],"sum_hessian":[4.1E1,2.7E1,1.4E1,1E1,1.7E1,1.3E1,1E0,1E0,9E0,1.6E1,1E0,2E0,1.1E1],"tree_param":{"num_deleted":"0","num_feature":"6","num_nodes":"13","size_leaf_vector":"0"}},{"base_weights":[-6.0387576E-1,-4.140684E-1,-1.2647562E0,-1.3278399E0,-2.9780686E-1,-2.0197465E0,-1.0581661E-1,-1.1634674E-1,-8.090975E-1,-2.2162044E-1,1.7869936E-1],"categories":[],"categories_nodes":[],"categories_segments":[],"categories_sizes":[],"default_left":[1,1,1,0,1,0,1,0,0,0,0],"id":13,"left_children":[1,3,5,-1,7,-1,9,-1,-1,-1,-1],"loss_changes":[5.3719826E0,3.6415477E0,8.5361595E0,0E0,3.1531243E0,0E0,2.0434362E-1,0E0,0E0,0E0,0E0],"parents":[2147483647,0,0,1,1,2,2,4,4,6,6],"right_children":[2,4,6,-1,8,-1,10,-1,-1,-1,-1],"split_conditions":[1.1251627E-1,3.737393E-3,4.9137062E-1,-3.2194294E-2,4.5831847E-1,-4.8969995E-2,5.3407145E-1,-2.820898E-3,-1.9617066E-2,-5.373324E-3,4.3326756E-3],"split_indices":[5,5,4,0,4,0,4,0,0,0,0],"split_type":[0,0,0,0,0,0,0,0,0,0,0],"sum_hessian":[4.6E1,3.7E1,9E0,3E0,3.4E1,5E0,4E0,2.6E1,8E0,3E0,1E0],"tree_param":{"num_deleted":"0","num_feature":"6","num_nodes":"11","size_leaf_vector":"0"}},{"base_weights":[-7.350549E-1,-4.7239977E-1,-1.396102E0,-1.0353646E-2,-5.746932E-1,-3.9686945E-1,-1.6850829E0,-3.731997E-1,5.9784096E-1,-6.912366E-1,7.6344974E-2,-5.4504067E-1,2.3822129E-2,-1.0049007E0,-2.0282485E0],"categories":[],"categories_nodes":[],"categories_segments":[],"categories_sizes":[],"default_left":[1,1,1,1,1,1,1,0,0,0,0,0,0,1,1],"id":14,"left_children":[1,3,5,7,9,11,-1,-1,-1,-1,-1,-1,-1,-1,-1],"loss_changes":[6.9800873E0,1.553772E0,2.7963505E0,1.7678813E0,2.1013746E0,2.623216E-1,6.254959E-2,0E0,0E0,0E0,0E0,0E0,0E0,0E0,0E0],"parents":[2147483647,0,0,1,1,2,2,3,3,4,4,5,5,6,6],"right_children":[2,4,6,8,10,12,-1,-1,-1,-1,-1,-1,-1,-1,-1],"split_conditions":[4.4933368E2,5.417061E-2,4.17749E-1,1.1685446E-1,4.041408E2,4.9613092E2,-4.085587E-2,-9.048456E-3,1.4495022E-2,-1.6759457E-2,1.8510307E-3,-1.3214846E-2,5.7758216E-4,-2.4364434E-2,-4.917613E-2],"split_indices":[3,4,4,3,3,3,4,0,0,0,0,0,0,2147483647,2147483647],"split_type":[0,0,0,0,0,0,0,0,0,0,0,0,0,0,0],"sum_hessian":[4.3E1,3.2E1,1.1E1,6E0,2.6E1,3E0,8E0,4E0,2E0,2.2E1,4E0,2E0,1E0,4E0,4E0],"tree_param":{"num_deleted":"2","num_feature":"6","num_nodes":"15","size_leaf_vector":"0"}},{"base_weights":[-5.916951E-1,-2.880717E-1,-1.3821527E0,-8.1718624E-1,-1.3503826E-1,-8.08114E-1,-2.108525E0,-1.2499776E0,3.629732E-2,-3.9420104E-1,7.667121E-2,-1.03895E0,7.681969E-2],"categories":[],"categories_nodes":[],"categories_segments":[],"categories_sizes":[],"default_left":[1,1,1,1,1,1,0,0,0,0,0,0,0],"id":15,"left_children":[1,3,5,7,9,11,-1,-1,-1,-1,-1,-1,-1],"loss_changes":[1.2801918E1,3.2095091E0,4.550558E0,3.3697934E0,1.8408419E0,2.1225562E0,0E0,0E0,0E0,0E0,0E0,0E0,0E0],"parents":[2147483647,0,0,1,1,2,2,3,3,4,4,5,5],"right_children":[2,4,6,8,10,12,-1,-1,-1,-1,-1,-1,-1],"split_conditions":[4.6500198E2,6.5E0,4.5766455E-1,4.603059E-1,3.1146075E2,4.533949E-1,-5.1122483E-2,-3.0306475E-2,8.800508E-4,-9.557647E-3,1.8589407E-3,-2.518998E-2,1.8625405E-3],"split_indices":[3,1,4,4,3,4,0,0,0,0,0,0,0],"split_type":[0,0,0,0,0,0,0,0,0,0,0,0,0],"sum_hessian":[5.4E1,4E1,1.4E1,8E0,3.2E1,9E0,5E0,5E0,3E0,1.4E1,1.8E1,7E0,2E0],"tree_param":{"num_deleted":"0","num_feature":"6","num_nodes":"13","size_leaf_vector":"0"}},{"base_weights":[-4.026554E-1,-9.390665E-1,-2.6016393E-1,-5.947548E-1,-1.302152E0,-2.1021816E-1,-9.39278E-1,-6.567021E-1,-8.056195E-2,-1.6125535E0,-5.576998E-1,-3.634077E-1,1.3060072E-1],"categories":[],"categories_nodes":[],"categories_segments":[],"categories_sizes":[],"default_left":[1,1,1,1,1,1,0,0,0,0,0,0,0],"id":16,"left_children":[1,3,5,7,9,11,-1,-1,-1,-1,-1,-1,-1],"loss_changes":[4.265295E0,7.2571373E-1,1.4306529E0,2.0191765E-1,2.560749E-1,2.449116E0,0E0,0E0,0E0,0E0,0E0,0E0,0E0],"parents":[2147483647,0,0,1,1,2,2,3,3,4,4,5,5],"right_children":[2,4,6,8,10,12,-1,-1,-1,-1,-1,-1,-1],"split_conditions":[4.8377407E-1,4.553263E-1,1.5464079E1,4.4930905E-1,9.5E0,2.6402736E0,-2.2773372E-2,-1.5922146E-2,-1.953274E-3,-3.909735E-2,-1.3521774E-2,-8.811043E-3,3.1664947E-3],"split_indices":[0,0,0,0,1,0,0,0,0,0,0,0,0],"split_type":[0,0,0,0,0,0,0,0,0,0,0,0,0],"sum_hessian":[5.8E1,1.1E1,4.7E1,7E0,4E0,4.5E1,2E0,6E0,1E0,2E0,2E0,3.1E1,1.4E1],"tree_param":{"num_deleted":"0","num_feature":"6","num_nodes":"13","size_leaf_vector":"0"}},{"base_weights":[-3.9726374E-1,-9.52924E-1,-1.8946414E-1,-6.2395036E-1,-1.4548836E0,-4.3002836E-2,-1.2771732E0,-7.6571226E-1,-8.518914E-2,-1.7982222E-1,2.623001E-1],"categories":[],"categories_nodes":[],"categories_segments":[],"categories_sizes":[],"default_left":[1,1,1,1,0,1,0,0,0,0,0],"id":17,"left_children":[1,3,5,7,-1,9,-1,-1,-1,-1,-1],"loss_changes":[5.0154247E0,1.073802E0,5.3615255E0,6.2215185E-1,0E0,1.3420796E0,0E0,0E0,0E0,0E0,0E0],"parents":[2147483647,0,0,1,1,2,2,3,3,5,5],"right_children":[2,4,6,8,-1,10,-1,-1,-1,-1,-1],"split_conditions":[4.9179798E-1,4.5651633E-1,1.5464079E1,4.952655E-1,-3.5274547E-2,5.7880554E0,-3.0965848E-2,-1.8565165E-2,-2.065463E-3,-4.3599E-3,6.359627E-3],"split_indices":[0,0,0,4,0,0,0,0,0,0,0],"split_type":[0,0,0,0,0,0,0,0,0,0,0],"sum_hessian":[4.4E1,1.1E1,3.3E1,8E0,3E0,3E1,3E0,6E0,2E0,2.1E1,9E0],"tree_param":{"num_deleted":"0","num_feature":"6","num_nodes":"11","size_leaf_vector":"0"}},{"base_weights":[-3.961514E-1,-1.11740045E-2,-7.236813E-1,-3.22573E-1,3.8616782E-1,-1.0334221E0,-3.1062022E-1,-1.5018655E-2,-5.5136144E-1,7.283299E-1,-2.0355582E-2,-1.3621119E0,-5.7555443E-1,2.8543335E-1,-4.449421E-1],"categories":[],"categories_nodes":[],"categories_segments":[],"categories_sizes":[],"default_left":[1,1,1,1,1,1,1,0,0,0,0,0,0,0,0],"id":18,"left_children":[1,3,5,7,9,11,13,-1,-1,-1,-1,-1,-1,-1,-1],"loss_changes":[6.296493E0,3.0941317E0,3.1334267E0,9.768274E-1,1.5448912E0,1.4734783E0,1.1678207E0,0E0,0E0,0E0,0E0,0E0,0E0,0E0,0E0],"parents":[2147483647,0,0,1,1,2,2,3,3,4,4,5,5,6,6],"right_children":[2,4,6,8,10,12,14,-1,-1,-1,-1,-1,-1,-1,-1],"split_conditions":[3.636951E1,3.2059822E1,6.5E0,2.9532642E1,1.25E1,4.0036655E1,3.1247865E-2,-3.641365E-4,-1.3368097E-2,1.7658805E-2,-4.935336E-4,-3.302524E-2,-1.3954671E-2,6.9205067E-3,-1.0787894E-2],"split_indices":[2,2,1,2,1,2,5,0,0,0,0,0,0,0,0],"split_type":[0,0,0,0,0,0,0,0,0,0,0,0,0,0,0],"sum_hessian":[4.9E1,2.3E1,2.6E1,1.3E1,1E1,1.4E1,1.2E1,6E0,7E0,5E0,5E0,7E0,7E0,2E0,1E1],"tree_param":{"num_deleted":"0","num_feature":"6","num_nodes":"15","size_leaf_vector":"0"}},{"base_weights":[-5.5902225E-1,-1.5893701E0,-3.634266E-1,-1.71408E-1,-1.7674494E0,-1.8543175E-1,-1.1634737E0,-4.5005235E-1,1.3359407E-1,-1.2905025E0,-1.371359E-1],"categories":[],"categories_nodes":[],"categories_segments":[],"categories_sizes":[],"default_left":[1,1,1,0,0,1,1,0,0,0,0],"id":19,"left_children":[1,3,5,-1,-1,7,9,-1,-1,-1,-1],"loss_changes":[9.902023E0,1.7171211E0,6.192446E0,0E0,0E0,3.2681153E0,8.6602306E-1,0E0,0E0,0E0,0E0],"parents":[2147483647,0,0,1,1,2,2,5,5,6,6],"right_children":[2,4,6,-1,-1,8,10,-1,-1,-1,-1],"split_conditions":[4.163942E-1,2.750664E1,3.9185165E1,-4.155892E-3,-4.2852897E-2,7.115742E-1,4.1876457E1,-1.0911795E-2,3.23907E-3,-3.1289026E-2,-3.324944E-3],"split_indices":[0,2,2,0,0,0,2,0,0,0,0],"split_type":[0,0,0,0,0,0,0,0,0,0,0],"sum_hessian":[5.1E1,7E0,4.4E1,1E0,6E0,3.7E1,7E0,2E1,1.7E1,6E0,1E0],"tree_param":{"num_deleted":"0","num_feature":"6","num_nodes":"11","size_leaf_vector":"0"}},{"base_weights":[-5.364312E-1,-1.1219999E0,-2.4501178E-1,-1.2744018E0,6.582155E-1,-4.7441095E-1,7.138786E-2,-8.988785E-1,-1.7504607E0,-5.364567E-1,3.8325223E-1,-3.6964846E-1,2.0159997E-1],"categories":[],"categories_nodes":[],"categories_segments":[],"categories_sizes":[],"default_left":[1,1,1,1,0,1,1,0,0,0,0,0,0],"id":20,"left_children":[1,3,5,7,-1,9,11,-1,-1,-1,-1,-1,-1],"loss_changes":[8.598691E0,5.4510727E0,2.6468127E0,1.2868862E0,0E0,1.3231001E0,9.933734E-1,0E0,0E0,0E0,0E0,0E0,0E0],"parents":[2147483647,0,0,1,1,2,2,3,3,5,5,6,6],"right_children":[2,4,6,8,-1,10,12,-1,-1,-1,-1,-1,-1],"split_conditions":[6.5E0,1.4116561E-1,8.1099585E-2,6.63554E-2,1.595884E-2,5.25E1,4.1992667E-1,-2.1793861E-2,-4.2440996E-2,-1.3006723E-2,9.292186E-3,-8.962354E-3,4.887915E-3],"split_indices":[1,5,5,5,0,1,4,0,0,0,0,0,0],"split_type":[0,0,0,0,0,0,0,0,0,0,0,0,0],"sum_hessian":[5.1E1,1.6E1,3.5E1,1.5E1,1E0,2E1,1.5E1,1E1,5E0,1.9E1,1E0,3E0,1.2E1],"tree_param":{"num_deleted":"0","num_feature":"6","num_nodes":"13","size_leaf_vector":"0"}},{"base_weights":[-5.171019E-1,-7.775831E-1,-3.9767455E-2,-1.0852089E0,-3.7710166E-1,-1.5744232E-1,6.010876E-1,-1.21175215E-1,-1.2831322E0,-8.568267E-2,-1.5142168E0,1.9622093E-2,-3.878997E-1],"categories":[],"categories_nodes":[],"categories_segments":[],"categories_sizes":[],"default_left":[1,1,1,1,1,1,0,0,0,0,0,0,0],"id":21,"left_children":[1,3,5,7,9,11,-1,-1,-1,-1,-1,-1,-1],"loss_changes":[5.937236E0,3.4099178E0,1.4520621E0,3.0881958E0,4.840913E0,6.605042E-1,0E0,0E0,0E0,0E0,0E0,0E0,0E0],"parents":[2147483647,0,0,1,1,2,2,3,3,4,4,5,5],"right_children":[2,4,6,8,10,12,-1,-1,-1,-1,-1,-1,-1],"split_conditions":[1E1,7.026416E-1,5.516871E0,3.5E0,5.1204846E2,2E1,1.4573739E-2,-2.9379674E-3,-3.1110328E-2,-2.0774289E-3,-3.6713116E-2,4.757497E-4,-9.404866E-3],"split_indices":[1,0,0,1,3,1,0,0,0,0,0,0,0],"split_type":[0,0,0,0,0,0,0,0,0,0,0,0,0],"sum_hessian":[4.7E1,3E1,1.7E1,1.6E1,1.4E1,1.5E1,2E0,3E0,1.3E1,1.2E1,2E0,9E0,6E0],"tree_param":{"num_deleted":"0","num_feature":"6","num_nodes":"13","size_leaf_vector":"0"}},{"base_weights":[-5.022145E-1,-1.0139112E0,-2.1654516E-1,-4.5670474E-1,-1.6533313E0,-8.011461E-1,-1.3412745E-1,3.6762893E-1,-6.807377E-1,-2.1267571E0,-1.5536916E-1,-3.6648685E-1,1.3815501E-1],"categories":[],"categories_nodes":[],"categories_segments":[],"categories_sizes":[],"default_left":[1,1,1,1,1,0,1,0,0,0,0,0,0],"id":22,"left_children":[1,3,5,7,9,-1,11,-1,-1,-1,-1,-1,-1],"loss_changes":[7.235422E0,5.6581173E0,1.5307142E0,2.2817156E0,5.3429585E0,0E0,2.011921E0,0E0,0E0,0E0,0E0,0E0,0E0],"parents":[2147483647,0,0,1,1,2,2,3,3,4,4,6,6],"right_children":[2,4,6,8,10,-1,12,-1,-1,-1,-1,-1,-1],"split_conditions":[7.5E0,9.642161E-2,8.281011E-3,3.5784767E1,1.4401665E-1,-1.9424278E-2,3.292265E1,8.913389E-3,-1.6504902E-2,-5.1564533E-2,-3.7670208E-3,-8.885698E-3,3.3496532E-3],"split_indices":[1,5,5,2,5,0,2,0,0,0,0,0,0],"split_type":[0,0,0,0,0,0,0,0,0,0,0,0,0],"sum_hessian":[5E1,1.7E1,3.3E1,1E1,7E0,3E0,3E1,2E0,8E0,5E0,2E0,1.6E1,1.4E1],"tree_param":{"num_deleted":"0","num_feature":"6","num_nodes":"13","size_leaf_vector":"0"}},{"base_weights":[-4.7966123E-1,-1.5658286E0,-3.0768606E-1,-4.6128535E-1,-1.9153887E0,-2.18376E-1,-1.2131753E0,-9.055909E-2,-7.053796E-1],"categories":[],"categories_nodes":[],"categories_segments":[],"categories_sizes":[],"default_left":[1,1,1,0,0,1,0,0,0],"id":23,"left_children":[1,3,5,-1,-1,7,-1,-1,-1],"loss_changes":[9.418288E0,1.8191891E0,3.5359287E0,0E0,0E0,2.6750026E0,0E0,0E0,0E0],"parents":[2147483647,0,0,1,1,2,2,5,5],"right_children":[2,4,6,-1,-1,8,-1,-1,-1],"split_conditions":[4.144023E-1,3.311813E1,1.4655924E1,-1.1184147E-2,-4.6439774E-2,1.1251627E-1,-2.941418E-2,-2.1956607E-3,-1.7102363E-2],"split_indices":[0,2,0,0,0,5,0,0,0],"split_type":[0,0,0,0,0,0,0,0,0],"sum_hessian":[5.2E1,6E0,4.6E1,2E0,4E0,4.3E1,3E0,3.5E1,8E0],"tree_param":{"num_deleted":"0","num_feature":"6","num_nodes":"9","size_leaf_vector":"0"}},{"base_weights":[-5.7928944E-1,-9.3443984E-1,-1.289062E-1,-3.6740395E-1,-1.2879702E0,-5.995087E-3,-8.643746E-1,-5.35292E-1,6.0223207E-2,-1.6418922E0,-4.834383E-1,-2.1579663E-1,6.246086E-1],"categories":[],"categories_nodes":[],"categories_segments":[],"categories_sizes":[],"default_left":[1,1,1,1,1,1,0,0,0,0,0,0,0],"id":24,"left_children":[1,3,5,7,9,11,-1,-1,-1,-1,-1,-1,-1],"loss_changes":[7.077465E0,4.5384026E0,1.8931601E0,8.2196546E-1,3.4773693E0,2.6485195E0,0E0,0E0,0E0,0E0,0E0,0E0,0E0],"parents":[2147483647,0,0,1,1,2,2,3,3,4,4,5,5],"right_children":[2,4,6,8,10,12,-1,-1,-1,-1,-1,-1,-1],"split_conditions":[6.6753703E-1,3.3411064E1,1.4426142E1,3.236173E2,3.879021E1,1.0124584E1,-2.0957293E-2,-1.2978484E-2,1.4601486E-3,-3.9808683E-2,-1.1721259E-2,-5.232122E-3,1.5144018E-2],"split_indices":[0,2,0,3,2,0,0,0,0,0,0,0,0],"split_type":[0,0,0,0,0,0,0,0,0,0,0,0,0],"sum_hessian":[4.4E1,2.4E1,2E1,1E1,1.4E1,1.8E1,2E0,7E0,3E0,9E0,5E0,1.4E1,4E0],"tree_param":{"num_deleted":"0","num_feature":"6","num_nodes":"13","size_leaf_vector":"0"}},{"base_weights":[-2.7825105E-1,-4.2251352E-2,-7.7412534E-1,3.9537323E-1,-1.18236534E-1,-2.07624E-1,-1.872524E0,-5.4168224E-2,4.9611515E-1,-3.693859E-1,9.948066E-2,-6.094488E-1,-2.6131678E-2],"categories":[],"categories_nodes":[],"categories_segments":[],"categories_sizes":[],"default_left":[1,1,1,1,1,1,0,0,0,0,0,0,0],"id":25,"left_children":[1,3,5,7,9,11,-1,-1,-1,-1,-1,-1,-1],"loss_changes":[6.520758E0,1.3436139E0,1.0811616E1,2.9859978E-1,1.8958511E0,9.321397E-1,0E0,0E0,0E0,0E0,0E0,0E0,0E0],"parents":[2147483647,0,0,1,1,2,2,3,3,4,4,5,5],"right_children":[2,4,6,8,10,12,-1,-1,-1,-1,-1,-1,-1],"split_conditions":[4.052351E2,1.0759245E-1,4.5831847E-1,1.75333E-2,7.451716E-2,2.5827184E-2,-4.5400497E-2,-1.3133419E-3,1.2028617E-2,-8.955988E-3,2.4119697E-3,-1.477646E-2,-6.335786E-4],"split_indices":[3,3,4,5,5,5,0,0,0,0,0,0,0],"split_type":[0,0,0,0,0,0,0,0,0,0,0,0,0],"sum_hessian":[5.5E1,3.8E1,1.7E1,5E0,3.3E1,1.2E1,5E0,1E0,4E0,1.5E1,1.8E1,3E0,9E0],"tree_param":{"num_deleted":"0","num_feature":"6","num_nodes":"13","size_leaf_vector":"0"}},{"base_weights":[-4.330655E-1,-9.013056E-1,-1.17637716E-1,3.096991E-1,-1.1589915E0,9.390474E-3,-3.5287365E-1,-3.4737265E-1,5.6081015E-1,-6.411697E-1,-1.7206436E0,1.6329838E-1,-2.0133764E-1,-4.1093367E-1,1.7192326E-1],"categories":[],"categories_nodes":[],"categories_segments":[],"categories_sizes":[],"default_left":[1,1,1,1,1,1,1,0,0,0,0,0,0,0,0],"id":26,"left_children":[1,3,5,7,9,11,13,-1,-1,-1,-1,-1,-1,-1,-1],"loss_changes":[8.755729E0,7.8483505E0,1.1089327E0,1.0198002E0,4.7134895E0,8.436962E-1,4.6675527E-1,0E0,0E0,0E0,0E0,0E0,0E0,0E0,0E0],"parents":[2147483647,0,0,1,1,2,2,3,3,4,4,5,5,6,6],"right_children":[2,4,6,8,10,12,14,-1,-1,-1,-1,-1,-1,-1,-1],"split_conditions":[6.5E0,3.5547142E1,4.5681882E-1,3.1917927E1,4.573503E-1,1.25E1,5.3203076E-1,-8.422263E-3,1.3597187E-2,-1.55455535E-2,-4.1718062E-2,3.9592697E-3,-4.8815547E-3,-9.963339E-3,4.168385E-3],"split_indices":[1,2,4,2,4,1,4,0,0,0,0,0,0,0,0],"split_type":[0,0,0,0,0,0,0,0,0,0,0,0,0,0,0],"sum_hessian":[5.9E1,2.3E1,3.6E1,4E0,1.9E1,2.4E1,1.2E1,1E0,3E0,1.1E1,8E0,1.4E1,1E1,1.1E1,1E0],"tree_param":{"num_deleted":"0","num_feature":"6","num_nodes":"15","size_leaf_vector":"0"}},{"base_weights":[-4.3665546E-1,-1.619012E-1,-1.0334755E0,-9.67297E-1,-4.5229323E-2,-5.1901275E-1,-1.6329237E0,3.9164102E-1,-1.5256235E-1,-9.896492E-2,-1.0193313E0,-3.9328066E-1,-1.8021961E0],"categories":[],"categories_nodes":[],"categories_segments":[],"categories_sizes":[],"default_left":[1,1,1,0,1,1,1,0,0,0,0,0,0],"id":27,"left_children":[1,3,5,-1,7,9,11,-1,-1,-1,-1,-1,-1],"loss_changes":[7.211728E0,2.9631948E0,3.470005E0,0E0,1.4195775E0,1.7905416E0,5.502558E-1,0E0,0E0,0E0,0E0,0E0,0E0],"parents":[2147483647,0,0,1,1,2,2,4,4,5,5,6,6],"right_children":[2,4,6,-1,8,10,12,-1,-1,-1,-1,-1,-1],"split_conditions":[4.5972906E2,1.5224464E-2,5.6080125E-2,-2.345271E-2,1.0759245E-1,5.3435815E2,4.4439697E-1,9.495577E-3,-3.6989679E-3,-2.3994653E-3,-2.4714313E-2,-9.535331E-3,-4.3695353E-2],"split_indices":[3,5,5,0,3,3,4,0,0,0,0,0,0],"split_type":[0,0,0,0,0,0,0,0,0,0,0,0,0],"sum_hessian":[4.4E1,3.1E1,1.3E1,3E0,2.8E1,8E0,5E0,5E0,2.3E1,5E0,3E0,1E0,4E0],"tree_param":{"num_deleted":"0","num_feature":"6","num_nodes":"13","size_leaf_vector":"0"}},{"base_weights":[-4.8691142E-1,-2.837467E-1,-1.1370912E0,-7.6653975E-1,-1.1920343E-1,-6.891498E-1,-1.7159675E0,-2.613156E-1,-1.5853531E0,1.2375473E-1,-3.694413E-1,-8.5260695E-1,-7.803309E-2],"categories":[],"categories_nodes":[],"categories_segments":[],"categories_sizes":[],"default_left":[1,1,1,1,1,1,0,0,0,0,0,0,0],"id":28,"left_children":[1,3,5,7,9,11,-1,-1,-1,-1,-1,-1,-1],"loss_changes":[7.0745955E0,3.404001E0,2.1883755E0,4.136249E0,2.1128294E0,8.324914E-1,0E0,0E0,0E0,0E0,0E0,0E0,0E0],"parents":[2147483647,0,0,1,1,2,2,3,3,4,4,5,5],"right_children":[2,4,6,8,10,12,-1,-1,-1,-1,-1,-1,-1],"split_conditions":[4.6500198E2,6.5E0,4.5847553E-1,3.9776343E2,4.4937396E-1,4.528859E-1,-4.1604687E-2,-6.3357577E-3,-3.8437862E-2,3.0005095E-3,-8.957331E-3,-2.0671979E-2,-1.8919602E-3],"split_indices":[3,1,4,3,4,4,0,0,0,0,0,0,0],"split_type":[0,0,0,0,0,0,0,0,0,0,0,0,0],"sum_hessian":[5.5E1,4.3E1,1.2E1,1E1,3.3E1,8E0,4E0,7E0,3E0,1.7E1,1.6E1,6E0,2E0],"tree_param":{"num_deleted":"0","num_feature":"6","num_nodes":"13","size_leaf_vector":"0"}},{"base_weights":[-4.4346088E-1,-3.9138746E-2,-7.3632735E-1,-3.511916E-1,3.281845E-1,-2.3058562E-1,-1.327845E0,-1.7893592E-1,-6.254647E-1,4.9087995E-1,8.367571E-2,-3.9745444E-1,1.972059E-1,-2.0004632E0,-4.8924616E-1],"categories":[],"categories_nodes":[],"categories_segments":[],"categories_sizes":[],"default_left":[1,1,1,1,1,1,1,0,0,0,0,0,0,0,0],"id":29,"left_children":[1,3,5,7,9,11,13,-1,-1,-1,-1,-1,-1,-1,-1],"loss_changes":[6.720688E0,2.9808624E0,9.565939E0,5.495131E-1,4.3629086E-1,1.4346967E0,7.482132E0,0E0,0E0,0E0,0E0,0E0,0E0,0E0,0E0],"parents":[2147483647,0,0,1,1,2,2,3,3,4,4,5,5,6,6],"right_children":[2,4,6,8,10,12,14,-1,-1,-1,-1,-1,-1,-1,-1],"split_conditions":[3.3217938E2,3.1655003E1,4.5761657E-1,2.926375E1,3.3423706E1,4.377938E-1,4.766355E-1,-4.338411E-3,-1.5164775E-2,1.1901686E-2,2.028769E-3,-9.636527E-3,4.781378E-3,-4.850246E-2,-1.1862074E-2],"split_indices":[3,2,4,2,2,4,4,0,0,0,0,0,0,0,0],"split_type":[0,0,0,0,0,0,0,0,0,0,0,0,0,0,0],"sum_hessian":[5.6E1,2.4E1,3.2E1,1.3E1,1.1E1,1.8E1,1.4E1,9E0,4E0,6E0,5E0,1.3E1,5E0,7E0,7E0],"tree_param":{"num_deleted":"0","num_feature":"6","num_nodes":"15","size_leaf_vector":"0"}},{"base_weights":[-2.197545E-1,1.1615917E-1,-3.7663388E-1,-9.346673E-2,5.160511E-1,-6.210165E-1,-1.11327104E-1,-2.8239784E-1,3.5499492E-1,5.5725014E-1,1.5502796E-1,-2.2476155E-1,-9.92298E-1,-7.622236E-1,1.7673932E-2],"categories":[],"categories_nodes":[],"categories_segments":[],"categories_sizes":[],"default_left":[1,1,1,1,1,1,1,0,0,1,1,0,0,0,0],"id":30,"left_children":[1,3,5,7,-1,11,13,-1,-1,-1,-1,-1,-1,-1,-1],"loss_changes":[2.7313437E0,1.4733045E0,2.2001367E0,1.1169901E0,2.8535128E-3,2.4251685E0,1.5248653E0,0E0,0E0,0E0,0E0,0E0,0E0,0E0,0E0],"parents":[2147483647,0,0,1,1,2,2,3,3,4,4,5,5,6,6],"right_children":[2,4,6,8,-1,12,14,-1,-1,-1,-1,-1,-1,-1,-1],"split_conditions":[4.153551E-1,3.276133E1,7.114277E-2,3.2681547E-2,1.2511976E-2,3.6562027E1,3.0245995E1,-6.846909E-3,8.60707E-3,1.3510872E-2,3.758748E-3,-5.449482E-3,-2.4058875E-2,-1.8480578E-2,4.2851534E-4],"split_indices":[4,2,5,5,2,2,2,0,0,2147483647,2147483647,0,0,0,0],"split_type":[0,0,0,0,0,0,0,0,0,0,0,0,0,0,0],"sum_hessian":[5E1,1.6E1,3.4E1,1.1E1,5E0,1.7E1,1.7E1,8E0,3E0,4E0,1E0,9E0,8E0,2E0,1.5E1],"tree_param":{"num_deleted":"2","num_feature":"6","num_nodes":"15","size_leaf_vector":"0"}},{"base_weights":[-1.6533238E-1,-6.608688E-1,-8.62033E-3,-7.813365E-1,3.3213788E-1,-5.226699E-1,6.506162E-2,3.6360353E-2,-9.67087E-1,1.2851179E-1,-3.413417E-1],"categories":[],"categories_nodes":[],"categories_segments":[],"categories_sizes":[],"default_left":[1,1,1,1,0,0,1,0,0,0,0],"id":31,"left_children":[1,3,5,7,-1,-1,9,-1,-1,-1,-1],"loss_changes":[3.8771296E0,1.695014E0,1.5111765E0,1.7059269E0,0E0,0E0,9.463889E-1,0E0,0E0,0E0,0E0],"parents":[2147483647,0,0,1,1,2,2,3,3,6,6],"right_children":[2,4,6,8,-1,-1,10,-1,-1,-1,-1],"split_conditions":[5.5E0,4.4737495E1,2.5531788E1,2.5E0,8.052887E-3,-1.2672453E-2,3.931703E1,8.815791E-4,-2.3447618E-2,3.1158472E-3,-8.276039E-3],"split_indices":[1,2,2,1,0,0,2,0,0,0,0],"split_type":[0,0,0,0,0,0,0,0,0,0,0],"sum_hessian":[4.9E1,1.1E1,3.8E1,1E1,1E0,4E0,3.4E1,2E0,8E0,3E1,4E0],"tree_param":{"num_deleted":"0","num_feature":"6","num_nodes":"11","size_leaf_vector":"0"}},{"base_weights":[-4.689422E-1,6.627383E-2,-6.533153E-1,6.1000603E-1,-1.20493054E-1,-9.8930067E-1,-2.5106567E-1,3.8708627E-1,-2.0182629E-1,-1.1273142E0,-8.641134E-2,-1.217849E-1,-5.324234E-1],"categories":[],"categories_nodes":[],"categories_segments":[],"categories_sizes":[],"default_left":[1,1,1,0,1,1,1,0,0,0,0,0,0],"id":32,"left_children":[1,3,5,-1,7,9,11,-1,-1,-1,-1,-1,-1],"loss_changes":[5.470667E0,1.5967691E0,5.2927704E0,0E0,5.73521E-1,2.6440258E0,6.6264164E-1,0E0,0E0,0E0,0E0,0E0,0E0],"parents":[2147483647,0,0,1,1,2,2,4,4,5,5,6,6],"right_children":[2,4,6,-1,8,10,12,-1,-1,-1,-1,-1,-1],"split_conditions":[4.153551E-1,5E0,7.5E0,1.4789971E-2,4.0425144E-2,1.4261228E-1,1.85E1,9.385144E-3,-4.8934026E-3,-2.7332425E-2,-2.095096E-3,-2.9527498E-3,-1.2908932E-2],"split_indices":[4,1,1,0,4,5,1,0,0,0,0,0,0],"split_type":[0,0,0,0,0,0,0,0,0,0,0,0,0],"sum_hessian":[5.4E1,1.4E1,4E1,3E0,1.1E1,2.1E1,1.9E1,1E0,1E1,1.8E1,3E0,1.4E1,5E0],"tree_param":{"num_deleted":"0","num_feature":"6","num_nodes":"13","size_leaf_vector":"0"}},{"base_weights":[-2.9054207E-1,-6.583934E-1,-1.3510032E-1,4.2359838E-1,-8.740252E-1,-3.2978582E-1,1.0394089E-2,-3.4687725E-1,-1.0942395E0,-1.05409786E-1,-4.6765763E-1,2.913062E-1,-1.8488306E-1],"categories":[],"categories_nodes":[],"categories_segments":[],"categories_sizes":[],"default_left":[1,1,1,0,1,1,1,0,0,0,0,0,0],"id":33,"left_children":[1,3,5,-1,7,9,11,-1,-1,-1,-1,-1,-1],"loss_changes":[2.6556644E0,3.6366014E0,9.948256E-1,0E0,1.0134592E0,4.1473138E-1,1.2058276E0,0E0,0E0,0E0,0E0,0E0,0E0],"parents":[2147483647,0,0,1,1,2,2,4,4,5,5,6,6],"right_children":[2,4,6,-1,8,10,12,-1,-1,-1,-1,-1,-1],"split_conditions":[6.5E0,3.5E0,3.174644E1,1.0270403E-2,3.97028E2,1.4E1,3.3217938E2,-8.410252E-3,-2.6530508E-2,-2.555725E-3,-1.13386465E-2,7.0628976E-3,-4.482603E-3],"split_indices":[1,1,2,0,3,1,3,0,0,0,0,0,0],"split_type":[0,0,0,0,0,0,0,0,0,0,0,0,0],"sum_hessian":[4.7E1,1.3E1,3.4E1,2E0,1.1E1,1.4E1,2E1,4E0,7E0,6E0,8E0,8E0,1.2E1],"tree_param":{"num_deleted":"0","num_feature":"6","num_nodes":"13","size_leaf_vector":"0"}},{"base_weights":[-3.4048048E-1,-1.5204309E-1,-1.0975386E0,6.1187353E-2,-4.5827517E-1,-1.7646798E0,-4.6421796E-1,4.3234977E-1,-2.044089E-1,-1.252755E0,-1.6289684E-1,-6.538018E-1,3.3664244E-1],"categories":[],"categories_nodes":[],"categories_segments":[],"categories_sizes":[],"default_left":[1,1,1,1,1,0,1,0,0,0,0,0,0],"id":34,"left_children":[1,3,5,7,9,-1,11,-1,-1,-1,-1,-1,-1],"loss_changes":[7.821979E0,3.0317485E0,3.8284607E0,2.8485978E0,4.2547007E0,0E0,1.2829086E0,0E0,0E0,0E0,0E0,0E0,0E0],"parents":[2147483647,0,0,1,1,2,2,3,3,4,4,6,6],"right_children":[2,4,6,8,10,-1,12,-1,-1,-1,-1,-1,-1],"split_conditions":[4.6500198E2,4.628928E-1,5.2142126E2,8.5E0,4.7713035E-1,-4.2785745E-2,6.3071875E2,1.0482586E-2,-4.956019E-3,-3.0373815E-2,-3.949534E-3,-1.5851825E-2,8.162103E-3],"split_indices":[3,4,3,1,4,0,3,0,0,0,0,0,0],"split_type":[0,0,0,0,0,0,0,0,0,0,0,0,0],"sum_hessian":[5.5E1,4.5E1,1E1,2.7E1,1.8E1,4E0,6E0,1.1E1,1.6E1,4E0,1.4E1,5E0,1E0],"tree_param":{"num_deleted":"0","num_feature":"6","num_nodes":"13","size_leaf_vector":"0"}},{"base_weights":[-3.7446114E-1,-2.3990448E-1,-8.7864596E-1,-3.0330154E-1,1.3852309E-1,-1.8414583E0,2.3060746E-1,-3.5121605E-1,1.9177568E-1,5.040722E-1,-6.4138025E-3,7.272673E-3,6.736407E-1],"categories":[],"categories_nodes":[],"categories_segments":[],"categories_sizes":[],"default_left":[1,1,1,1,1,0,1,0,0,0,0,0,0],"id":35,"left_children":[1,3,5,7,9,-1,11,-1,-1,-1,-1,-1,-1],"loss_changes":[3.4526463E0,1.0976269E0,1.2172687E1,9.6876717E-1,3.7410384E-1,0E0,5.887693E-1,0E0,0E0,0E0,0E0,0E0,0E0],"parents":[2147483647,0,0,1,1,2,2,3,3,4,4,6,6],"right_children":[2,4,6,8,10,-1,12,-1,-1,-1,-1,-1,-1],"split_conditions":[1.1322813E-1,9.7655386E-2,1.4261228E-1,4.7835624E-1,4.312863E-1,-4.4647288E-2,8.4061165E0,-8.515449E-3,4.649719E-3,1.2221539E-2,-1.5550658E-4,1.7633042E-4,1.6332833E-2],"split_indices":[5,5,5,4,4,0,0,0,0,0,0,0,0],"split_type":[0,0,0,0,0,0,0,0,0,0,0,0,0],"sum_hessian":[5.3E1,4.3E1,1E1,3.7E1,6E0,5E0,5E0,3.4E1,3E0,1E0,5E0,4E0,1E0],"tree_param":{"num_deleted":"0","num_feature":"6","num_nodes":"13","size_leaf_vector":"0"}},{"base_weights":[-3.625595E-1,2.4218421E-2,-6.0216403E-1,-1.5172468E-1,4.2291433E-1,-9.449928E-1,-1.04914844E-1,-3.4643892E-2,-9.539683E-1,-2.1761411E-1,5.6593806E-1,-6.594335E-1,-1.3811123E0,2.370108E-2,-6.272789E-1],"categories":[],"categories_nodes":[],"categories_segments":[],"categories_sizes":[],"default_left":[1,1,1,1,1,1,1,0,0,0,0,0,0,0,0],"id":36,"left_children":[1,3,5,7,9,11,13,-1,-1,-1,-1,-1,-1,-1,-1],"loss_changes":[5.11164E0,1.6074181E0,5.6968813E0,1.469788E0,7.644316E-1,1.5800076E0,1.0226322E0,0E0,0E0,0E0,0E0,0E0,0E0,0E0,0E0],"parents":[2147483647,0,0,1,1,2,2,3,3,4,4,5,5,6,6],"right_children":[2,4,6,8,10,12,14,-1,-1,-1,-1,-1,-1,-1,-1],"split_conditions":[4.3478066E-1,3.383969E0,4.7767723E-1,2.364364E0,3.1610397E1,4.643619E-1,3.9248062E1,-8.3996245E-4,-2.3129547E-2,-5.276188E-3,1.3721515E-2,-1.598837E-2,-3.3485916E-2,5.746472E-4,-1.5208763E-2],"split_indices":[4,0,4,0,2,4,2,0,0,0,0,0,0,0,0],"split_type":[0,0,0,0,0,0,0,0,0,0,0,0,0,0,0],"sum_hessian":[5.4E1,2.1E1,3.3E1,1.5E1,6E0,1.9E1,1.4E1,1.4E1,1E0,1E0,5E0,1.3E1,6E0,1.2E1,2E0],"tree_param":{"num_deleted":"0","num_feature":"6","num_nodes":"15","size_leaf_vector":"0"}},{"base_weights":[-1.569705E-1,-1.5352257E0,-5.2294012E-2,8.468199E-2,-7.297034E-1,-1.7497832E-1,1.6809905E-1,-1.1525912E0,-3.3003005E-1],"categories":[],"categories_nodes":[],"categories_segments":[],"categories_sizes":[],"default_left":[1,0,1,1,1,0,0,0,0],"id":37,"left_children":[1,-1,3,5,7,-1,-1,-1,-1],"loss_changes":[6.1233664E0,0E0,3.866135E0,7.875172E-1,8.027296E-1,0E0,0E0,0E0,0E0],"parents":[2147483647,0,0,2,2,3,3,4,4],"right_children":[2,-1,4,6,8,-1,-1,-1,-1],"split_conditions":[3.945111E-1,-3.722249E-2,4.536827E2,4.9179798E-1,4.8529156E2,-4.2424565E-3,4.0756646E-3,-2.7945282E-2,-8.001781E-3],"split_indices":[0,0,3,0,3,0,0,0,0],"split_type":[0,0,0,0,0,0,0,0,0],"sum_hessian":[4.2E1,2E0,4E1,3.4E1,6E0,8E0,2.6E1,2E0,4E0],"tree_param":{"num_deleted":"0","num_feature":"6","num_nodes":"9","size_leaf_vector":"0"}},{"base_weights":[-1.190889E-1,-1.1696112E0,-2.321211E-3,-1.448113E-1,-1.6458085E0,-3.3588353E-1,7.02428E-2,1.2669517E-1,-5.5223083E-1,3.3114678E-1,6.6012554E-3],"categories":[],"categories_nodes":[],"categories_segments":[],"categories_sizes":[],"default_left":[1,1,1,0,0,1,1,0,0,0,0],"id":38,"left_children":[1,3,5,-1,-1,7,9,-1,-1,-1,-1],"loss_changes":[7.3573093E0,2.6897097E0,1.3548476E0,0E0,0E0,1.0707415E0,7.616133E-1,0E0,0E0,0E0,0E0],"parents":[2147483647,0,0,1,1,2,2,5,5,6,6],"right_children":[2,4,6,-1,-1,8,10,-1,-1,-1,-1],"split_conditions":[4.010975E-1,5.076934E-2,4.9179798E-1,-3.511039E-3,-3.9903637E-2,2.7297693E2,2.2987805E2,3.0718022E-3,-1.3389176E-2,8.028857E-3,1.600515E-4],"split_indices":[0,5,0,0,0,3,3,0,0,0,0],"split_type":[0,0,0,0,0,0,0,0,0,0,0],"sum_hessian":[5.9E1,5E0,5.4E1,2E0,3E0,9E0,4.5E1,3E0,6E0,8E0,3.7E1],"tree_param":{"num_deleted":"0","num_feature":"6","num_nodes":"11","size_leaf_vector":"0"}},{"base_weights":[-1.6499409E-1,-8.862795E-1,9.815949E-2,-1.922986E-1,-1.3827279E0,3.2745075E-1,1.845709E-2,5.6189794E-2,-3.9271235E-1,-1.5110778E0,-2.4213922E-1,1.3173333E-1,5.880935E-1,-8.718014E-1,1.13182746E-1],"categories":[],"categories_nodes":[],"categories_segments":[],"categories_sizes":[],"default_left":[1,1,1,1,1,1,1,0,0,0,0,0,0,0,0],"id":39,"left_children":[1,3,5,7,9,11,13,-1,-1,-1,-1,-1,-1,-1,-1],"loss_changes":[9.957056E0,4.5574627E0,7.0668364E-1,3.7066984E-1,8.052635E-1,4.3265188E-1,2.6285822E0,0E0,0E0,0E0,0E0,0E0,0E0,0E0,0E0],"parents":[2147483647,0,0,1,1,2,2,3,3,4,4,5,5,6,6],"right_children":[2,4,6,8,10,12,14,-1,-1,-1,-1,-1,-1,-1,-1],"split_conditions":[4.7983885E-1,3.8080035E2,1.2791321E2,2.6418646E2,4.618035E-1,1.1855949E-1,2.8277496E2,1.3623561E-3,-9.521552E-3,-3.663701E-2,-5.870814E-3,3.1939554E-3,1.4258688E-2,-2.113736E-2,2.7441853E-3],"split_indices":[0,3,3,3,0,3,3,0,0,0,0,0,0,0,0],"split_type":[0,0,0,0,0,0,0,0,0,0,0,0,0,0,0],"sum_hessian":[5.1E1,1.3E1,3.8E1,6E0,7E0,9E0,2.9E1,3E0,3E0,6E0,1E0,6E0,3E0,2E0,2.7E1],"tree_param":{"num_deleted":"0","num_feature":"6","num_nodes":"15","size_leaf_vector":"0"}},{"base_weights":[-3.4904543E-1,-7.514293E-1,-1.1179681E-1,5.2744186E-1,-1.0423664E0,-2.6625785E-1,2.0728861E-1,1.3406968E-1,6.1387604E-1,-1.1964281E0,-3.1958953E-1,-3.8749355E-1,2.2344227E-1,3.985836E-1,-1.8554473E-2],"categories":[],"categories_nodes":[],"categories_segments":[],"categories_sizes":[],"default_left":[1,1,1,1,1,1,1,1,1,0,0,0,0,0,0],"id":40,"left_children":[1,3,5,-1,9,11,13,-1,-1,-1,-1,-1,-1,-1,-1],"loss_changes":[4.593779E0,7.2470655E0,1.6323526E0,5.3701043E-2,1.2879181E0,1.3927034E0,4.826246E-1,0E0,0E0,0E0,0E0,0E0,0E0,0E0,0E0],"parents":[2147483647,0,0,1,1,2,2,3,3,4,4,5,5,6,6],"right_children":[2,4,6,-1,10,12,14,-1,-1,-1,-1,-1,-1,-1,-1],"split_conditions":[6.5E0,2.002762E-1,2.8981433E0,1.2788151E-2,4.8895618E-1,4.8183548E-1,4.4783074E-1,3.2506017E-3,1.4883801E-2,-2.9008133E-2,-7.7486443E-3,-9.395019E-3,5.417495E-3,9.663904E-3,-4.498646E-4],"split_indices":[1,4,0,0,4,4,4,2147483647,2147483647,0,0,0,0,0,0],"split_type":[0,0,0,0,0,0,0,0,0,0,0,0,0,0,0],"sum_hessian":[4.8E1,1.7E1,3.1E1,3E0,1.4E1,2.1E1,1E1,1E0,2E0,1.1E1,3E0,1.7E1,4E0,5E0,5E0],"tree_param":{"num_deleted":"2","num_feature":"6","num_nodes":"15","size_leaf_vector":"0"}},{"base_weights":[-2.6075912E-1,1.5165454E-2,-6.000832E-1,-3.801345E-1,1.17627814E-1,-3.422023E-1,-1.4084376E0,-1.00277446E-1,-4.9499366E-1,-2.73401E-1,2.4143587E-1,-2.5614725E-2,-5.929109E-1],"categories":[],"categories_nodes":[],"categories_segments":[],"categories_sizes":[],"default_left":[1,1,1,1,1,1,0,0,0,0,0,0,0],"id":41,"left_children":[1,3,5,7,9,11,-1,-1,-1,-1,-1,-1,-1],"loss_changes":[4.5968647E0,1.1788086E0,4.1041303E0,1.4322823E-1,1.1794966E0,1.4134946E0,0E0,0E0,0E0,0E0,0E0,0E0,0E0],"parents":[2147483647,0,0,1,1,2,2,3,3,4,4,5,5],"right_children":[2,4,6,8,10,12,-1,-1,-1,-1,-1,-1,-1],"split_conditions":[3.9969452E2,4.4571197E-1,4.5831847E-1,3.6716598E-1,1.1855791E-1,4.6353473E2,-3.4148436E-2,-2.4312884E-3,-1.2001425E-2,-6.628775E-3,5.853761E-3,-6.210448E-4,-1.4375488E-2],"split_indices":[3,0,4,0,3,3,0,0,0,0,0,0,0],"split_type":[0,0,0,0,0,0,0,0,0,0,0,0,0],"sum_hessian":[4.8E1,2.7E1,2.1E1,5E0,2.2E1,1.7E1,4E0,2E0,3E0,5E0,1.7E1,8E0,9E0],"tree_param":{"num_deleted":"0","num_feature":"6","num_nodes":"13","size_leaf_vector":"0"}},{"base_weights":[-2.3625337E-1,2.2521599E-1,-3.2382217E-1,-2.1219899E-1,5.5219245E-1,-3.815562E-1,2.7209535E-1,1.3099E-1,-3.3074373E-1,-2.4763888E-1,-7.4035203E-1,3.765752E-1,-7.291201E-2],"categories":[],"categories_nodes":[],"categories_segments":[],"categories_sizes":[],"default_left":[1,1,1,1,0,1,1,0,0,0,0,0,0],"id":42,"left_children":[1,3,5,7,-1,9,11,-1,-1,-1,-1,-1,-1],"loss_changes":[2.4571385E0,1.5474188E0,1.8240557E0,2.4674039E-1,0E0,2.0269127E0,2.0768845E-1,0E0,0E0,0E0,0E0,0E0,0E0],"parents":[2147483647,0,0,1,1,2,2,3,3,5,5,6,6],"right_children":[2,4,6,8,-1,10,12,-1,-1,-1,-1,-1,-1],"split_conditions":[6.133808E-2,7.843479E-1,5.113288E-1,9E0,1.3388245E-2,4.1929884E0,1.4139124E1,3.175933E-3,-8.019085E-3,-6.0041565E-3,-1.7950289E-2,9.130297E-3,-1.7677963E-3],"split_indices":[4,0,4,1,0,0,0,0,0,0,0,0,0],"split_type":[0,0,0,0,0,0,0,0,0,0,0,0,0],"sum_hessian":[5.8E1,9E0,4.9E1,4E0,5E0,4.5E1,4E0,1E0,3E0,3.4E1,1.1E1,3E0,1E0],"tree_param":{"num_deleted":"0","num_feature":"6","num_nodes":"13","size_leaf_vector":"0"}},{"base_weights":[-3.1898457E-1,-3.9832848E-1,2.366527E-1,-2.9760453E-1,-9.0260065E-1,3.747129E-1,-2.9585427E-1,-9.597518E-1,-2.3587357E-1,-1.666944E0,8.7392874E-2,4.7846672E-1,-7.202811E-2],"categories":[],"categories_nodes":[],"categories_segments":[],"categories_sizes":[],"default_left":[1,1,1,1,1,1,0,0,0,0,0,0,0],"id":43,"left_children":[1,3,5,7,9,11,-1,-1,-1,-1,-1,-1,-1],"loss_changes":[2.3426738E0,2.017035E0,6.2548655E-1,1.3677444E0,5.4425445E0,3.1256956E-1,0E0,0E0,0E0,0E0,0E0,0E0,0E0],"parents":[2147483647,0,0,1,1,2,2,3,3,4,4,5,5],"right_children":[2,4,6,8,10,12,-1,-1,-1,-1,-1,-1,-1],"split_conditions":[1.4203382E-1,1.1251627E-1,2.65E1,-8.549543E-3,9.5E0,1.41478615E1,-7.1731685E-3,-2.326977E-2,-5.7188994E-3,-4.041608E-2,2.118894E-3,1.160072E-2,-1.7463657E-3],"split_indices":[5,5,1,5,1,0,0,0,0,0,0,0,0],"split_type":[0,0,0,0,0,0,0,0,0,0,0,0,0],"sum_hessian":[5E1,4.4E1,6E0,3.8E1,6E0,5E0,1E0,2E0,3.6E1,3E0,3E0,4E0,1E0],"tree_param":{"num_deleted":"0","num_feature":"6","num_nodes":"13","size_leaf_vector":"0"}},{"base_weights":[-4.6971267E-1,-8.9878273E-1,-1.6004851E-1,-2.1255122E-1,-1.0881125E0,-1.9174136E-1,4.1121477E-1,-6.8417126E-1,1.9430162E-1,-2.7439874E-1,-1.2428797E0,-1.15104675E-1,-5.672312E-1],"categories":[],"categories_nodes":[],"categories_segments":[],"categories_sizes":[],"default_left":[1,1,1,1,1,1,0,0,0,0,0,0,0],"id":44,"left_children":[1,3,5,7,9,11,-1,-1,-1,-1,-1,-1,-1],"loss_changes":[6.898134E0,2.6270504E0,6.582055E-1,1.2842155E0,1.7998714E0,8.2677424E-1,0E0,0E0,0E0,0E0,0E0,0E0,0E0],"parents":[2147483647,0,0,1,1,2,2,3,3,4,4,5,5],"right_children":[2,4,6,8,10,12,-1,-1,-1,-1,-1,-1,-1],"split_conditions":[6.5E0,4.1704798E-1,5.25E1,3.795481E1,3.4222805E1,1.85E1,9.970155E-3,-1.6588153E-2,4.710962E-3,-6.652966E-3,-3.0134384E-2,-2.7907835E-3,-1.3752868E-2],"split_indices":[1,4,1,2,2,1,0,0,0,0,0,0,0],"split_type":[0,0,0,0,0,0,0,0,0,0,0,0,0],"sum_hessian":[5.2E1,2.1E1,3.1E1,5E0,1.6E1,3E1,1E0,2E0,3E0,3E0,1.3E1,2.6E1,4E0],"tree_param":{"num_deleted":"0","num_feature":"6","num_nodes":"13","size_leaf_vector":"0"}},{"base_weights":[-3.0021185E-1,1.8264653E-1,-5.718611E-1,4.273389E-1,-5.687537E-2,-2.5448203E-1,-1.0415435E0,5.111592E-1,-2.054318E-1,-4.359305E-1,2.7615407E-1,-4.0196183E-1,2.54951E-1,-4.1263166E-1,-1.5402625E0],"categories":[],"categories_nodes":[],"categories_segments":[],"categories_sizes":[],"default_left":[1,1,1,1,1,1,1,0,0,0,0,0,0,0,0],"id":45,"left_children":[1,3,5,7,9,11,13,-1,-1,-1,-1,-1,-1,-1,-1],"loss_changes":[7.843367E0,1.3137069E0,5.3995056E0,6.8843746E-1,1.6352222E0,1.9056265E0,4.069193E0,0E0,0E0,0E0,0E0,0E0,0E0,0E0,0E0],"parents":[2147483647,0,0,1,1,2,2,3,3,4,4,5,5,6,6],"right_children":[2,4,6,8,10,12,14,-1,-1,-1,-1,-1,-1,-1,-1],"split_conditions":[3.341228E2,4.1197217E-1,4.5831847E-1,1.1691193E1,4.656477E-1,4.528859E-1,3.8429163E2,1.2393368E-2,-4.98082E-3,-1.0569403E-2,6.6955253E-3,-9.745811E-3,6.1814436E-3,-1.0004508E-2,-3.734461E-2],"split_indices":[3,4,4,0,4,4,3,0,0,0,0,0,0,0,0],"split_type":[0,0,0,0,0,0,0,0,0,0,0,0,0,0,0],"sum_hessian":[5.8E1,2.1E1,3.7E1,1E1,1.1E1,2.3E1,1.4E1,9E0,1E0,5E0,6E0,1.8E1,5E0,7E0,7E0],"tree_param":{"num_deleted":"0","num_feature":"6","num_nodes":"15","size_leaf_vector":"0"}},{"base_weights":[-3.3942753E-1,-1.0337883E-1,-6.2410265E-1,-1.1748849E0,3.054547E-4,-6.60812E-2,-1.1375453E0,-3.499745E-1,1.7543155E-1,-1.0417039E0,8.9097776E-2,-1.4533691E0,1.5356615E-2],"categories":[],"categories_nodes":[],"categories_segments":[],"categories_sizes":[],"default_left":[1,1,1,0,1,1,1,0,0,0,0,0,0],"id":46,"left_children":[1,3,5,-1,7,9,11,-1,-1,-1,-1,-1,-1],"loss_changes":[3.9673123E0,3.7777023E0,7.660654E0,0E0,2.0243776E0,2.2123597E0,5.119915E0,0E0,0E0,0E0,0E0,0E0,0E0],"parents":[2147483647,0,0,1,1,2,2,4,4,5,5,6,6],"right_children":[2,4,6,-1,8,10,12,-1,-1,-1,-1,-1,-1],"split_conditions":[4.5831847E-1,3.5534578E-3,3.7229465E1,-2.8485807E-2,3.0178295E1,4.603059E-1,5.0216734E-1,-8.485347E-3,4.2534457E-3,-2.5256751E-2,2.1602302E-3,-3.5237826E-2,3.7233057E-4],"split_indices":[4,5,2,0,2,4,4,0,0,0,0,0,0],"split_type":[0,0,0,0,0,0,0,0,0,0,0,0,0],"sum_hessian":[5.9E1,3.3E1,2.6E1,2E0,3.1E1,1.3E1,1.3E1,1E1,2.1E1,1E0,1.2E1,1E1,3E0],"tree_param":{"num_deleted":"0","num_feature":"6","num_nodes":"13","size_leaf_vector":"0"}},{"base_weights":[-2.2891217E-1,-1.6322152E-1,-1.2255555E0,-8.472998E-1,-1.0018816E-1,-3.8692817E-1,-9.79015E-3],"categories":[],"categories_nodes":[],"categories_segments":[],"categories_sizes":[],"default_left":[1,1,0,0,1,0,0],"id":47,"left_children":[1,3,-1,-1,5,-1,-1],"loss_changes":[3.1389413E0,2.0279787E0,0E0,0E0,1.1885653E0,0E0,0E0],"parents":[2147483647,0,0,1,1,4,4],"right_children":[2,4,-1,-1,6,-1,-1],"split_conditions":[4.241404E1,-8.549543E-3,-2.9714346E-2,-2.0543305E-2,4.9179798E-1,-9.381311E-3,-2.3736821E-4],"split_indices":[2,5,0,0,0,0,0],"split_type":[0,0,0,0,0,0,0],"sum_hessian":[5E1,4.8E1,2E0,3E0,4.5E1,1E1,3.5E1],"tree_param":{"num_deleted":"0","num_feature":"6","num_nodes":"7","size_leaf_vector":"0"}},{"base_weights":[-2.2073331E-1,-1.2806101E0,-1.3495946E-1,-7.1482874E-2,-8.788077E-1,-1.8238586E-1,4.4168434E-1],"categories":[],"categories_nodes":[],"categories_segments":[],"categories_sizes":[],"default_left":[1,0,1,1,0,0,0],"id":48,"left_children":[1,-1,3,5,-1,-1,-1],"loss_changes":[4.8272033E0,0E0,2.3924613E0,2.8692338E0,0E0,0E0,0E0],"parents":[2147483647,0,0,2,2,3,3],"right_children":[2,-1,4,6,-1,-1,-1],"split_conditions":[4.1217738E-1,-3.1049179E-2,1.4548445E1,9.523717E0,-2.1307234E-2,-4.4220574E-3,1.0708908E-2],"split_indices":[0,0,0,0,0,0,0],"split_type":[0,0,0,0,0,0,0],"sum_hessian":[5.4E1,3E0,5.1E1,4.8E1,3E0,4E1,8E0],"tree_param":{"num_deleted":"0","num_feature":"6","num_nodes":"7","size_leaf_vector":"0"}},{"base_weights":[-4.394687E-1,-8.515099E-2,-7.087458E-1,-2.3712048E-1,4.485755E-1,-1.0415862E0,-2.9578337E-1,-1.1361938E0,-4.149779E-2,5.2639306E-1,6.8652704E-2,-5.6146103E-1,-1.4415026E0,-5.1791245E-1,1.6320562E-1],"categories":[],"categories_nodes":[],"categories_segments":[],"categories_sizes":[],"default_left":[1,1,1,1,1,1,1,0,0,1,1,0,0,0,0],"id":49,"left_children":[1,3,5,7,-1,11,13,-1,-1,-1,-1,-1,-1,-1,-1],"loss_changes":[4.328493E0,1.8096796E0,3.2656307E0,2.9427958E0,1.1168492E-1,1.8787928E0,1.4099386E0,0E0,0E0,0E0,0E0,0E0,0E0,0E0,0E0],"parents":[2147483647,0,0,1,1,2,2,3,3,4,4,5,5,6,6],"right_children":[2,4,6,8,-1,12,14,-1,-1,-1,-1,-1,-1,-1,-1],"split_conditions":[4.348457E-1,3.383969E0,4.7699243E-1,3.5E0,1.0875989E-2,4.5739827E-1,1.4E1,-2.7547715E-2,-1.0061394E-3,1.2762723E-2,1.664527E-3,-1.3612968E-2,-3.4950115E-2,-1.2557105E-2,3.9570206E-3],"split_indices":[4,0,4,1,4,4,1,0,0,2147483647,2147483647,0,0,0,0],"split_type":[0,0,0,0,0,0,0,0,0,0,0,0,0,0,0],"sum_hessian":[4.5E1,2E1,2.5E1,1.6E1,4E0,1.3E1,1.2E1,2E0,1.4E1,3E0,1E0,7E0,6E0,8E0,4E0],"tree_param":{"num_deleted":"2","num_feature":"6","num_nodes":"15","size_leaf_vector":"0"}},{"base_weights":[-3.605307E-1,-2.9876843E-2,-5.6002164E-1,-1.9262998E-1,2.0853066E-1,-4.0407845E-1,-1.0815136E0,1.0029462E-1,-5.5109113E-1,-2.2096223E-1,3.6280897E-1,-8.417831E-1,-2.6633725E-1,-1.5164837E0,3.9408877E-3],"categories":[],"categories_nodes":[],"categories_segments":[],"categories_sizes":[],"default_left":[1,1,1,1,1,1,1,0,0,0,0,0,0,0,0],"id":50,"left_children":[1,3,5,7,9,11,13,-1,-1,-1,-1,-1,-1,-1,-1],"loss_changes":[3.4792786E0,8.550023E-1,2.246647E0,1.4202986E0,6.765199E-1,1.4036312E0,3.310958E0,0E0,0E0,0E0,0E0,0E0,0E0,0E0,0E0],"parents":[2147483647,0,0,1,1,2,2,3,3,4,4,5,5,6,6],"right_children":[2,4,6,8,10,12,14,-1,-1,-1,-1,-1,-1,-1,-1],"split_conditions":[3.3217938E2,6.779182E-2,1.18683346E-1,6.133808E-2,4.431347E-1,5.0291047E-3,4.8703128E-1,2.4317047E-3,-1.3361543E-2,-5.3573647E-3,8.796526E-3,-2.0409549E-2,-6.45751E-3,-3.676808E-2,9.554924E-5],"split_indices":[3,5,5,4,4,5,4,0,0,0,0,0,0,0,0],"split_type":[0,0,0,0,0,0,0,0,0,0,0,0,0,0,0],"sum_hessian":[5.2E1,2E1,3.2E1,1.2E1,8E0,2.6E1,6E0,7E0,5E0,2E0,6E0,5E0,2.1E1,4E0,2E0],"tree_param":{"num_deleted":"0","num_feature":"6","num_nodes":"15","size_leaf_vector":"0"}},{"base_weights":[-1.7935452E-1,6.773079E-2,-6.048372E-1,-5.312582E-1,1.2948923E-1,-1.2082212E0,-3.2624042E-1,7.9889335E-2,7.343432E-1,-8.2274187E-1,-1.6117272E-1],"categories":[],"categories_nodes":[],"categories_segments":[],"categories_sizes":[],"default_left":[1,1,1,0,1,0,1,0,0,0,0],"id":51,"left_children":[1,3,5,-1,7,-1,9,-1,-1,-1,-1],"loss_changes":[4.8769693E0,1.1785711E0,2.4635434E0,0E0,7.8135324E-1,0E0,9.3282926E-1,0E0,0E0,0E0,0E0],"parents":[2147483647,0,0,1,1,2,2,4,4,6,6],"right_children":[2,4,6,-1,8,-1,10,-1,-1,-1,-1],"split_conditions":[3.748385E2,2.5531788E1,5.0303185E-1,-1.2880682E-2,3.684557E2,-2.9294064E-2,3.7694344E1,1.936966E-3,1.78046E-2,-1.9947883E-2,-3.9077317E-3],"split_indices":[3,2,0,0,3,0,2,0,0,0,0],"split_type":[0,0,0,0,0,0,0,0,0,0,0],"sum_hessian":[4.5E1,2.9E1,1.6E1,2E0,2.7E1,4E0,1.2E1,2.6E1,1E0,2E0,1E1],"tree_param":{"num_deleted":"0","num_feature":"6","num_nodes":"11","size_leaf_vector":"0"}},{"base_weights":[-2.8616482E-1,-5.0689545E-2,-4.9460027E-1,5.801219E-1,-1.58192E-1,-7.4299073E-1,-1.9313902E-1,-1.0462392E-1,8.4324515E-1,-2.0358522E-1,4.2022955E-1,-1.1252601E0,-3.6311558E-1,2.469355E-1,-3.9386237E-1],"categories":[],"categories_nodes":[],"categories_segments":[],"categories_sizes":[],"default_left":[1,1,1,1,1,1,1,0,0,0,0,0,0,0,0],"id":52,"left_children":[1,3,5,7,9,11,13,-1,-1,-1,-1,-1,-1,-1,-1],"loss_changes":[2.576243E0,1.8549287E0,1.9531422E0,8.089137E-1,6.894502E-1,1.76962E0,1.3339238E0,0E0,0E0,0E0,0E0,0E0,0E0,0E0,0E0],"parents":[2147483647,0,0,1,1,2,2,3,3,4,4,5,5,6,6],"right_children":[2,4,6,8,10,12,14,-1,-1,-1,-1,-1,-1,-1,-1],"split_conditions":[3.5547142E1,6.5E0,3.842269E1,2.059989E-2,4.1E1,6.5E0,3.9185165E1,-2.5366712E-3,2.0444997E-2,-4.9360488E-3,1.0188724E-2,-2.7282622E-2,-8.80396E-3,5.987103E-3,-9.549435E-3],"split_indices":[2,1,2,5,1,1,2,0,0,0,0,0,0,0,0],"split_type":[0,0,0,0,0,0,0,0,0,0,0,0,0,0,0],"sum_hessian":[5.2E1,2.5E1,2.7E1,3E0,2.2E1,1.4E1,1.3E1,1E0,2E0,2.1E1,1E0,6E0,8E0,4E0,9E0],"tree_param":{"num_deleted":"0","num_feature":"6","num_nodes":"15","size_leaf_vector":"0"}},{"base_weights":[-2.516521E-1,1.885749E-1,-3.7742925E-1,-9.869049E-2,4.1636026E-1,-2.4840394E-1,-8.9460224E-1,-3.6365318E-1,3.7581083E-1,1.649125E-1,4.7269073E-1,-3.3180124E-1,2.6628358E-2,-2.1356884E-1,-9.5303535E-1],"categories":[],"categories_nodes":[],"categories_segments":[],"categories_sizes":[],"default_left":[1,1,1,1,1,1,1,0,0,1,1,0,0,0,0],"id":53,"left_children":[1,3,5,7,-1,11,13,-1,-1,-1,-1,-1,-1,-1,-1],"loss_changes":[3.3934035E0,9.5717853E-1,2.914012E0,1.0167408E0,3.5360813E-2,9.0337634E-1,1.546154E-1,0E0,0E0,0E0,0E0,0E0,0E0,0E0,0E0],"parents":[2147483647,0,0,1,1,2,2,3,3,4,4,5,5,6,6],"right_children":[2,4,6,8,-1,12,14,-1,-1,-1,-1,-1,-1,-1,-1],"split_conditions":[4.153551E-1,3.276133E1,4.5735757E2,1.1855791E-1,1.009491E-2,4.9932522E-1,4.17749E-1,-8.816995E-3,9.111765E-3,3.998405E-3,1.1460677E-2,-8.044724E-3,6.456209E-4,-5.1781074E-3,-2.3106927E-2],"split_indices":[4,2,3,3,4,4,4,0,0,2147483647,2147483647,0,0,0,0],"split_type":[0,0,0,0,0,0,0,0,0,0,0,0,0,0,0],"sum_hessian":[5.9E1,1.3E1,4.6E1,6E0,7E0,3.8E1,8E0,4E0,2E0,2E0,5E0,2.9E1,9E0,1E0,7E0],"tree_param":{"num_deleted":"2","num_feature":"6","num_nodes":"15","size_leaf_vector":"0"}},{"base_weights":[-3.2879266E-1,-1.8695065E-1,-7.004388E-1,-4.0147915E-1,-3.614204E-2,1.203835E-1,-1.040806E0,-6.9517475E-1,-9.580758E-2,1.9006184E-1,-1.2210232E-1,4.0716428E-1,-2.065251E-1],"categories":[],"categories_nodes":[],"categories_segments":[],"categories_sizes":[],"default_left":[1,1,1,1,1,1,0,0,0,0,0,0,0],"id":54,"left_children":[1,3,5,7,9,11,-1,-1,-1,-1,-1,-1,-1],"loss_changes":[2.6102343E0,1.2472467E0,4.0366306E0,1.3697875E0,4.8987612E-1,5.528452E-1,0E0,0E0,0E0,0E0,0E0,0E0,0E0],"parents":[2147483647,0,0,1,1,2,2,3,3,4,4,5,5],"right_children":[2,4,6,8,10,12,-1,-1,-1,-1,-1,-1,-1],"split_conditions":[4.5180185E2,8.5E0,3.5E0,3.3757852E2,2.9191948E1,4.1882484E1,-2.5234982E-2,-1.6854938E-2,-2.3229136E-3,4.608166E-3,-2.9604458E-3,9.871948E-3,-5.007328E-3],"split_indices":[3,1,1,3,2,2,0,0,0,0,0,0,0],"split_type":[0,0,0,0,0,0,0,0,0,0,0,0,0],"sum_hessian":[5.1E1,3.8E1,1.3E1,1.5E1,2.3E1,4E0,9E0,7E0,8E0,6E0,1.7E1,2E0,2E0],"tree_param":{"num_deleted":"0","num_feature":"6","num_nodes":"13","size_leaf_vector":"0"}},{"base_weights":[-1.85045E-1,6.1101343E-2,-8.903155E-1,-8.701746E-1,1.3701041E-1,-1.0469747E0,4.9479753E-1,2.0873912E-1,-2.5642294E-1,-4.4749543E-1,-1.2907774E0],"categories":[],"categories_nodes":[],"categories_segments":[],"categories_sizes":[],"default_left":[1,1,1,0,1,1,0,0,0,0,0],"id":55,"left_children":[1,3,5,-1,7,9,-1,-1,-1,-1,-1],"loss_changes":[8.734387E0,2.80553E0,3.3389196E0,0E0,1.0694622E0,1.176239E0,0E0,0E0,0E0,0E0,0E0],"parents":[2147483647,0,0,1,1,2,2,4,4,5,5],"right_children":[2,4,6,-1,8,10,-1,-1,-1,-1,-1],"split_conditions":[4.5735757E2,4.7960874E-1,4.4302475E1,-2.1097917E-2,3.9315742E1,4.6690315E-1,1.199667E-2,5.061008E-3,-6.2171314E-3,-1.0849802E-2,-3.129569E-2],"split_indices":[3,0,2,0,2,0,0,0,0,0,0],"split_type":[0,0,0,0,0,0,0,0,0,0,0],"sum_hessian":[4.9E1,3.7E1,1.2E1,2E0,3.5E1,1.1E1,1E0,3E1,5E0,4E0,7E0],"tree_param":{"num_deleted":"0","num_feature":"6","num_nodes":"11","size_leaf_vector":"0"}},{"base_weights":[-3.1016254E-1,-1.0262909E-1,-6.085393E-1,3.2993708E-2,-6.6920835E-1,-1.4099042E0,-3.7777108E-1,-2.3343806E-1,1.9952989E-1,-8.0145365E-1,6.2131688E-2,-4.940227E-1,2.1074109E-1],"categories":[],"categories_nodes":[],"categories_segments":[],"categories_sizes":[],"default_left":[1,1,1,1,1,0,1,0,0,0,0,0,0],"id":56,"left_children":[1,3,5,7,9,-1,11,-1,-1,-1,-1,-1,-1],"loss_changes":[3.5910125E0,2.788358E0,3.9056873E0,1.3776938E0,7.2680974E-1,0E0,1.4724207E0,0E0,0E0,0E0,0E0,0E0,0E0],"parents":[2147483647,0,0,1,1,2,2,3,3,4,4,6,6],"right_children":[2,4,6,8,10,-1,12,-1,-1,-1,-1,-1,-1],"split_conditions":[4.5751074E-1,4.0595985E1,4.6559048E-1,3.2486893E1,4.528859E-1,-3.4183994E-2,1.764305E-1,-5.659849E-3,4.837725E-3,-1.9431736E-2,1.5064209E-3,-1.1977884E-2,5.109547E-3],"split_indices":[4,2,4,2,4,0,5,0,0,0,0,0,0],"split_type":[0,0,0,0,0,0,0,0,0,0,0,0,0],"sum_hessian":[5.8E1,3.5E1,2.3E1,2.9E1,6E0,4E0,1.9E1,1.1E1,1.8E1,5E0,1E0,1.6E1,3E0],"tree_param":{"num_deleted":"0","num_feature":"6","num_nodes":"13","size_leaf_vector":"0"}},{"base_weights":[-2.4009556E-1,5.7495326E-2,-6.3962126E-1,3.846648E-1,4.950204E-3,-2.3402046E-1,-1.15442E0,5.1877904E-1,-8.838996E-3,4.30831E-1,-4.8491154E-2,-7.906244E-1,1.2023154E-2,-1.3096377E0,4.366052E-2],"categories":[],"categories_nodes":[],"categories_segments":[],"categories_sizes":[],"default_left":[1,1,1,1,1,1,1,0,0,0,0,0,0,0,0],"id":57,"left_children":[1,3,5,7,9,11,13,-1,-1,-1,-1,-1,-1,-1,-1],"loss_changes":[5.8626394E0,4.966395E-1,4.1147013E0,2.156834E-1,6.1264235E-1,1.7898407E0,1.7308483E0,0E0,0E0,0E0,0E0,0E0,0E0,0E0,0E0],"parents":[2147483647,0,0,1,1,2,2,3,3,4,4,5,5,6,6],"right_children":[2,4,6,8,10,12,14,-1,-1,-1,-1,-1,-1,-1,-1],"split_conditions":[3.9969452E2,1.0759245E-1,4.573503E-1,2.25E1,4.5E0,4.065264E-1,1.1E1,1.2578117E-2,-2.143069E-4,1.04457615E-2,-1.1756978E-3,-1.9169174E-2,2.9150874E-4,-3.175297E-2,1.0585762E-3],"split_indices":[3,3,4,1,1,4,1,0,0,0,0,0,0,0,0],"split_type":[0,0,0,0,0,0,0,0,0,0,0,0,0,0,0],"sum_hessian":[4.8E1,2.8E1,2E1,3E0,2.5E1,1.2E1,8E0,2E0,1E0,2E0,2.3E1,3E0,9E0,7E0,1E0],"tree_param":{"num_deleted":"0","num_feature":"6","num_nodes":"15","size_leaf_vector":"0"}},{"base_weights":[-2.0760925E-1,-6.3292027E-1,-1.8079897E-2,-8.667919E-1,-3.5470992E-1,-1.206215E-1,5.3182197E-1,-9.687608E-1,-7.6505E-2,2.611227E-2,-5.4947305E-1,3.480252E-2,-1.2172903E0,7.0975053E-1,1.1730993E-1],"categories":[],"categories_nodes":[],"categories_segments":[],"categories_sizes":[],"default_left":[1,1,1,1,1,1,1,0,0,0,0,0,0,0,0],"id":58,"left_children":[1,3,5,7,9,11,13,-1,-1,-1,-1,-1,-1,-1,-1],"loss_changes":[4.1802206E0,7.335882E-1,2.1504984E0,5.7056236E-1,6.8187904E-1,5.496722E0,3.5926032E-1,0E0,0E0,0E0,0E0,0E0,0E0,0E0,0E0],"parents":[2147483647,0,0,1,1,2,2,3,3,4,4,5,5,6,6],"right_children":[2,4,6,8,10,12,14,-1,-1,-1,-1,-1,-1,-1,-1],"split_conditions":[4.8377407E-1,7E0,1.2967815E-1,1.597907E-1,4.267082E-1,1.1322813E-1,1.5E1,-2.3488201E-2,-1.8549106E-3,6.33108E-4,-1.3322311E-2,8.4380846E-4,-2.9513951E-2,1.7208338E-2,2.8442512E-3],"split_indices":[0,1,5,5,0,5,1,0,0,0,0,0,0,0,0],"split_type":[0,0,0,0,0,0,0,0,0,0,0,0,0,0,0],"sum_hessian":[5.1E1,1.5E1,3.6E1,7E0,8E0,3.1E1,5E0,6E0,1E0,3E0,5E0,2.8E1,3E0,3E0,2E0],"tree_param":{"num_deleted":"0","num_feature":"6","num_nodes":"15","size_leaf_vector":"0"}}]},"name":"gbtree"},"learner_model_param":{"base_score":"5E-1","num_class":"0","num_feature":"6","num_target":"1"},"objective":{"name":"reg:squarederror","reg_loss_param":{"scale_pos_weight":"1"}}},"version":[1,6,1]}